{"learner":{"attributes":{},"feature_names":["NO2 (ug/m3)","O3 (ug/m3)","PM10 (ug/m3)","PM2.5 (ug/m3)","CO (mg/m3)","SO2 (ug/m3)","Benceno (ug/m3)","Tolueno (ug/m3)","NO (ug/m3)","NOx (ug/m3)","temperature_2m (°C)","wind_speed_10m (km/h)","wind_gusts_10m (km/h)","relative_humidity_2m (%)","wind_direction_10m (°)","et0_fao_evapotranspiration (mm)","dew_point_2m (°C)","rain (mm)","vapour_pressure_deficit (kPa)","cloud_cover (%)","shortwave_radiation (W/m²)","NO2 (ug/m3)_lag_1","NO2 (ug/m3)_lag_2","NO2 (ug/m3)_lag_3","O3 (ug/m3)_lag_1","O3 (ug/m3)_lag_2","O3 (ug/m3)_lag_3","PM10 (ug/m3)_lag_1","PM10 (ug/m3)_lag_2","PM10 (ug/m3)_lag_3","PM2.5 (ug/m3)_lag_1","PM2.5 (ug/m3)_lag_2","PM2.5 (ug/m3)_lag_3","CO (mg/m3)_lag_1","CO (mg/m3)_lag_2","CO (mg/m3)_lag_3","SO2 (ug/m3)_lag_1","SO2 (ug/m3)_lag_2","SO2 (ug/m3)_lag_3","Benceno (ug/m3)_lag_1","Benceno (ug/m3)_lag_2","Benceno (ug/m3)_lag_3","Tolueno (ug/m3)_lag_1","Tolueno (ug/m3)_lag_2","Tolueno (ug/m3)_lag_3","NO (ug/m3)_lag_1","NO (ug/m3)_lag_2","NO (ug/m3)_lag_3","NOx (ug/m3)_lag_1","NOx (ug/m3)_lag_2","NOx (ug/m3)_lag_3","temperature_2m (°C)_lag_1","temperature_2m (°C)_lag_2","temperature_2m (°C)_lag_3","wind_speed_10m (km/h)_lag_1","wind_speed_10m (km/h)_lag_2","wind_speed_10m (km/h)_lag_3","wind_gusts_10m (km/h)_lag_1","wind_gusts_10m (km/h)_lag_2","wind_gusts_10m (km/h)_lag_3","relative_humidity_2m (%)_lag_1","relative_humidity_2m (%)_lag_2","relative_humidity_2m (%)_lag_3","wind_direction_10m (°)_lag_1","wind_direction_10m (°)_lag_2","wind_direction_10m (°)_lag_3","et0_fao_evapotranspiration (mm)_lag_1","et0_fao_evapotranspiration (mm)_lag_2","et0_fao_evapotranspiration (mm)_lag_3","dew_point_2m (°C)_lag_1","dew_point_2m (°C)_lag_2","dew_point_2m (°C)_lag_3","rain (mm)_lag_1","rain (mm)_lag_2","rain (mm)_lag_3","vapour_pressure_deficit (kPa)_lag_1","vapour_pressure_deficit (kPa)_lag_2","vapour_pressure_deficit (kPa)_lag_3","cloud_cover (%)_lag_1","cloud_cover (%)_lag_2","cloud_cover (%)_lag_3","shortwave_radiation (W/m²)_lag_1","shortwave_radiation (W/m²)_lag_2","shortwave_radiation (W/m²)_lag_3","precip_autumn_last_year","precip_winter_last_year","temp_mean_spring_summer_last","humidity_sum_spring_summer_last","co2_mean_april_may_last","o3_mean_april_may_last","no2_mean_april_may_last","drought_days_summer_last","growing_degree_days_last","polen_rolling_mean_3d","polen_rolling_mean_7d","polen_lag_1","polen_lag_2","polen_lag_3","polen_lag_4","polen_lag_5","polen_lag_6","polen_lag_7","polen_rolling_mean_3d_lag_1","polen_rolling_mean_7d_lag_1","polen_rolling_mean_3d_lag_2","polen_rolling_mean_7d_lag_2","polen_rolling_mean_3d_lag_3","polen_rolling_mean_7d_lag_3","polen_rolling_mean_3d_lag_4","polen_rolling_mean_7d_lag_4","polen_rolling_mean_3d_lag_5","polen_rolling_mean_7d_lag_5","polen_rolling_mean_3d_lag_6","polen_rolling_mean_7d_lag_6","polen_rolling_mean_3d_lag_7","polen_rolling_mean_7d_lag_7","temperature_forecast_t+1","rain_forecast_t+1","humidity_forecast_t+1","temperature_forecast_t+2","rain_forecast_t+2","humidity_forecast_t+2","temperature_forecast_t+3","rain_forecast_t+3","humidity_forecast_t+3"],"feature_types":["float","float","float","float","float","float","float","float","float","float","float","float","float","float","float","float","float","float","float","float","float","float","float","float","float","float","float","float","float","float","float","float","float","float","float","float","float","float","float","float","float","float","float","float","float","float","float","float","float","float","float","float","float","float","float","float","float","float","float","float","float","float","float","float","float","float","float","float","float","float","float","float","float","float","float","float","float","float","float","float","float","float","float","float","float","float","float","float","float","float","float","float","float","float","float","float","float","float","float","float","float","float","float","float","float","float","float","float","float","float","float","float","float","float","float","float","float","float","float","float","float","float","float","float","float"],"gradient_booster":{"model":{"cats":{"enc":[],"feature_segments":[],"sorted_idx":[]},"gbtree_model_param":{"num_parallel_tree":"1","num_trees":"1000"},"iteration_indptr":[0,1,2,3,4,5,6,7,8,9,10,11,12,13,14,15,16,17,18,19,20,21,22,23,24,25,26,27,28,29,30,31,32,33,34,35,36,37,38,39,40,41,42,43,44,45,46,47,48,49,50,51,52,53,54,55,56,57,58,59,60,61,62,63,64,65,66,67,68,69,70,71,72,73,74,75,76,77,78,79,80,81,82,83,84,85,86,87,88,89,90,91,92,93,94,95,96,97,98,99,100,101,102,103,104,105,106,107,108,109,110,111,112,113,114,115,116,117,118,119,120,121,122,123,124,125,126,127,128,129,130,131,132,133,134,135,136,137,138,139,140,141,142,143,144,145,146,147,148,149,150,151,152,153,154,155,156,157,158,159,160,161,162,163,164,165,166,167,168,169,170,171,172,173,174,175,176,177,178,179,180,181,182,183,184,185,186,187,188,189,190,191,192,193,194,195,196,197,198,199,200,201,202,203,204,205,206,207,208,209,210,211,212,213,214,215,216,217,218,219,220,221,222,223,224,225,226,227,228,229,230,231,232,233,234,235,236,237,238,239,240,241,242,243,244,245,246,247,248,249,250,251,252,253,254,255,256,257,258,259,260,261,262,263,264,265,266,267,268,269,270,271,272,273,274,275,276,277,278,279,280,281,282,283,284,285,286,287,288,289,290,291,292,293,294,295,296,297,298,299,300,301,302,303,304,305,306,307,308,309,310,311,312,313,314,315,316,317,318,319,320,321,322,323,324,325,326,327,328,329,330,331,332,333,334,335,336,337,338,339,340,341,342,343,344,345,346,347,348,349,350,351,352,353,354,355,356,357,358,359,360,361,362,363,364,365,366,367,368,369,370,371,372,373,374,375,376,377,378,379,380,381,382,383,384,385,386,387,388,389,390,391,392,393,394,395,396,397,398,399,400,401,402,403,404,405,406,407,408,409,410,411,412,413,414,415,416,417,418,419,420,421,422,423,424,425,426,427,428,429,430,431,432,433,434,435,436,437,438,439,440,441,442,443,444,445,446,447,448,449,450,451,452,453,454,455,456,457,458,459,460,461,462,463,464,465,466,467,468,469,470,471,472,473,474,475,476,477,478,479,480,481,482,483,484,485,486,487,488,489,490,491,492,493,494,495,496,497,498,499,500,501,502,503,504,505,506,507,508,509,510,511,512,513,514,515,516,517,518,519,520,521,522,523,524,525,526,527,528,529,530,531,532,533,534,535,536,537,538,539,540,541,542,543,544,545,546,547,548,549,550,551,552,553,554,555,556,557,558,559,560,561,562,563,564,565,566,567,568,569,570,571,572,573,574,575,576,577,578,579,580,581,582,583,584,585,586,587,588,589,590,591,592,593,594,595,596,597,598,599,600,601,602,603,604,605,606,607,608,609,610,611,612,613,614,615,616,617,618,619,620,621,622,623,624,625,626,627,628,629,630,631,632,633,634,635,636,637,638,639,640,641,642,643,644,645,646,647,648,649,650,651,652,653,654,655,656,657,658,659,660,661,662,663,664,665,666,667,668,669,670,671,672,673,674,675,676,677,678,679,680,681,682,683,684,685,686,687,688,689,690,691,692,693,694,695,696,697,698,699,700,701,702,703,704,705,706,707,708,709,710,711,712,713,714,715,716,717,718,719,720,721,722,723,724,725,726,727,728,729,730,731,732,733,734,735,736,737,738,739,740,741,742,743,744,745,746,747,748,749,750,751,752,753,754,755,756,757,758,759,760,761,762,763,764,765,766,767,768,769,770,771,772,773,774,775,776,777,778,779,780,781,782,783,784,785,786,787,788,789,790,791,792,793,794,795,796,797,798,799,800,801,802,803,804,805,806,807,808,809,810,811,812,813,814,815,816,817,818,819,820,821,822,823,824,825,826,827,828,829,830,831,832,833,834,835,836,837,838,839,840,841,842,843,844,845,846,847,848,849,850,851,852,853,854,855,856,857,858,859,860,861,862,863,864,865,866,867,868,869,870,871,872,873,874,875,876,877,878,879,880,881,882,883,884,885,886,887,888,889,890,891,892,893,894,895,896,897,898,899,900,901,902,903,904,905,906,907,908,909,910,911,912,913,914,915,916,917,918,919,920,921,922,923,924,925,926,927,928,929,930,931,932,933,934,935,936,937,938,939,940,941,942,943,944,945,946,947,948,949,950,951,952,953,954,955,956,957,958,959,960,961,962,963,964,965,966,967,968,969,970,971,972,973,974,975,976,977,978,979,980,981,982,983,984,985,986,987,988,989,990,991,992,993,994,995,996,997,998,999,1000],"tree_info":[0,0,0,0,0,0,0,0,0,0,0,0,0,0,0,0,0,0,0,0,0,0,0,0,0,0,0,0,0,0,0,0,0,0,0,0,0,0,0,0,0,0,0,0,0,0,0,0,0,0,0,0,0,0,0,0,0,0,0,0,0,0,0,0,0,0,0,0,0,0,0,0,0,0,0,0,0,0,0,0,0,0,0,0,0,0,0,0,0,0,0,0,0,0,0,0,0,0,0,0,0,0,0,0,0,0,0,0,0,0,0,0,0,0,0,0,0,0,0,0,0,0,0,0,0,0,0,0,0,0,0,0,0,0,0,0,0,0,0,0,0,0,0,0,0,0,0,0,0,0,0,0,0,0,0,0,0,0,0,0,0,0,0,0,0,0,0,0,0,0,0,0,0,0,0,0,0,0,0,0,0,0,0,0,0,0,0,0,0,0,0,0,0,0,0,0,0,0,0,0,0,0,0,0,0,0,0,0,0,0,0,0,0,0,0,0,0,0,0,0,0,0,0,0,0,0,0,0,0,0,0,0,0,0,0,0,0,0,0,0,0,0,0,0,0,0,0,0,0,0,0,0,0,0,0,0,0,0,0,0,0,0,0,0,0,0,0,0,0,0,0,0,0,0,0,0,0,0,0,0,0,0,0,0,0,0,0,0,0,0,0,0,0,0,0,0,0,0,0,0,0,0,0,0,0,0,0,0,0,0,0,0,0,0,0,0,0,0,0,0,0,0,0,0,0,0,0,0,0,0,0,0,0,0,0,0,0,0,0,0,0,0,0,0,0,0,0,0,0,0,0,0,0,0,0,0,0,0,0,0,0,0,0,0,0,0,0,0,0,0,0,0,0,0,0,0,0,0,0,0,0,0,0,0,0,0,0,0,0,0,0,0,0,0,0,0,0,0,0,0,0,0,0,0,0,0,0,0,0,0,0,0,0,0,0,0,0,0,0,0,0,0,0,0,0,0,0,0,0,0,0,0,0,0,0,0,0,0,0,0,0,0,0,0,0,0,0,0,0,0,0,0,0,0,0,0,0,0,0,0,0,0,0,0,0,0,0,0,0,0,0,0,0,0,0,0,0,0,0,0,0,0,0,0,0,0,0,0,0,0,0,0,0,0,0,0,0,0,0,0,0,0,0,0,0,0,0,0,0,0,0,0,0,0,0,0,0,0,0,0,0,0,0,0,0,0,0,0,0,0,0,0,0,0,0,0,0,0,0,0,0,0,0,0,0,0,0,0,0,0,0,0,0,0,0,0,0,0,0,0,0,0,0,0,0,0,0,0,0,0,0,0,0,0,0,0,0,0,0,0,0,0,0,0,0,0,0,0,0,0,0,0,0,0,0,0,0,0,0,0,0,0,0,0,0,0,0,0,0,0,0,0,0,0,0,0,0,0,0,0,0,0,0,0,0,0,0,0,0,0,0,0,0,0,0,0,0,0,0,0,0,0,0,0,0,0,0,0,0,0,0,0,0,0,0,0,0,0,0,0,0,0,0,0,0,0,0,0,0,0,0,0,0,0,0,0,0,0,0,0,0,0,0,0,0,0,0,0,0,0,0,0,0,0,0,0,0,0,0,0,0,0,0,0,0,0,0,0,0,0,0,0,0,0,0,0,0,0,0,0,0,0,0,0,0,0,0,0,0,0,0,0,0,0,0,0,0,0,0,0,0,0,0,0,0,0,0,0,0,0,0,0,0,0,0,0,0,0,0,0,0,0,0,0,0,0,0,0,0,0,0,0,0,0,0,0,0,0,0,0,0,0,0,0,0,0,0,0,0,0,0,0,0,0,0,0,0,0,0,0,0,0,0,0,0,0,0,0,0,0,0,0,0,0,0,0,0,0,0,0,0,0,0,0,0,0,0,0,0,0,0,0,0,0,0,0,0,0,0,0,0,0,0,0,0,0,0,0,0,0,0,0,0,0,0,0,0,0,0,0,0,0,0,0,0,0,0,0,0,0,0,0,0,0,0,0,0,0,0,0,0,0,0,0,0,0,0,0,0,0,0,0,0,0,0,0,0,0,0,0,0,0,0,0,0,0,0,0,0,0,0,0,0,0,0,0,0,0,0,0,0,0,0,0,0,0,0,0,0,0,0,0,0,0,0,0,0,0,0,0,0,0,0,0,0,0,0,0,0,0,0,0,0,0,0,0,0,0,0,0,0,0,0,0,0,0,0,0,0,0,0,0,0,0,0,0,0,0,0,0,0,0,0,0,0,0,0,0,0,0,0,0,0,0,0,0,0,0,0,0],"trees":[{"base_weights":[9.794751E0,5.5913725E0,1.4369583E2,2.2986093E0,4.3858086E1,1.0970886E2,2.0420238E2,1.0156552E-2,1.16232395E-1,3.42132E-1,6.120561E-1,1.4301388E0,7.996591E-1,1.5002272E0,2.5123808E0],"categories":[],"categories_nodes":[],"categories_segments":[],"categories_sizes":[],"default_left":[0,0,0,0,0,1,0,0,0,0,0,0,0,0,0],"id":0,"left_children":[1,3,5,7,9,11,13,-1,-1,-1,-1,-1,-1,-1,-1],"loss_changes":[2.2190258E6,4.8186156E5,2.2436925E5,4.213409E4,4.8602312E4,6.682031E4,6.93405E4,0E0,0E0,0E0,0E0,0E0,0E0,0E0,0E0],"parents":[2147483647,0,0,1,1,2,2,3,3,4,4,5,5,6,6],"right_children":[2,4,6,8,10,12,14,-1,-1,-1,-1,-1,-1,-1,-1],"split_conditions":[7.9666664E1,2.4333334E1,1.55E2,7E0,4.8333332E1,9.8E1,1.0383333E1,1.0156552E-2,1.16232395E-1,3.42132E-1,6.120561E-1,1.4301388E0,7.996591E-1,1.5002272E0,2.5123808E0],"split_indices":[93,93,93,93,93,96,70,0,0,0,0,0,0,0,0],"split_type":[0,0,0,0,0,0,0,0,0,0,0,0,0,0,0],"sum_hessian":[3.943E3,3.824E3,1.19E2,3.522E3,3.02E2,7.8E1,4.1E1,3.097E3,4.25E2,1.96E2,1.06E2,3.5E1,4.3E1,2.1E1,2E1],"tree_param":{"num_deleted":"0","num_feature":"125","num_nodes":"15","size_leaf_vector":"1"}},{"base_weights":[9.698661E0,5.5357413E0,1.423109E2,2.2756588E0,4.3422653E1,1.0864E2,2.0225589E2,1.00550195E-2,1.150728E-1,3.38728E-1,6.0599273E-1,1.4162347E0,7.9184425E-1,1.485907E0,2.4884534E0],"categories":[],"categories_nodes":[],"categories_segments":[],"categories_sizes":[],"default_left":[0,0,0,0,0,1,0,0,0,0,0,0,0,0,0],"id":1,"left_children":[1,3,5,7,9,11,13,-1,-1,-1,-1,-1,-1,-1,-1],"loss_changes":[2.1765135E6,4.72344E5,2.20235E5,4.129775E4,4.764975E4,6.553794E4,6.803375E4,0E0,0E0,0E0,0E0,0E0,0E0,0E0,0E0],"parents":[2147483647,0,0,1,1,2,2,3,3,4,4,5,5,6,6],"right_children":[2,4,6,8,10,12,14,-1,-1,-1,-1,-1,-1,-1,-1],"split_conditions":[7.9666664E1,2.4333334E1,1.55E2,7E0,4.8333332E1,9.8E1,1.0383333E1,1.00550195E-2,1.150728E-1,3.38728E-1,6.0599273E-1,1.4162347E0,7.9184425E-1,1.485907E0,2.4884534E0],"split_indices":[93,93,93,93,93,96,70,0,0,0,0,0,0,0,0],"split_type":[0,0,0,0,0,0,0,0,0,0,0,0,0,0,0],"sum_hessian":[3.943E3,3.824E3,1.19E2,3.522E3,3.02E2,7.8E1,4.1E1,3.097E3,4.25E2,1.96E2,1.06E2,3.5E1,4.3E1,2.1E1,2E1],"tree_param":{"num_deleted":"0","num_feature":"125","num_nodes":"15","size_leaf_vector":"1"}},{"base_weights":[9.603513E0,5.480664E0,1.409393E2,2.2529378E0,4.2991547E1,1.0758154E2,2.0032797E2,9.954502E-3,1.13924764E-1,3.3535793E-1,5.999894E-1,1.4024658E0,7.841057E-1,1.4717233E0,2.4647539E0],"categories":[],"categories_nodes":[],"categories_segments":[],"categories_sizes":[],"default_left":[0,0,0,0,0,1,0,0,0,0,0,0,0,0,0],"id":2,"left_children":[1,3,5,7,9,11,13,-1,-1,-1,-1,-1,-1,-1,-1],"loss_changes":[2.1348158E6,4.6301447E5,2.1617675E5,4.0477996E4,4.6715625E4,6.4280062E4,6.6751625E4,0E0,0E0,0E0,0E0,0E0,0E0,0E0,0E0],"parents":[2147483647,0,0,1,1,2,2,3,3,4,4,5,5,6,6],"right_children":[2,4,6,8,10,12,14,-1,-1,-1,-1,-1,-1,-1,-1],"split_conditions":[7.9666664E1,2.4333334E1,1.55E2,7E0,4.8333332E1,9.8E1,1.0383333E1,9.954502E-3,1.13924764E-1,3.3535793E-1,5.999894E-1,1.4024658E0,7.841057E-1,1.4717233E0,2.4647539E0],"split_indices":[93,93,93,93,93,96,70,0,0,0,0,0,0,0,0],"split_type":[0,0,0,0,0,0,0,0,0,0,0,0,0,0,0],"sum_hessian":[3.943E3,3.824E3,1.19E2,3.522E3,3.02E2,7.8E1,4.1E1,3.097E3,4.25E2,1.96E2,1.06E2,3.5E1,4.3E1,2.1E1,2E1],"tree_param":{"num_deleted":"0","num_feature":"125","num_nodes":"15","size_leaf_vector":"1"}},{"base_weights":[9.509299E0,5.4261336E0,1.3958093E2,2.2304437E0,4.2564716E1,1.0653341E2,1.9841841E2,8.4363995E-3,1.03657946E-1,3.1527227E-1,5.681602E-1,1.3888307E0,7.764428E-1,1.457675E0,2.4412801E0],"categories":[],"categories_nodes":[],"categories_segments":[],"categories_sizes":[],"default_left":[0,0,0,0,0,1,0,0,0,0,0,0,0,0,0],"id":3,"left_children":[1,3,5,7,9,11,13,-1,-1,-1,-1,-1,-1,-1,-1],"loss_changes":[2.0939166E6,4.5386912E5,2.12194E5,3.973822E4,4.5870188E4,6.304625E4,6.5493375E4,0E0,0E0,0E0,0E0,0E0,0E0,0E0,0E0],"parents":[2147483647,0,0,1,1,2,2,3,3,4,4,5,5,6,6],"right_children":[2,4,6,8,10,12,14,-1,-1,-1,-1,-1,-1,-1,-1],"split_conditions":[7.9666664E1,2.4333334E1,1.55E2,6E0,4.3666668E1,9.8E1,1.0383333E1,8.4363995E-3,1.03657946E-1,3.1527227E-1,5.681602E-1,1.3888307E0,7.764428E-1,1.457675E0,2.4412801E0],"split_indices":[93,93,93,93,93,96,70,0,0,0,0,0,0,0,0],"split_type":[0,0,0,0,0,0,0,0,0,0,0,0,0,0,0],"sum_hessian":[3.943E3,3.824E3,1.19E2,3.522E3,3.02E2,7.8E1,4.1E1,3.01E3,5.12E2,1.72E2,1.3E2,3.5E1,4.3E1,2.1E1,2E1],"tree_param":{"num_deleted":"0","num_feature":"125","num_nodes":"15","size_leaf_vector":"1"}},{"base_weights":[9.415996E0,5.372133E0,1.3823567E2,2.2081711E0,4.2141987E1,1.0549548E2,1.9652705E2,9.743912E-3,1.1175405E-1,3.2857656E-1,5.8841705E-1,1.3753282E0,7.688549E-1,1.4437608E0,2.4180298E0],"categories":[],"categories_nodes":[],"categories_segments":[],"categories_sizes":[],"default_left":[0,0,0,0,0,1,0,0,0,0,0,0,0,0,0],"id":4,"left_children":[1,3,5,7,9,11,13,-1,-1,-1,-1,-1,-1,-1,-1],"loss_changes":[2.0538019E6,4.4490128E5,2.082835E5,3.896615E4,4.50455E4,6.1836188E4,6.4259125E4,0E0,0E0,0E0,0E0,0E0,0E0,0E0,0E0],"parents":[2147483647,0,0,1,1,2,2,3,3,4,4,5,5,6,6],"right_children":[2,4,6,8,10,12,14,-1,-1,-1,-1,-1,-1,-1,-1],"split_conditions":[7.9666664E1,2.4333334E1,1.55E2,7E0,4.8333332E1,9.8E1,1.0383333E1,9.743912E-3,1.1175405E-1,3.2857656E-1,5.8841705E-1,1.3753282E0,7.688549E-1,1.4437608E0,2.4180298E0],"split_indices":[93,93,93,93,93,96,70,0,0,0,0,0,0,0,0],"split_type":[0,0,0,0,0,0,0,0,0,0,0,0,0,0,0],"sum_hessian":[3.943E3,3.824E3,1.19E2,3.522E3,3.02E2,7.8E1,4.1E1,3.097E3,4.25E2,1.96E2,1.06E2,3.5E1,4.3E1,2.1E1,2E1],"tree_param":{"num_deleted":"0","num_feature":"125","num_nodes":"15","size_leaf_vector":"1"}},{"base_weights":[9.323622E0,5.3186827E0,1.3690335E2,2.1861238E0,4.172359E1,1.04467674E2,1.9465373E2,8.2546575E-3,1.01681024E-1,3.08871E-1,5.571587E-1,1.361957E0,7.613411E-1,3.237332E0,1.7254713E0],"categories":[],"categories_nodes":[],"categories_segments":[],"categories_sizes":[],"default_left":[0,0,0,0,0,1,0,0,0,0,0,0,0,0,0],"id":5,"left_children":[1,3,5,7,9,11,13,-1,-1,-1,-1,-1,-1,-1,-1],"loss_changes":[2.0144549E6,4.3611378E5,2.0444575E5,3.8254008E4,4.4222125E4,6.0649312E4,6.3988E4,0E0,0E0,0E0,0E0,0E0,0E0,0E0,0E0],"parents":[2147483647,0,0,1,1,2,2,3,3,4,4,5,5,6,6],"right_children":[2,4,6,8,10,12,14,-1,-1,-1,-1,-1,-1,-1,-1],"split_conditions":[7.9666664E1,2.4333334E1,1.55E2,6E0,4.3666668E1,9.8E1,1.21E2,8.2546575E-3,1.01681024E-1,3.08871E-1,5.571587E-1,1.361957E0,7.613411E-1,3.237332E0,1.7254713E0],"split_indices":[93,93,93,93,93,96,95,0,0,0,0,0,0,0,0],"split_type":[0,0,0,0,0,0,0,0,0,0,0,0,0,0,0],"sum_hessian":[3.943E3,3.824E3,1.19E2,3.522E3,3.02E2,7.8E1,4.1E1,3.01E3,5.12E2,1.72E2,1.3E2,3.5E1,4.3E1,4E0,3.7E1],"tree_param":{"num_deleted":"0","num_feature":"125","num_nodes":"15","size_leaf_vector":"1"}},{"base_weights":[9.2324295E0,4.0707445E0,1.0635023E2,1.7446595E0,2.948915E1,7.266669E1,1.7017195E2,6.161524E-3,7.329408E-2,1.9941597E-1,3.6861995E-1,9.33101E-1,5.416786E-1,1.3801951E0,2.1680202E0],"categories":[],"categories_nodes":[],"categories_segments":[],"categories_sizes":[],"default_left":[0,0,0,0,0,0,0,0,0,0,0,0,0,0,0],"id":6,"left_children":[1,3,5,7,9,11,13,-1,-1,-1,-1,-1,-1,-1,-1],"loss_changes":[1.9766608E6,2.2143222E5,4.1543275E5,2.1631723E4,2.1368219E4,4.5353562E4,7.20275E4,0E0,0E0,0E0,0E0,0E0,0E0,0E0,0E0],"parents":[2147483647,0,0,1,1,2,2,3,3,4,4,5,5,6,6],"right_children":[2,4,6,8,10,12,14,-1,-1,-1,-1,-1,-1,-1,-1],"split_conditions":[5.3E1,1.6E1,1.25333336E2,4.6666665E0,2.9333334E1,6.8E1,1.0975E1,6.161524E-3,7.329408E-2,1.9941597E-1,3.6861995E-1,9.33101E-1,5.416786E-1,1.3801951E0,2.1680202E0],"split_indices":[93,93,93,93,93,96,70,0,0,0,0,0,0,0,0],"split_type":[0,0,0,0,0,0,0,0,0,0,0,0,0,0,0],"sum_hessian":[3.943E3,3.745E3,1.98E2,3.432E3,3.13E2,1.31E2,6.7E1,2.856E3,5.76E2,1.38E2,1.75E2,6E1,7.1E1,4.2E1,2.5E1],"tree_param":{"num_deleted":"0","num_feature":"125","num_nodes":"15","size_leaf_vector":"1"}},{"base_weights":[9.141543E0,5.2105684E0,1.3436519E2,2.1422212E0,4.0869236E1,1.0250004E2,1.9110287E2,9.423928E-3,1.0862704E-1,3.0260473E-1,5.456731E-1,1.339177E0,7.4465114E-1,3.195665E0,1.6917074E0],"categories":[],"categories_nodes":[],"categories_segments":[],"categories_sizes":[],"default_left":[0,0,0,0,0,1,0,0,0,0,0,0,0,0,0],"id":7,"left_children":[1,3,5,7,9,11,13,-1,-1,-1,-1,-1,-1,-1,-1],"loss_changes":[1.940738E6,4.1841788E5,1.973665E5,3.6851203E4,4.2380594E4,5.9610375E4,6.427275E4,0E0,0E0,0E0,0E0,0E0,0E0,0E0,0E0],"parents":[2147483647,0,0,1,1,2,2,3,3,4,4,5,5,6,6],"right_children":[2,4,6,8,10,12,14,-1,-1,-1,-1,-1,-1,-1,-1],"split_conditions":[7.9666664E1,2.4333334E1,1.55E2,7E0,4.3666668E1,9.8E1,1.21E2,9.423928E-3,1.0862704E-1,3.0260473E-1,5.456731E-1,1.339177E0,7.4465114E-1,3.195665E0,1.6917074E0],"split_indices":[93,93,93,93,93,96,95,0,0,0,0,0,0,0,0],"split_type":[0,0,0,0,0,0,0,0,0,0,0,0,0,0,0],"sum_hessian":[3.943E3,3.824E3,1.19E2,3.522E3,3.02E2,7.8E1,4.1E1,3.097E3,4.25E2,1.72E2,1.3E2,3.5E1,4.3E1,4E0,3.7E1],"tree_param":{"num_deleted":"0","num_feature":"125","num_nodes":"15","size_leaf_vector":"1"}},{"base_weights":[9.05214E0,5.1587152E0,1.3307964E2,2.1208324E0,4.0463345E1,1.0150141E2,1.8930821E2,7.982E-3,9.879751E-2,3.1536993E-1,5.6519675E-1,1.3261573E0,7.373739E-1,3.1700995E0,1.6752355E0],"categories":[],"categories_nodes":[],"categories_segments":[],"categories_sizes":[],"default_left":[0,0,0,0,0,1,0,0,0,0,0,0,0,0,0],"id":8,"left_children":[1,3,5,7,9,11,13,-1,-1,-1,-1,-1,-1,-1,-1],"loss_changes":[1.9038388E6,4.1015053E5,1.9385675E5,3.6145832E4,4.1644844E4,5.8466125E4,6.3734875E4,0E0,0E0,0E0,0E0,0E0,0E0,0E0,0E0],"parents":[2147483647,0,0,1,1,2,2,3,3,4,4,5,5,6,6],"right_children":[2,4,6,8,10,12,14,-1,-1,-1,-1,-1,-1,-1,-1],"split_conditions":[7.9666664E1,2.4333334E1,1.55E2,6E0,4.8333332E1,9.8E1,1.21E2,7.982E-3,9.879751E-2,3.1536993E-1,5.6519675E-1,1.3261573E0,7.373739E-1,3.1700995E0,1.6752355E0],"split_indices":[93,93,93,93,93,96,95,0,0,0,0,0,0,0,0],"split_type":[0,0,0,0,0,0,0,0,0,0,0,0,0,0,0],"sum_hessian":[3.943E3,3.824E3,1.19E2,3.522E3,3.02E2,7.8E1,4.1E1,3.01E3,5.12E2,1.96E2,1.06E2,3.5E1,4.3E1,4E0,3.7E1],"tree_param":{"num_deleted":"0","num_feature":"125","num_nodes":"15","size_leaf_vector":"1"}},{"base_weights":[8.963621E0,5.107386E0,1.3180641E2,2.0996544E0,4.006162E1,1.0051252E2,1.8753049E2,9.888911E-3,1.1176989E-1,2.964607E-1,5.351069E-1,1.3132641E0,7.3016775E-1,1.3661451E0,2.31941E0],"categories":[],"categories_nodes":[],"categories_segments":[],"categories_sizes":[],"default_left":[0,0,0,0,0,1,0,0,0,0,0,0,0,0,0],"id":9,"left_children":[1,3,5,7,9,11,13,-1,-1,-1,-1,-1,-1,-1,-1],"loss_changes":[1.8676419E6,4.0204944E5,1.904095E5,3.5510547E4,4.085775E4,5.7343812E4,6.3284125E4,0E0,0E0,0E0,0E0,0E0,0E0,0E0,0E0],"parents":[2147483647,0,0,1,1,2,2,3,3,4,4,5,5,6,6],"right_children":[2,4,6,8,10,12,14,-1,-1,-1,-1,-1,-1,-1,-1],"split_conditions":[7.9666664E1,2.4333334E1,1.55E2,7.6666665E0,4.3666668E1,9.8E1,1.0383333E1,9.888911E-3,1.1176989E-1,2.964607E-1,5.351069E-1,1.3132641E0,7.3016775E-1,1.3661451E0,2.31941E0],"split_indices":[93,93,93,93,93,96,70,0,0,0,0,0,0,0,0],"split_type":[0,0,0,0,0,0,0,0,0,0,0,0,0,0,0],"sum_hessian":[3.943E3,3.824E3,1.19E2,3.522E3,3.02E2,7.8E1,4.1E1,3.139E3,3.83E2,1.72E2,1.3E2,3.5E1,4.3E1,2.1E1,2E1],"tree_param":{"num_deleted":"0","num_feature":"125","num_nodes":"15","size_leaf_vector":"1"}},{"base_weights":[8.875679E0,5.2747827E0,1.3795386E2,2.0786924E0,4.0890453E1,1.05452415E2,1.8574294E2,7.8033507E-3,9.695213E-2,3.0899197E-1,5.695201E-1,1.3974464E0,7.479783E-1,3.12809E0,1.6413574E0],"categories":[],"categories_nodes":[],"categories_segments":[],"categories_sizes":[],"default_left":[0,0,0,0,0,1,0,0,0,0,0,0,0,0,0],"id":10,"left_children":[1,3,5,7,9,11,13,-1,-1,-1,-1,-1,-1,-1,-1],"loss_changes":[1.8324322E6,4.3679797E5,1.4660688E5,3.4831258E4,4.8950438E4,5.89275E4,6.3969625E4,0E0,0E0,0E0,0E0,0E0,0E0,0E0,0E0],"parents":[2147483647,0,0,1,1,2,2,3,3,4,4,5,5,6,6],"right_children":[2,4,6,8,10,12,14,-1,-1,-1,-1,-1,-1,-1,-1],"split_conditions":[8.6E1,2.4333334E1,1.55E2,6E0,4.8333332E1,1.02E2,1.21E2,7.8033507E-3,9.695213E-2,3.0899197E-1,5.695201E-1,1.3974464E0,7.479783E-1,3.12809E0,1.6413574E0],"split_indices":[93,93,93,93,93,96,95,0,0,0,0,0,0,0,0],"split_type":[0,0,0,0,0,0,0,0,0,0,0,0,0,0,0],"sum_hessian":[3.943E3,3.837E3,1.06E2,3.522E3,3.15E2,6.5E1,4.1E1,3.01E3,5.12E2,1.96E2,1.19E2,2.9E1,3.6E1,4E0,3.7E1],"tree_param":{"num_deleted":"0","num_feature":"125","num_nodes":"15","size_leaf_vector":"1"}},{"base_weights":[8.788925E0,4.601342E0,1.1769193E2,1.93506E0,3.558048E1,7.7483734E1,1.6267363E2,7.373495E-3,8.889201E-2,2.7938896E-1,4.9578673E-1,1.0766146E0,5.7827413E-1,1.3155887E0,2.0787597E0],"categories":[],"categories_nodes":[],"categories_segments":[],"categories_sizes":[],"default_left":[0,0,0,0,0,1,0,0,0,0,0,0,0,0,0],"id":11,"left_children":[1,3,5,7,9,11,13,-1,-1,-1,-1,-1,-1,-1,-1],"loss_changes":[1.7980816E6,3.137252E5,2.5145612E5,2.9136781E4,3.0812281E4,4.0635625E4,6.8291375E4,0E0,0E0,0E0,0E0,0E0,0E0,0E0,0E0],"parents":[2147483647,0,0,1,1,2,2,3,3,4,4,5,5,6,6],"right_children":[2,4,6,8,10,12,14,-1,-1,-1,-1,-1,-1,-1,-1],"split_conditions":[6.9E1,2.2333334E1,1.25333336E2,5.6666665E0,4.3666668E1,6.4E1,1.0975E1,7.373495E-3,8.889201E-2,2.7938896E-1,4.9578673E-1,1.0766146E0,5.7827413E-1,1.3155887E0,2.0787597E0],"split_indices":[93,93,93,93,93,96,70,0,0,0,0,0,0,0,0],"split_type":[0,0,0,0,0,0,0,0,0,0,0,0,0,0,0],"sum_hessian":[3.943E3,3.798E3,1.45E2,3.498E3,3E2,7.8E1,6.7E1,2.985E3,5.13E2,1.96E2,1.04E2,2.9E1,4.9E1,4.2E1,2.5E1],"tree_param":{"num_deleted":"0","num_feature":"125","num_nodes":"15","size_leaf_vector":"1"}},{"base_weights":[8.702537E0,5.168889E0,1.353702E2,2.0368404E0,4.0070908E1,1.03422005E2,1.8235138E2,9.561729E-3,1.08682446E-1,3.028744E-1,5.579817E-1,1.373388E0,7.312671E-1,3.0879614E0,1.6091518E0],"categories":[],"categories_nodes":[],"categories_segments":[],"categories_sizes":[],"default_left":[0,0,0,0,0,1,0,0,0,0,0,0,0,0,0],"id":12,"left_children":[1,3,5,7,9,11,13,-1,-1,-1,-1,-1,-1,-1,-1],"loss_changes":[1.7646304E6,4.1946862E5,1.41744E5,3.3612457E4,4.6932062E4,5.7773188E4,6.4150875E4,0E0,0E0,0E0,0E0,0E0,0E0,0E0,0E0],"parents":[2147483647,0,0,1,1,2,2,3,3,4,4,5,5,6,6],"right_children":[2,4,6,8,10,12,14,-1,-1,-1,-1,-1,-1,-1,-1],"split_conditions":[8.6E1,2.4333334E1,1.55E2,7.6666665E0,4.8333332E1,1.02E2,1.21E2,9.561729E-3,1.08682446E-1,3.028744E-1,5.579817E-1,1.373388E0,7.312671E-1,3.0879614E0,1.6091518E0],"split_indices":[93,93,93,93,93,96,95,0,0,0,0,0,0,0,0],"split_type":[0,0,0,0,0,0,0,0,0,0,0,0,0,0,0],"sum_hessian":[3.943E3,3.837E3,1.06E2,3.522E3,3.15E2,6.5E1,4.1E1,3.139E3,3.83E2,1.96E2,1.19E2,2.9E1,3.6E1,4E0,3.7E1],"tree_param":{"num_deleted":"0","num_feature":"125","num_nodes":"15","size_leaf_vector":"1"}},{"base_weights":[8.617484E0,5.117455E0,1.3408006E2,2.2807043E0,4.2897007E1,1.0241967E2,1.8063971E2,1.1709094E-2,1.4465898E-1,3.4380314E-1,5.8553356E-1,1.3601118E0,7.24152E-1,3.0632577E0,1.5934838E0],"categories":[],"categories_nodes":[],"categories_segments":[],"categories_sizes":[],"default_left":[0,0,0,0,0,1,0,0,0,0,0,0,0,0,0],"id":13,"left_children":[1,3,5,7,9,11,13,-1,-1,-1,-1,-1,-1,-1,-1],"loss_changes":[1.7312138E6,4.1122512E5,1.3922725E5,4.8273934E4,3.3722094E4,5.6671812E4,6.3580375E4,0E0,0E0,0E0,0E0,0E0,0E0,0E0,0E0],"parents":[2147483647,0,0,1,1,2,2,3,3,4,4,5,5,6,6],"right_children":[2,4,6,8,10,12,14,-1,-1,-1,-1,-1,-1,-1,-1],"split_conditions":[8.6E1,2.9333334E1,1.55E2,1E1,5.3E1,1.02E2,1.21E2,1.1709094E-2,1.4465898E-1,3.4380314E-1,5.8553356E-1,1.3601118E0,7.24152E-1,3.0632577E0,1.5934838E0],"split_indices":[93,93,93,93,93,96,95,0,0,0,0,0,0,0,0],"split_type":[0,0,0,0,0,0,0,0,0,0,0,0,0,0,0],"sum_hessian":[3.943E3,3.837E3,1.06E2,3.57E3,2.67E2,6.5E1,4.1E1,3.273E3,2.97E2,1.75E2,9.2E1,2.9E1,3.6E1,4E0,3.7E1],"tree_param":{"num_deleted":"0","num_feature":"125","num_nodes":"15","size_leaf_vector":"1"}},{"base_weights":[8.533295E0,5.0665636E0,1.3280226E2,1.9954032E0,3.929008E1,1.0862361E2,1.9408885E2,7.432227E-3,9.341056E-2,2.9692566E-1,5.4718584E-1,1.4402642E0,8.1455165E-1,2.478228E0,1.2741562E0],"categories":[],"categories_nodes":[],"categories_segments":[],"categories_sizes":[],"default_left":[0,0,0,0,0,1,0,0,0,0,0,0,0,0,0],"id":14,"left_children":[1,3,5,7,9,11,13,-1,-1,-1,-1,-1,-1,-1,-1],"loss_changes":[1.6984302E6,4.0331806E5,1.3747275E5,3.2397902E4,4.5167E4,6.4253562E4,7.2319375E4,0E0,0E0,0E0,0E0,0E0,0E0,0E0,0E0],"parents":[2147483647,0,0,1,1,2,2,3,3,4,4,5,5,6,6],"right_children":[2,4,6,8,10,12,14,-1,-1,-1,-1,-1,-1,-1,-1],"split_conditions":[8.6E1,2.4333334E1,1.7966667E2,6E0,4.8333332E1,9.9E1,2.0833334E-2,7.432227E-3,9.341056E-2,2.9692566E-1,5.4718584E-1,1.4402642E0,8.1455165E-1,2.478228E0,1.2741562E0],"split_indices":[93,93,93,93,93,96,17,0,0,0,0,0,0,0,0],"split_type":[0,0,0,0,0,0,0,0,0,0,0,0,0,0,0],"sum_hessian":[3.943E3,3.837E3,1.06E2,3.522E3,3.15E2,7.8E1,2.8E1,3.01E3,5.12E2,1.96E2,1.19E2,3.2E1,4.6E1,1.4E1,1.4E1],"tree_param":{"num_deleted":"0","num_feature":"125","num_nodes":"15","size_leaf_vector":"1"}},{"base_weights":[8.449724E0,4.418602E0,1.1328386E2,1.7733836E0,3.326997E1,7.4316696E1,1.568886E2,5.3884326E-3,7.413877E-2,2.528778E-1,4.6296364E-1,1.0399317E0,5.502448E-1,1.279741E0,2.045662E0],"categories":[],"categories_nodes":[],"categories_segments":[],"categories_sizes":[],"default_left":[0,0,0,0,0,1,0,0,0,0,0,0,0,0,0],"id":15,"left_children":[1,3,5,7,9,11,13,-1,-1,-1,-1,-1,-1,-1,-1],"loss_changes":[1.6662308E6,2.898737E5,2.3641675E5,2.4235656E4,3.1998625E4,3.950728E4,6.756375E4,0E0,0E0,0E0,0E0,0E0,0E0,0E0,0E0],"parents":[2147483647,0,0,1,1,2,2,3,3,4,4,5,5,6,6],"right_children":[2,4,6,8,10,12,14,-1,-1,-1,-1,-1,-1,-1,-1],"split_conditions":[6.9E1,2.0333334E1,1.25333336E2,4.6666665E0,4.2E1,6.4E1,1.7458333E-1,5.3884326E-3,7.413877E-2,2.528778E-1,4.6296364E-1,1.0399317E0,5.502448E-1,1.279741E0,2.045662E0],"split_indices":[93,93,93,93,93,96,66,0,0,0,0,0,0,0,0],"split_type":[0,0,0,0,0,0,0,0,0,0,0,0,0,0,0],"sum_hessian":[3.943E3,3.798E3,1.45E2,3.48E3,3.18E2,7.8E1,6.7E1,2.856E3,6.24E2,1.99E2,1.19E2,2.9E1,4.9E1,4.4E1,2.3E1],"tree_param":{"num_deleted":"0","num_feature":"125","num_nodes":"15","size_leaf_vector":"1"}},{"base_weights":[8.366674E0,4.964854E0,1.3030893E2,2.2106545E0,4.1645008E1,1.06481476E2,1.9072481E2,1.13072395E-2,1.4067975E-1,3.337461E-1,5.6848717E-1,1.4156117E0,7.9585487E-1,2.4390688E0,1.2482773E0],"categories":[],"categories_nodes":[],"categories_segments":[],"categories_sizes":[],"default_left":[0,0,0,0,0,1,0,0,0,0,0,0,0,0,0],"id":16,"left_children":[1,3,5,7,9,11,13,-1,-1,-1,-1,-1,-1,-1,-1],"loss_changes":[1.6354256E6,3.8763984E5,1.3372412E5,4.571104E4,3.1801219E4,6.32705E4,7.1185375E4,0E0,0E0,0E0,0E0,0E0,0E0,0E0,0E0],"parents":[2147483647,0,0,1,1,2,2,3,3,4,4,5,5,6,6],"right_children":[2,4,6,8,10,12,14,-1,-1,-1,-1,-1,-1,-1,-1],"split_conditions":[8.6E1,2.9333334E1,1.7966667E2,1E1,5.3E1,9.9E1,2.0833334E-2,1.13072395E-2,1.4067975E-1,3.337461E-1,5.6848717E-1,1.4156117E0,7.9585487E-1,2.4390688E0,1.2482773E0],"split_indices":[93,93,93,93,93,96,17,0,0,0,0,0,0,0,0],"split_type":[0,0,0,0,0,0,0,0,0,0,0,0,0,0,0],"sum_hessian":[3.943E3,3.837E3,1.06E2,3.57E3,2.67E2,7.8E1,2.8E1,3.273E3,2.97E2,1.75E2,9.2E1,3.2E1,4.6E1,1.4E1,1.4E1],"tree_param":{"num_deleted":"0","num_feature":"125","num_nodes":"15","size_leaf_vector":"1"}},{"base_weights":[8.284771E0,4.91548E0,1.2906097E2,2.1885905E0,4.1231926E1,9.832472E1,1.7428792E2,1.1194201E-2,1.3927768E-1,3.3042762E-1,5.628634E-1,1.4258668E0,7.598068E-1,2.9928255E0,1.5325472E0],"categories":[],"categories_nodes":[],"categories_segments":[],"categories_sizes":[],"default_left":[0,0,0,0,0,1,0,0,0,0,0,0,0,0,0],"id":17,"left_children":[1,3,5,7,9,11,13,-1,-1,-1,-1,-1,-1,-1,-1],"loss_changes":[1.6042981E6,3.799905E5,1.3160462E5,4.4804664E4,3.1180062E4,5.4439625E4,6.4553125E4,0E0,0E0,0E0,0E0,0E0,0E0,0E0,0E0],"parents":[2147483647,0,0,1,1,2,2,3,3,4,4,5,5,6,6],"right_children":[2,4,6,8,10,12,14,-1,-1,-1,-1,-1,-1,-1,-1],"split_conditions":[8.6E1,2.9333334E1,1.55E2,1E1,5.3E1,7.7E1,1.21E2,1.1194201E-2,1.3927768E-1,3.3042762E-1,5.628634E-1,1.4258668E0,7.598068E-1,2.9928255E0,1.5325472E0],"split_indices":[93,93,93,93,93,96,95,0,0,0,0,0,0,0,0],"split_type":[0,0,0,0,0,0,0,0,0,0,0,0,0,0,0],"sum_hessian":[3.943E3,3.837E3,1.06E2,3.57E3,2.67E2,6.5E1,4.1E1,3.273E3,2.97E2,1.75E2,9.2E1,2E1,4.5E1,4E0,3.7E1],"tree_param":{"num_deleted":"0","num_feature":"125","num_nodes":"15","size_leaf_vector":"1"}},{"base_weights":[8.20389E0,4.866597E0,1.27833084E2,1.9142716E0,3.7765892E1,1.0436172E2,1.8736429E2,7.04396E-3,9.0117775E-2,2.8536776E-1,5.2602303E-1,1.3886583E0,7.7914953E-1,1.1372796E0,2.32653E0],"categories":[],"categories_nodes":[],"categories_segments":[],"categories_sizes":[],"default_left":[0,0,0,0,0,1,0,0,0,0,0,0,0,0,0],"id":18,"left_children":[1,3,5,7,9,11,13,-1,-1,-1,-1,-1,-1,-1,-1],"loss_changes":[1.573971E6,3.7271044E5,1.29955125E5,3.0246006E4,4.1767844E4,6.12695E4,7.025275E4,0E0,0E0,0E0,0E0,0E0,0E0,0E0,0E0],"parents":[2147483647,0,0,1,1,2,2,3,3,4,4,5,5,6,6],"right_children":[2,4,6,8,10,12,14,-1,-1,-1,-1,-1,-1,-1,-1],"split_conditions":[8.6E1,2.4333334E1,1.7966667E2,6E0,4.8333332E1,9.9E1,8.495833E0,7.04396E-3,9.0117775E-2,2.8536776E-1,5.2602303E-1,1.3886583E0,7.7914953E-1,1.1372796E0,2.32653E0],"split_indices":[93,93,93,93,93,96,55,0,0,0,0,0,0,0,0],"split_type":[0,0,0,0,0,0,0,0,0,0,0,0,0,0,0],"sum_hessian":[3.943E3,3.837E3,1.06E2,3.522E3,3.15E2,7.8E1,2.8E1,3.01E3,5.12E2,1.96E2,1.19E2,3.2E1,4.6E1,1.2E1,1.6E1],"tree_param":{"num_deleted":"0","num_feature":"125","num_nodes":"15","size_leaf_vector":"1"}},{"base_weights":[8.123508E0,4.617095E0,1.19822754E2,1.7797323E0,3.4963623E1,9.102219E1,1.7114233E2,6.6339276E-3,8.261464E-2,2.5795248E-1,4.8484278E-1,1.2221403E0,6.7184883E-1,2.9540222E0,1.502886E0],"categories":[],"categories_nodes":[],"categories_segments":[],"categories_sizes":[],"default_left":[0,0,0,0,0,1,0,0,0,0,0,0,0,0,0],"id":19,"left_children":[1,3,5,7,9,11,13,-1,-1,-1,-1,-1,-1,-1,-1],"loss_changes":[1.5441688E6,3.2928597E5,1.6178625E5,2.5312633E4,3.9285062E4,5.0527938E4,6.443825E4,0E0,0E0,0E0,0E0,0E0,0E0,0E0,0E0],"parents":[2147483647,0,0,1,1,2,2,3,3,4,4,5,5,6,6],"right_children":[2,4,6,8,10,12,14,-1,-1,-1,-1,-1,-1,-1,-1],"split_conditions":[7.9666664E1,2.2333334E1,1.55E2,5.6666665E0,4.3666668E1,8.5E1,1.21E2,6.6339276E-3,8.261464E-2,2.5795248E-1,4.8484278E-1,1.2221403E0,6.7184883E-1,2.9540222E0,1.502886E0],"split_indices":[93,93,93,93,93,96,95,0,0,0,0,0,0,0,0],"split_type":[0,0,0,0,0,0,0,0,0,0,0,0,0,0,0],"sum_hessian":[3.943E3,3.824E3,1.19E2,3.498E3,3.26E2,7.8E1,4.1E1,2.985E3,5.13E2,1.96E2,1.3E2,3.2E1,4.6E1,4E0,3.7E1],"tree_param":{"num_deleted":"0","num_feature":"125","num_nodes":"15","size_leaf_vector":"1"}},{"base_weights":[8.044095E0,4.7690907E0,1.2544056E2,2.1214383E0,4.0030277E1,1.0233456E2,1.8405896E2,1.08119855E-2,1.3542992E-1,3.207131E-1,5.466198E-1,1.3626219E0,7.633569E-1,2.3655486E0,1.1929244E0],"categories":[],"categories_nodes":[],"categories_segments":[],"categories_sizes":[],"default_left":[0,0,0,0,0,1,0,0,0,0,0,0,0,0,0],"id":20,"left_children":[1,3,5,7,9,11,13,-1,-1,-1,-1,-1,-1,-1,-1],"loss_changes":[1.5157669E6,3.5822838E5,1.26089125E5,4.2412953E4,2.9456375E4,5.9282688E4,7.038006E4,0E0,0E0,0E0,0E0,0E0,0E0,0E0,0E0],"parents":[2147483647,0,0,1,1,2,2,3,3,4,4,5,5,6,6],"right_children":[2,4,6,8,10,12,14,-1,-1,-1,-1,-1,-1,-1,-1],"split_conditions":[8.6E1,2.9333334E1,1.7966667E2,1E1,5.3E1,9.9E1,2.0833334E-2,1.08119855E-2,1.3542992E-1,3.207131E-1,5.466198E-1,1.3626219E0,7.633569E-1,2.3655486E0,1.1929244E0],"split_indices":[93,93,93,93,93,96,17,0,0,0,0,0,0,0,0],"split_type":[0,0,0,0,0,0,0,0,0,0,0,0,0,0,0],"sum_hessian":[3.943E3,3.837E3,1.06E2,3.57E3,2.67E2,7.8E1,2.8E1,3.273E3,2.97E2,1.75E2,9.2E1,3.2E1,4.6E1,1.4E1,1.4E1],"tree_param":{"num_deleted":"0","num_feature":"125","num_nodes":"15","size_leaf_vector":"1"}},{"base_weights":[7.9653525E0,4.721664E0,1.2423928E2,2.1002648E0,3.9633213E1,1.0133813E2,1.8234106E2,1.1199895E-2,1.3985589E-1,3.1752422E-1,5.412123E-1,1.3494087E0,7.558858E-1,1.0982891E0,2.2706559E0],"categories":[],"categories_nodes":[],"categories_segments":[],"categories_sizes":[],"default_left":[0,0,0,0,0,1,0,0,0,0,0,0,0,0,0],"id":21,"left_children":[1,3,5,7,9,11,13,-1,-1,-1,-1,-1,-1,-1,-1],"loss_changes":[1.486918E6,3.5115944E5,1.23896E5,4.158966E4,2.8880969E4,5.8155125E4,6.911075E4,0E0,0E0,0E0,0E0,0E0,0E0,0E0,0E0],"parents":[2147483647,0,0,1,1,2,2,3,3,4,4,5,5,6,6],"right_children":[2,4,6,8,10,12,14,-1,-1,-1,-1,-1,-1,-1,-1],"split_conditions":[8.6E1,2.9333334E1,1.7966667E2,1.0666667E1,5.3E1,9.9E1,8.495833E0,1.1199895E-2,1.3985589E-1,3.1752422E-1,5.412123E-1,1.3494087E0,7.558858E-1,1.0982891E0,2.2706559E0],"split_indices":[93,93,93,93,93,96,55,0,0,0,0,0,0,0,0],"split_type":[0,0,0,0,0,0,0,0,0,0,0,0,0,0,0],"sum_hessian":[3.943E3,3.837E3,1.06E2,3.57E3,2.67E2,7.8E1,2.8E1,3.299E3,2.71E2,1.75E2,9.2E1,3.2E1,4.6E1,1.2E1,1.6E1],"tree_param":{"num_deleted":"0","num_feature":"125","num_nodes":"15","size_leaf_vector":"1"}},{"base_weights":[7.887343E0,4.6747103E0,1.2304805E2,1.8367913E0,3.6299126E1,9.34763E1,1.6658823E2,6.3475654E-3,8.504893E-2,2.742201E-1,5.056989E-1,1.3615936E0,7.1958464E-1,2.9009972E0,1.459528E0],"categories":[],"categories_nodes":[],"categories_segments":[],"categories_sizes":[],"default_left":[0,0,0,0,0,1,0,0,0,0,0,0,0,0,0],"id":22,"left_children":[1,3,5,7,9,11,13,-1,-1,-1,-1,-1,-1,-1,-1],"loss_changes":[1.4585825E6,3.4438434E5,1.22196875E5,2.8232465E4,3.8645188E4,5.0819625E4,6.4705125E4,0E0,0E0,0E0,0E0,0E0,0E0,0E0,0E0],"parents":[2147483647,0,0,1,1,2,2,3,3,4,4,5,5,6,6],"right_children":[2,4,6,8,10,12,14,-1,-1,-1,-1,-1,-1,-1,-1],"split_conditions":[8.6E1,2.4333334E1,1.55E2,5.6666665E0,4.8333332E1,7.7E1,1.21E2,6.3475654E-3,8.504893E-2,2.742201E-1,5.056989E-1,1.3615936E0,7.1958464E-1,2.9009972E0,1.459528E0],"split_indices":[93,93,93,93,93,96,95,0,0,0,0,0,0,0,0],"split_type":[0,0,0,0,0,0,0,0,0,0,0,0,0,0,0],"sum_hessian":[3.943E3,3.837E3,1.06E2,3.522E3,3.15E2,6.5E1,4.1E1,2.985E3,5.37E2,1.96E2,1.19E2,2E1,4.5E1,4E0,3.7E1],"tree_param":{"num_deleted":"0","num_feature":"125","num_nodes":"15","size_leaf_vector":"1"}},{"base_weights":[7.8103237E0,4.07451E0,1.04964745E2,1.62853E0,3.0752823E1,6.814064E1,1.4620209E2,4.689405E-3,6.9266394E-2,2.335955E-1,4.281867E-1,9.3397695E-1,4.698203E-1,1.9476744E0,1.1874111E0],"categories":[],"categories_nodes":[],"categories_segments":[],"categories_sizes":[],"default_left":[0,0,0,0,0,1,0,0,0,0,0,0,0,0,0],"id":23,"left_children":[1,3,5,7,9,11,13,-1,-1,-1,-1,-1,-1,-1,-1],"loss_changes":[1.4310502E6,2.4785225E5,2.1174275E5,2.1382734E4,2.74565E4,3.7829906E4,6.7561375E4,0E0,0E0,0E0,0E0,0E0,0E0,0E0,0E0],"parents":[2147483647,0,0,1,1,2,2,3,3,4,4,5,5,6,6],"right_children":[2,4,6,8,10,12,14,-1,-1,-1,-1,-1,-1,-1,-1],"split_conditions":[6.9E1,2.0333334E1,1.25333336E2,4.6666665E0,4.2E1,7E1,8.691667E0,4.689405E-3,6.9266394E-2,2.335955E-1,4.281867E-1,9.3397695E-1,4.698203E-1,1.9476744E0,1.1874111E0],"split_indices":[93,93,93,93,93,96,54,0,0,0,0,0,0,0,0],"split_type":[0,0,0,0,0,0,0,0,0,0,0,0,0,0,0],"sum_hessian":[3.943E3,3.798E3,1.45E2,3.48E3,3.18E2,7.8E1,6.7E1,2.856E3,6.24E2,1.99E2,1.19E2,3.4E1,4.4E1,2.2E1,4.5E1],"tree_param":{"num_deleted":"0","num_feature":"125","num_nodes":"15","size_leaf_vector":"1"}},{"base_weights":[7.7335577E0,4.580737E0,1.207503E2,2.0357816E0,3.8474228E1,9.8329384E1,1.7766415E2,1.0330119E-2,1.3045958E-1,3.082329E-1,5.2539724E-1,1.3135514E0,7.304896E-1,2.2952292E0,1.1396112E0],"categories":[],"categories_nodes":[],"categories_segments":[],"categories_sizes":[],"default_left":[0,0,0,0,0,1,0,0,0,0,0,0,0,0,0],"id":24,"left_children":[1,3,5,7,9,11,13,-1,-1,-1,-1,-1,-1,-1,-1],"loss_changes":[1.4047789E6,3.3097772E5,1.19068875E5,3.9412758E4,2.7221188E4,5.6362188E4,6.964656E4,0E0,0E0,0E0,0E0,0E0,0E0,0E0,0E0],"parents":[2147483647,0,0,1,1,2,2,3,3,4,4,5,5,6,6],"right_children":[2,4,6,8,10,12,14,-1,-1,-1,-1,-1,-1,-1,-1],"split_conditions":[8.6E1,2.9333334E1,1.7966667E2,1E1,5.3E1,9.9E1,2.0833334E-2,1.0330119E-2,1.3045958E-1,3.082329E-1,5.2539724E-1,1.3135514E0,7.304896E-1,2.2952292E0,1.1396112E0],"split_indices":[93,93,93,93,93,96,17,0,0,0,0,0,0,0,0],"split_type":[0,0,0,0,0,0,0,0,0,0,0,0,0,0,0],"sum_hessian":[3.943E3,3.837E3,1.06E2,3.57E3,2.67E2,7.8E1,2.8E1,3.273E3,2.97E2,1.75E2,9.2E1,3.2E1,4.6E1,1.4E1,1.4E1],"tree_param":{"num_deleted":"0","num_feature":"125","num_nodes":"15","size_leaf_vector":"1"}},{"base_weights":[7.6578584E0,4.535184E0,1.19594E2,2.015463E0,3.8092598E1,9.067732E1,1.6218703E2,1.0703283E-2,1.3474761E-1,3.0516806E-1,5.201998E-1,1.3256319E0,6.9584274E-1,2.8508136E0,1.4174862E0],"categories":[],"categories_nodes":[],"categories_segments":[],"categories_sizes":[],"default_left":[0,0,0,0,0,1,0,0,0,0,0,0,0,0,0],"id":25,"left_children":[1,3,5,7,9,11,13,-1,-1,-1,-1,-1,-1,-1,-1],"loss_changes":[1.378044E6,3.244465E5,1.1707975E5,3.8661586E4,2.6689406E4,4.908675E4,6.5084E4,0E0,0E0,0E0,0E0,0E0,0E0,0E0,0E0],"parents":[2147483647,0,0,1,1,2,2,3,3,4,4,5,5,6,6],"right_children":[2,4,6,8,10,12,14,-1,-1,-1,-1,-1,-1,-1,-1],"split_conditions":[8.6E1,2.9333334E1,1.55E2,1.0666667E1,5.3E1,7.7E1,1.21E2,1.0703283E-2,1.3474761E-1,3.0516806E-1,5.201998E-1,1.3256319E0,6.9584274E-1,2.8508136E0,1.4174862E0],"split_indices":[93,93,93,93,93,96,95,0,0,0,0,0,0,0,0],"split_type":[0,0,0,0,0,0,0,0,0,0,0,0,0,0,0],"sum_hessian":[3.943E3,3.837E3,1.06E2,3.57E3,2.67E2,6.5E1,4.1E1,3.299E3,2.71E2,1.75E2,9.2E1,2E1,4.5E1,4E0,3.7E1],"tree_param":{"num_deleted":"0","num_feature":"125","num_nodes":"15","size_leaf_vector":"1"}},{"base_weights":[7.583121E0,4.490085E0,1.1845684E2,1.7622246E0,3.4888065E1,9.637045E1,1.7453851E2,5.9990715E-3,8.2100265E-2,2.6352802E-1,4.8609394E-1,1.2885062E0,7.151479E-1,1.0336341E0,2.1869955E0],"categories":[],"categories_nodes":[],"categories_segments":[],"categories_sizes":[],"default_left":[0,0,0,0,0,1,0,0,0,0,0,0,0,0,0],"id":26,"left_children":[1,3,5,7,9,11,13,-1,-1,-1,-1,-1,-1,-1,-1],"loss_changes":[1.3520092E6,3.1819106E5,1.15714375E5,2.639782E4,3.5727406E4,5.456325E4,6.854631E4,0E0,0E0,0E0,0E0,0E0,0E0,0E0,0E0],"parents":[2147483647,0,0,1,1,2,2,3,3,4,4,5,5,6,6],"right_children":[2,4,6,8,10,12,14,-1,-1,-1,-1,-1,-1,-1,-1],"split_conditions":[8.6E1,2.4333334E1,1.7966667E2,5.6666665E0,4.8333332E1,9.9E1,8.495833E0,5.9990715E-3,8.2100265E-2,2.6352802E-1,4.8609394E-1,1.2885062E0,7.151479E-1,1.0336341E0,2.1869955E0],"split_indices":[93,93,93,93,93,96,55,0,0,0,0,0,0,0,0],"split_type":[0,0,0,0,0,0,0,0,0,0,0,0,0,0,0],"sum_hessian":[3.943E3,3.837E3,1.06E2,3.522E3,3.15E2,7.8E1,2.8E1,2.985E3,5.37E2,1.96E2,1.19E2,3.2E1,4.6E1,1.2E1,1.6E1],"tree_param":{"num_deleted":"0","num_feature":"125","num_nodes":"15","size_leaf_vector":"1"}},{"base_weights":[7.5088267E0,4.445402E0,1.173211E2,1.9744464E0,3.7353382E1,9.543211E1,1.7290417E2,1.1358539E-2,1.44402E-1,2.9917198E-1,5.10245E-1,1.2760116E0,7.0814854E-1,2.2413297E0,1.1014843E0],"categories":[],"categories_nodes":[],"categories_segments":[],"categories_sizes":[],"default_left":[0,0,0,0,0,1,0,0,0,0,0,0,0,0,0],"id":27,"left_children":[1,3,5,7,9,11,13,-1,-1,-1,-1,-1,-1,-1,-1],"loss_changes":[1.3262461E6,3.1201E5,1.13681875E5,3.7313715E4,2.5718656E4,5.3525062E4,6.854425E4,0E0,0E0,0E0,0E0,0E0,0E0,0E0,0E0],"parents":[2147483647,0,0,1,1,2,2,3,3,4,4,5,5,6,6],"right_children":[2,4,6,8,10,12,14,-1,-1,-1,-1,-1,-1,-1,-1],"split_conditions":[8.6E1,2.9333334E1,1.7966667E2,1.2E1,5.3E1,9.9E1,2.0833334E-2,1.1358539E-2,1.44402E-1,2.9917198E-1,5.10245E-1,1.2760116E0,7.0814854E-1,2.2413297E0,1.1014843E0],"split_indices":[93,93,93,93,93,96,17,0,0,0,0,0,0,0,0],"split_type":[0,0,0,0,0,0,0,0,0,0,0,0,0,0,0],"sum_hessian":[3.943E3,3.837E3,1.06E2,3.57E3,2.67E2,7.8E1,2.8E1,3.346E3,2.24E2,1.75E2,9.2E1,3.2E1,4.6E1,1.4E1,1.4E1],"tree_param":{"num_deleted":"0","num_feature":"125","num_nodes":"15","size_leaf_vector":"1"}},{"base_weights":[7.4353337E0,4.216802E0,1.09964066E2,1.6192613E0,3.1998388E1,8.310058E1,1.578748E2,4.2587514E-3,6.919237E-2,2.3575048E-1,4.4421285E-1,1.1246397E0,6.0715634E-1,2.8000357E0,1.3765063E0],"categories":[],"categories_nodes":[],"categories_segments":[],"categories_sizes":[],"default_left":[0,0,0,0,0,1,0,0,0,0,0,0,0,0,0],"id":28,"left_children":[1,3,5,7,9,11,13,-1,-1,-1,-1,-1,-1,-1,-1],"loss_changes":[1.3010246E6,2.7597475E5,1.4132638E5,2.2127943E4,3.317078E4,4.5098188E4,6.5195438E4,0E0,0E0,0E0,0E0,0E0,0E0,0E0,0E0],"parents":[2147483647,0,0,1,1,2,2,3,3,4,4,5,5,6,6],"right_children":[2,4,6,8,10,12,14,-1,-1,-1,-1,-1,-1,-1,-1],"split_conditions":[7.9666664E1,2.2333334E1,1.55E2,4.6666665E0,4.3666668E1,8.5E1,1.21E2,4.2587514E-3,6.919237E-2,2.3575048E-1,4.4421285E-1,1.1246397E0,6.0715634E-1,2.8000357E0,1.3765063E0],"split_indices":[93,93,93,93,93,96,95,0,0,0,0,0,0,0,0],"split_type":[0,0,0,0,0,0,0,0,0,0,0,0,0,0,0],"sum_hessian":[3.943E3,3.824E3,1.19E2,3.498E3,3.26E2,7.8E1,4.1E1,2.856E3,6.42E2,1.96E2,1.3E2,3.2E1,4.6E1,4E0,3.7E1],"tree_param":{"num_deleted":"0","num_feature":"125","num_nodes":"15","size_leaf_vector":"1"}},{"base_weights":[7.3626695E0,4.3563704E0,1.1512727E2,1.9341466E0,3.6615345E1,9.103347E1,1.6418062E2,9.754104E-3,1.2460886E-1,2.932491E-1,5.0018585E-1,4.439617E-1,1.0313348E0,8.597795E-1,2.084976E0],"categories":[],"categories_nodes":[],"categories_segments":[],"categories_sizes":[],"default_left":[0,0,0,0,0,0,0,0,0,0,0,0,0,0,0],"id":29,"left_children":[1,3,5,7,9,11,13,-1,-1,-1,-1,-1,-1,-1,-1],"loss_changes":[1.2772464E6,2.9982456E5,1.11515375E5,3.602769E4,2.4720969E4,3.7180375E4,9.990781E4,0E0,0E0,0E0,0E0,0E0,0E0,0E0,0E0],"parents":[2147483647,0,0,1,1,2,2,3,3,4,4,5,5,6,6],"right_children":[2,4,6,8,10,12,14,-1,-1,-1,-1,-1,-1,-1,-1],"split_conditions":[8.6E1,2.9333334E1,1.06125E1,1E1,5.3E1,5.3125E0,6E1,9.754104E-3,1.2460886E-1,2.932491E-1,5.0018585E-1,4.439617E-1,1.0313348E0,8.597795E-1,2.084976E0],"split_indices":[93,93,70,93,93,69,109,0,0,0,0,0,0,0,0],"split_type":[0,0,0,0,0,0,0,0,0,0,0,0,0,0,0],"sum_hessian":[3.943E3,3.837E3,1.06E2,3.57E3,2.67E2,7.3E1,3.3E1,3.273E3,2.97E2,1.75E2,9.2E1,1.6E1,5.7E1,1.3E1,2E1],"tree_param":{"num_deleted":"0","num_feature":"125","num_nodes":"15","size_leaf_vector":"1"}},{"base_weights":[7.2903986E0,4.3130484E0,1.1401731E2,1.6910889E0,3.3530933E1,9.0143074E1,1.6262543E2,7.077467E-3,8.838279E-2,2.5320047E-1,4.673104E-1,6.42052E-1,1.1302619E0,8.517958E-1,2.065119E0],"categories":[],"categories_nodes":[],"categories_segments":[],"categories_sizes":[],"default_left":[0,0,0,0,0,0,0,0,0,0,0,0,0,0,0],"id":30,"left_children":[1,3,5,7,9,11,13,-1,-1,-1,-1,-1,-1,-1,-1],"loss_changes":[1.252767E6,2.9396522E5,1.09512E5,2.4753857E4,3.306628E4,3.6665E4,9.79695E4,0E0,0E0,0E0,0E0,0E0,0E0,0E0,0E0],"parents":[2147483647,0,0,1,1,2,2,3,3,4,4,5,5,6,6],"right_children":[2,4,6,8,10,12,14,-1,-1,-1,-1,-1,-1,-1,-1],"split_conditions":[8.6E1,2.4333334E1,1.06125E1,7E0,4.8333332E1,2.1E1,6E1,7.077467E-3,8.838279E-2,2.5320047E-1,4.673104E-1,6.42052E-1,1.1302619E0,8.517958E-1,2.065119E0],"split_indices":[93,93,70,93,93,2,109,0,0,0,0,0,0,0,0],"split_type":[0,0,0,0,0,0,0,0,0,0,0,0,0,0,0],"sum_hessian":[3.943E3,3.837E3,1.06E2,3.522E3,3.15E2,7.3E1,3.3E1,3.097E3,4.25E2,1.96E2,1.19E2,3.6E1,3.7E1,1.3E1,2E1],"tree_param":{"num_deleted":"0","num_feature":"125","num_nodes":"15","size_leaf_vector":"1"}},{"base_weights":[7.2188907E0,4.2701306E0,1.1292096E2,1.8947825E0,3.5904827E1,9.166497E1,1.6693138E2,1.0853547E-2,1.392705E-1,2.8748718E-1,4.9061492E-1,1.2322227E0,6.7557395E-1,2.175536E0,1.0518041E0],"categories":[],"categories_nodes":[],"categories_segments":[],"categories_sizes":[],"default_left":[0,0,0,0,0,1,0,0,0,0,0,0,0,0,0],"id":31,"left_children":[1,3,5,7,9,11,13,-1,-1,-1,-1,-1,-1,-1,-1],"loss_changes":[1.2288232E6,2.8833238E5,1.07538875E5,3.4763758E4,2.3821875E4,5.177625E4,6.777075E4,0E0,0E0,0E0,0E0,0E0,0E0,0E0,0E0],"parents":[2147483647,0,0,1,1,2,2,3,3,4,4,5,5,6,6],"right_children":[2,4,6,8,10,12,14,-1,-1,-1,-1,-1,-1,-1,-1],"split_conditions":[8.6E1,2.9333334E1,1.7966667E2,1.2E1,5.3E1,9.9E1,2.0833334E-2,1.0853547E-2,1.392705E-1,2.8748718E-1,4.9061492E-1,1.2322227E0,6.7557395E-1,2.175536E0,1.0518041E0],"split_indices":[93,93,93,93,93,96,17,0,0,0,0,0,0,0,0],"split_type":[0,0,0,0,0,0,0,0,0,0,0,0,0,0,0],"sum_hessian":[3.943E3,3.837E3,1.06E2,3.57E3,2.67E2,7.8E1,2.8E1,3.346E3,2.24E2,1.75E2,9.2E1,3.2E1,4.6E1,1.4E1,1.4E1],"tree_param":{"num_deleted":"0","num_feature":"125","num_nodes":"15","size_leaf_vector":"1"}},{"base_weights":[7.148239E0,3.7192702E0,9.632292E1,1.4800558E0,2.8142426E1,6.178932E1,1.3502632E2,3.939425E-3,6.442529E-2,2.1349184E-1,3.922997E-1,8.6441696E-1,4.1242155E-1,1.8250445E0,1.083519E0],"categories":[],"categories_nodes":[],"categories_segments":[],"categories_sizes":[],"default_left":[0,0,0,0,0,1,0,0,0,0,0,0,0,0,0],"id":32,"left_children":[1,3,5,7,9,11,13,-1,-1,-1,-1,-1,-1,-1,-1],"loss_changes":[1.205627E6,2.0772066E5,1.8679562E5,1.8759383E4,2.3189688E4,3.6451344E4,6.6344E4,0E0,0E0,0E0,0E0,0E0,0E0,0E0,0E0],"parents":[2147483647,0,0,1,1,2,2,3,3,4,4,5,5,6,6],"right_children":[2,4,6,8,10,12,14,-1,-1,-1,-1,-1,-1,-1,-1],"split_conditions":[6.9E1,2.0333334E1,1.25333336E2,4.6666665E0,4.2E1,7E1,8.691667E0,3.939425E-3,6.442529E-2,2.1349184E-1,3.922997E-1,8.6441696E-1,4.1242155E-1,1.8250445E0,1.083519E0],"split_indices":[93,93,93,93,93,96,54,0,0,0,0,0,0,0,0],"split_type":[0,0,0,0,0,0,0,0,0,0,0,0,0,0,0],"sum_hessian":[3.943E3,3.798E3,1.45E2,3.48E3,3.18E2,7.8E1,6.7E1,2.856E3,6.24E2,1.99E2,1.19E2,3.4E1,4.4E1,2.2E1,4.5E1],"tree_param":{"num_deleted":"0","num_feature":"125","num_nodes":"15","size_leaf_vector":"1"}},{"base_weights":[7.0779886E0,4.184368E0,1.1080357E2,1.8560877E0,3.5192223E1,8.732447E1,1.5864622E2,9.317209E-3,1.2005486E-1,2.8183532E-1,4.807757E-1,4.174159E-1,9.9179375E-1,8.2524717E-1,2.0183933E0],"categories":[],"categories_nodes":[],"categories_segments":[],"categories_sizes":[],"default_left":[0,0,0,0,0,0,0,0,0,0,0,0,0,0,0],"id":33,"left_children":[1,3,5,7,9,11,13,-1,-1,-1,-1,-1,-1,-1,-1],"loss_changes":[1.1832982E6,2.77019E5,1.0633975E5,3.3491105E4,2.2847938E4,3.5848312E4,9.5132625E4,0E0,0E0,0E0,0E0,0E0,0E0,0E0,0E0],"parents":[2147483647,0,0,1,1,2,2,3,3,4,4,5,5,6,6],"right_children":[2,4,6,8,10,12,14,-1,-1,-1,-1,-1,-1,-1,-1],"split_conditions":[8.6E1,2.9333334E1,1.06125E1,1E1,5.3E1,5.3125E0,6E1,9.317209E-3,1.2005486E-1,2.8183532E-1,4.807757E-1,4.174159E-1,9.9179375E-1,8.2524717E-1,2.0183933E0],"split_indices":[93,93,70,93,93,69,109,0,0,0,0,0,0,0,0],"split_type":[0,0,0,0,0,0,0,0,0,0,0,0,0,0,0],"sum_hessian":[3.943E3,3.837E3,1.06E2,3.57E3,2.67E2,7.3E1,3.3E1,3.273E3,2.97E2,1.75E2,9.2E1,1.6E1,5.7E1,1.3E1,2E1],"tree_param":{"num_deleted":"0","num_feature":"125","num_nodes":"15","size_leaf_vector":"1"}},{"base_weights":[7.0085135E0,4.142757E0,1.0973528E2,1.622648E0,3.222567E1,8.647027E1,1.571434E2,3.8069044E-3,6.939964E-2,2.2995885E-1,4.3090442E-1,6.1060536E-1,1.0893579E0,8.1758416E-1,1.9991703E0],"categories":[],"categories_nodes":[],"categories_segments":[],"categories_sizes":[],"default_left":[0,0,0,0,0,0,0,0,0,0,0,0,0,0,0],"id":34,"left_children":[1,3,5,7,9,11,13,-1,-1,-1,-1,-1,-1,-1,-1],"loss_changes":[1.1606191E6,2.7157062E5,1.044275E5,2.326283E4,3.0697438E4,3.5590688E4,9.328775E4,0E0,0E0,0E0,0E0,0E0,0E0,0E0,0E0],"parents":[2147483647,0,0,1,1,2,2,3,3,4,4,5,5,6,6],"right_children":[2,4,6,8,10,12,14,-1,-1,-1,-1,-1,-1,-1,-1],"split_conditions":[8.6E1,2.4333334E1,1.06125E1,4.6666665E0,4.3666668E1,2.1E1,6E1,3.8069044E-3,6.939964E-2,2.2995885E-1,4.3090442E-1,6.1060536E-1,1.0893579E0,8.1758416E-1,1.9991703E0],"split_indices":[93,93,70,93,93,2,109,0,0,0,0,0,0,0,0],"split_type":[0,0,0,0,0,0,0,0,0,0,0,0,0,0,0],"sum_hessian":[3.943E3,3.837E3,1.06E2,3.522E3,3.15E2,7.3E1,3.3E1,2.856E3,6.66E2,1.72E2,1.43E2,3.6E1,3.7E1,1.3E1,2E1],"tree_param":{"num_deleted":"0","num_feature":"125","num_nodes":"15","size_leaf_vector":"1"}},{"base_weights":[6.9397597E0,4.1015205E0,1.08680145E2,1.8184842E0,3.4506824E1,6.6829544E1,1.3366568E2,1.0365729E-2,1.3441767E-1,2.7616417E-1,4.7175694E-1,1.1715771E0,4.7440818E-1,1.8806902E0,1.0767136E0],"categories":[],"categories_nodes":[],"categories_segments":[],"categories_sizes":[],"default_left":[0,0,0,0,0,0,0,0,0,0,0,0,0,0,0],"id":35,"left_children":[1,3,5,7,9,11,13,-1,-1,-1,-1,-1,-1,-1,-1],"loss_changes":[1.1384375E6,2.663574E5,1.0295275E5,3.2440664E4,2.2091906E4,3.54255E4,7.3086E4,0E0,0E0,0E0,0E0,0E0,0E0,0E0,0E0],"parents":[2147483647,0,0,1,1,2,2,3,3,4,4,5,5,6,6],"right_children":[2,4,6,8,10,12,14,-1,-1,-1,-1,-1,-1,-1,-1],"split_conditions":[8.6E1,2.9333334E1,7.2875E0,1.2E1,5.3E1,1.1E0,8.691667E0,1.0365729E-2,1.3441767E-1,2.7616417E-1,4.7175694E-1,1.1715771E0,4.7440818E-1,1.8806902E0,1.0767136E0],"split_indices":[93,93,69,93,93,43,54,0,0,0,0,0,0,0,0],"split_type":[0,0,0,0,0,0,0,0,0,0,0,0,0,0,0],"sum_hessian":[3.943E3,3.837E3,1.06E2,3.57E3,2.67E2,4.1E1,6.5E1,3.346E3,2.24E2,1.75E2,9.2E1,1E1,3.1E1,1.9E1,4.6E1],"tree_param":{"num_deleted":"0","num_feature":"125","num_nodes":"15","size_leaf_vector":"1"}},{"base_weights":[6.8717556E0,3.571558E0,9.269764E1,1.4186733E0,2.7053123E1,5.9269447E1,1.3017012E2,2.500777E-3,5.7692517E-2,2.0523046E-1,3.7711143E-1,8.368068E-1,3.8965836E-1,1.7672343E0,1.0406369E0],"categories":[],"categories_nodes":[],"categories_segments":[],"categories_sizes":[],"default_left":[0,0,0,0,0,1,0,0,0,0,0,0,0,0,0],"id":36,"left_children":[1,3,5,7,9,11,13,-1,-1,-1,-1,-1,-1,-1,-1],"loss_changes":[1.1167768E6,1.9201286E5,1.7516988E5,1.7696195E4,2.1427719E4,3.5894562E4,6.425275E4,0E0,0E0,0E0,0E0,0E0,0E0,0E0,0E0],"parents":[2147483647,0,0,1,1,2,2,3,3,4,4,5,5,6,6],"right_children":[2,4,6,8,10,12,14,-1,-1,-1,-1,-1,-1,-1,-1],"split_conditions":[6.9E1,2.0333334E1,1.25333336E2,4E0,4.2E1,7E1,8.691667E0,2.500777E-3,5.7692517E-2,2.0523046E-1,3.7711143E-1,8.368068E-1,3.8965836E-1,1.7672343E0,1.0406369E0],"split_indices":[93,93,93,93,93,96,54,0,0,0,0,0,0,0,0],"split_type":[0,0,0,0,0,0,0,0,0,0,0,0,0,0,0],"sum_hessian":[3.943E3,3.798E3,1.45E2,3.48E3,3.18E2,7.8E1,6.7E1,2.744E3,7.36E2,1.99E2,1.19E2,3.4E1,4.4E1,2.2E1,4.5E1],"tree_param":{"num_deleted":"0","num_feature":"125","num_nodes":"15","size_leaf_vector":"1"}},{"base_weights":[6.8042235E0,4.0191464E0,1.0663901E2,1.7813551E0,3.3821884E1,8.38713E1,1.530558E2,1.0137833E-2,1.3191496E-1,2.7073303E-1,4.622972E-1,5.888216E-1,1.0599569E0,7.857218E-1,1.9542316E0],"categories":[],"categories_nodes":[],"categories_segments":[],"categories_sizes":[],"default_left":[0,0,0,0,0,0,0,0,0,0,0,0,0,0,0],"id":37,"left_children":[1,3,5,7,9,11,13,-1,-1,-1,-1,-1,-1,-1,-1],"loss_changes":[1.096191E6,2.5590484E5,1.00241125E5,3.1261816E4,2.1189469E4,3.4671062E4,9.1938125E4,0E0,0E0,0E0,0E0,0E0,0E0,0E0,0E0],"parents":[2147483647,0,0,1,1,2,2,3,3,4,4,5,5,6,6],"right_children":[2,4,6,8,10,12,14,-1,-1,-1,-1,-1,-1,-1,-1],"split_conditions":[8.6E1,2.9333334E1,1.06125E1,1.2E1,5.3E1,2.1E1,6E1,1.0137833E-2,1.3191496E-1,2.7073303E-1,4.622972E-1,5.888216E-1,1.0599569E0,7.857218E-1,1.9542316E0],"split_indices":[93,93,70,93,93,2,109,0,0,0,0,0,0,0,0],"split_type":[0,0,0,0,0,0,0,0,0,0,0,0,0,0,0],"sum_hessian":[3.943E3,3.837E3,1.06E2,3.57E3,2.67E2,7.3E1,3.3E1,3.346E3,2.24E2,1.75E2,9.2E1,3.6E1,3.7E1,1.3E1,2E1],"tree_param":{"num_deleted":"0","num_feature":"125","num_nodes":"15","size_leaf_vector":"1"}},{"base_weights":[6.737516E0,3.9791832E0,1.0561363E2,1.7635814E0,3.34864E1,6.4603325E1,1.3011089E2,8.783314E-3,1.148353E-1,2.680411E-1,4.5772395E-1,1.1439835E0,4.5467433E-1,1.0263835E0,1.803906E0],"categories":[],"categories_nodes":[],"categories_segments":[],"categories_sizes":[],"default_left":[0,0,0,0,0,0,0,0,0,0,0,0,0,0,0],"id":38,"left_children":[1,3,5,7,9,11,13,-1,-1,-1,-1,-1,-1,-1,-1],"loss_changes":[1.0752398E6,2.50855E5,9.9090875E4,3.0716883E4,2.0775531E4,3.4819234E4,7.26515E4,0E0,0E0,0E0,0E0,0E0,0E0,0E0,0E0],"parents":[2147483647,0,0,1,1,2,2,3,3,4,4,5,5,6,6],"right_children":[2,4,6,8,10,12,14,-1,-1,-1,-1,-1,-1,-1,-1],"split_conditions":[8.6E1,2.9333334E1,7.2875E0,1E1,5.3E1,1.1E0,2.5E0,8.783314E-3,1.148353E-1,2.680411E-1,4.5772395E-1,1.1439835E0,4.5467433E-1,1.0263835E0,1.803906E0],"split_indices":[93,93,69,93,93,43,7,0,0,0,0,0,0,0,0],"split_type":[0,0,0,0,0,0,0,0,0,0,0,0,0,0,0],"sum_hessian":[3.943E3,3.837E3,1.06E2,3.57E3,2.67E2,4.1E1,6.5E1,3.273E3,2.97E2,1.75E2,9.2E1,1E1,3.1E1,4.4E1,2.1E1],"tree_param":{"num_deleted":"0","num_feature":"125","num_nodes":"15","size_leaf_vector":"1"}},{"base_weights":[6.671479E0,3.9396126E0,1.04598885E2,1.5409399E0,3.066931E1,7.830377E1,1.4342934E2,3.429447E-3,6.670073E-2,2.1858434E-1,4.1041613E-1,1.1780951E0,5.856629E-1,2.6477814E0,1.2368792E0],"categories":[],"categories_nodes":[],"categories_segments":[],"categories_sizes":[],"default_left":[0,0,0,0,0,1,0,0,0,0,0,0,0,0,0],"id":39,"left_children":[1,3,5,7,9,11,13,-1,-1,-1,-1,-1,-1,-1,-1],"loss_changes":[1.0547051E6,2.4602914E5,9.8021375E4,2.164541E4,2.7981844E4,4.4563438E4,6.7865125E4,0E0,0E0,0E0,0E0,0E0,0E0,0E0,0E0],"parents":[2147483647,0,0,1,1,2,2,3,3,4,4,5,5,6,6],"right_children":[2,4,6,8,10,12,14,-1,-1,-1,-1,-1,-1,-1,-1],"split_conditions":[8.6E1,2.4333334E1,1.55E2,4.6666665E0,4.3666668E1,7.7E1,1.21E2,3.429447E-3,6.670073E-2,2.1858434E-1,4.1041613E-1,1.1780951E0,5.856629E-1,2.6477814E0,1.2368792E0],"split_indices":[93,93,93,93,93,96,95,0,0,0,0,0,0,0,0],"split_type":[0,0,0,0,0,0,0,0,0,0,0,0,0,0,0],"sum_hessian":[3.943E3,3.837E3,1.06E2,3.522E3,3.15E2,6.5E1,4.1E1,2.856E3,6.66E2,1.72E2,1.43E2,2E1,4.5E1,4E0,3.7E1],"tree_param":{"num_deleted":"0","num_feature":"125","num_nodes":"15","size_leaf_vector":"1"}},{"base_weights":[6.606374E0,3.7358603E0,9.804894E1,1.4280838E0,2.841835E1,7.33949E1,1.4208752E2,3.3951642E-3,6.2626235E-2,2.0921633E-1,3.9475104E-1,1.0573376E0,5.457021E-1,2.626599E0,1.224836E0],"categories":[],"categories_nodes":[],"categories_segments":[],"categories_sizes":[],"default_left":[0,0,0,0,0,1,0,0,0,0,0,0,0,0,0],"id":40,"left_children":[1,3,5,7,9,11,13,-1,-1,-1,-1,-1,-1,-1,-1],"loss_changes":[1.0348831E6,2.1783781E5,1.19858875E5,1.841214E4,2.6278938E4,4.2322906E4,6.7103625E4,0E0,0E0,0E0,0E0,0E0,0E0,0E0,0E0],"parents":[2147483647,0,0,1,1,2,2,3,3,4,4,5,5,6,6],"right_children":[2,4,6,8,10,12,14,-1,-1,-1,-1,-1,-1,-1,-1],"split_conditions":[7.9666664E1,2.2333334E1,1.55E2,4.6666665E0,4.3666668E1,7.7E1,1.21E2,3.3951642E-3,6.2626235E-2,2.0921633E-1,3.9475104E-1,1.0573376E0,5.457021E-1,2.626599E0,1.224836E0],"split_indices":[93,93,93,93,93,96,95,0,0,0,0,0,0,0,0],"split_type":[0,0,0,0,0,0,0,0,0,0,0,0,0,0,0],"sum_hessian":[3.943E3,3.824E3,1.19E2,3.498E3,3.26E2,7.8E1,4.1E1,2.856E3,6.42E2,1.96E2,1.3E2,2.7E1,5.1E1,4E0,3.7E1],"tree_param":{"num_deleted":"0","num_feature":"125","num_nodes":"15","size_leaf_vector":"1"}},{"base_weights":[6.541863E0,3.8605597E0,1.0265682E2,1.7096667E0,3.2506E1,6.2238953E1,1.2682188E2,9.677978E-3,1.273778E-1,2.600287E-1,4.446347E-1,1.1108855E0,4.3501937E-1,9.97242E-1,1.7648431E0],"categories":[],"categories_nodes":[],"categories_segments":[],"categories_sizes":[],"default_left":[0,0,0,0,0,0,0,0,0,0,0,0,0,0,0],"id":41,"left_children":[1,3,5,7,9,11,13,-1,-1,-1,-1,-1,-1,-1,-1],"loss_changes":[1.0160252E6,2.3641619E5,9.6613625E4,2.92035E4,1.968375E4,3.3609844E4,7.1219E4,0E0,0E0,0E0,0E0,0E0,0E0,0E0,0E0],"parents":[2147483647,0,0,1,1,2,2,3,3,4,4,5,5,6,6],"right_children":[2,4,6,8,10,12,14,-1,-1,-1,-1,-1,-1,-1,-1],"split_conditions":[8.6E1,2.9333334E1,7.2875E0,1.2E1,5.3E1,1.1E0,2.5E0,9.677978E-3,1.273778E-1,2.600287E-1,4.446347E-1,1.1108855E0,4.3501937E-1,9.97242E-1,1.7648431E0],"split_indices":[93,93,69,93,93,43,7,0,0,0,0,0,0,0,0],"split_type":[0,0,0,0,0,0,0,0,0,0,0,0,0,0,0],"sum_hessian":[3.943E3,3.837E3,1.06E2,3.57E3,2.67E2,4.1E1,6.5E1,3.346E3,2.24E2,1.75E2,9.2E1,1E1,3.1E1,4.4E1,2.1E1],"tree_param":{"num_deleted":"0","num_feature":"125","num_nodes":"15","size_leaf_vector":"1"}},{"base_weights":[6.4777503E0,3.8221734E0,1.0167052E2,1.3990337E0,2.874789E1,7.954411E1,1.4683768E2,2.1216695E-3,5.712345E-2,2.0503251E-1,3.9827374E-1,5.525729E-1,1.0109854E0,7.4359787E-1,1.8816398E0],"categories":[],"categories_nodes":[],"categories_segments":[],"categories_sizes":[],"default_left":[0,0,0,0,0,0,0,0,0,0,0,0,0,0,0],"id":42,"left_children":[1,3,5,7,9,11,13,-1,-1,-1,-1,-1,-1,-1,-1],"loss_changes":[9.966219E5,2.3176919E5,9.5254375E4,1.791131E4,3.0241156E4,3.3151688E4,8.78465E4,0E0,0E0,0E0,0E0,0E0,0E0,0E0,0E0],"parents":[2147483647,0,0,1,1,2,2,3,3,4,4,5,5,6,6],"right_children":[2,4,6,8,10,12,14,-1,-1,-1,-1,-1,-1,-1,-1],"split_conditions":[8.6E1,2.2333334E1,1.06125E1,4E0,4.3666668E1,2.1E1,6E1,2.1216695E-3,5.712345E-2,2.0503251E-1,3.9827374E-1,5.525729E-1,1.0109854E0,7.4359787E-1,1.8816398E0],"split_indices":[93,93,70,93,93,2,109,0,0,0,0,0,0,0,0],"split_type":[0,0,0,0,0,0,0,0,0,0,0,0,0,0,0],"sum_hessian":[3.943E3,3.837E3,1.06E2,3.498E3,3.39E2,7.3E1,3.3E1,2.744E3,7.54E2,1.96E2,1.43E2,3.6E1,3.7E1,1.3E1,2E1],"tree_param":{"num_deleted":"0","num_feature":"125","num_nodes":"15","size_leaf_vector":"1"}},{"base_weights":[6.4142027E0,3.3263993E0,8.6716606E1,1.3178554E0,2.5233658E1,5.4960197E1,1.2233483E2,1.412418E-3,5.2163973E-2,1.8678801E-1,3.4498042E-1,7.8826314E-1,3.5176322E-1,1.6811858E0,9.678349E-1],"categories":[],"categories_nodes":[],"categories_segments":[],"categories_sizes":[],"default_left":[0,0,0,0,0,1,0,0,0,0,0,0,0,0,0],"id":43,"left_children":[1,3,5,7,9,11,13,-1,-1,-1,-1,-1,-1,-1,-1],"loss_changes":[9.776579E5,1.6712919E5,1.58418E5,1.5966877E4,1.8727453E4,3.452817E4,6.3277812E4,0E0,0E0,0E0,0E0,0E0,0E0,0E0,0E0],"parents":[2147483647,0,0,1,1,2,2,3,3,4,4,5,5,6,6],"right_children":[2,4,6,8,10,12,14,-1,-1,-1,-1,-1,-1,-1,-1],"split_conditions":[6.9E1,2.0333334E1,1.25333336E2,3.6666667E0,4.0333332E1,7E1,8.691667E0,1.412418E-3,5.2163973E-2,1.8678801E-1,3.4498042E-1,7.8826314E-1,3.5176322E-1,1.6811858E0,9.678349E-1],"split_indices":[93,93,93,93,93,96,54,0,0,0,0,0,0,0,0],"split_type":[0,0,0,0,0,0,0,0,0,0,0,0,0,0,0],"sum_hessian":[3.943E3,3.798E3,1.45E2,3.48E3,3.18E2,7.8E1,6.7E1,2.674E3,8.06E2,1.88E2,1.3E2,3.4E1,4.4E1,2.2E1,4.5E1],"tree_param":{"num_deleted":"0","num_feature":"125","num_nodes":"15","size_leaf_vector":"1"}},{"base_weights":[6.3511696E0,3.745388E0,9.975902E1,1.6572437E0,3.1555157E1,6.0152397E1,1.2345172E2,8.564123E-3,1.136712E-1,2.522952E-1,4.3186945E-1,1.0847969E0,4.166013E-1,1.7605892E0,9.8439044E-1],"categories":[],"categories_nodes":[],"categories_segments":[],"categories_sizes":[],"default_left":[0,0,0,0,0,0,0,0,0,0,0,0,0,0,0],"id":44,"left_children":[1,3,5,7,9,11,13,-1,-1,-1,-1,-1,-1,-1,-1],"loss_changes":[9.595978E5,2.2282345E5,9.2981625E4,2.775827E4,1.8629469E4,3.301533E4,6.951481E4,0E0,0E0,0E0,0E0,0E0,0E0,0E0,0E0],"parents":[2147483647,0,0,1,1,2,2,3,3,4,4,5,5,6,6],"right_children":[2,4,6,8,10,12,14,-1,-1,-1,-1,-1,-1,-1,-1],"split_conditions":[8.6E1,2.9333334E1,7.2875E0,1.0666667E1,5.3E1,1.1E0,8.691667E0,8.564123E-3,1.136712E-1,2.522952E-1,4.3186945E-1,1.0847969E0,4.166013E-1,1.7605892E0,9.8439044E-1],"split_indices":[93,93,69,93,93,43,54,0,0,0,0,0,0,0,0],"split_type":[0,0,0,0,0,0,0,0,0,0,0,0,0,0,0],"sum_hessian":[3.943E3,3.837E3,1.06E2,3.57E3,2.67E2,4.1E1,6.5E1,3.299E3,2.71E2,1.75E2,9.2E1,1E1,3.1E1,1.9E1,4.6E1],"tree_param":{"num_deleted":"0","num_feature":"125","num_nodes":"15","size_leaf_vector":"1"}},{"base_weights":[6.288939E0,3.7081442E0,9.880111E1,1.6407055E0,3.1242157E1,7.933793E1,1.4841455E2,8.071836E-3,1.0792751E-1,2.4978659E-1,4.2759722E-1,1.0949175E0,5.647805E-1,8.08863E-1,1.9132354E0],"categories":[],"categories_nodes":[],"categories_segments":[],"categories_sizes":[],"default_left":[0,0,0,0,0,1,0,0,0,0,0,0,0,0,0],"id":45,"left_children":[1,3,5,7,9,11,13,-1,-1,-1,-1,-1,-1,-1,-1],"loss_changes":[9.412832E5,2.1842644E5,9.154794E4,2.7232416E4,1.82655E4,4.8271875E4,6.855406E4,0E0,0E0,0E0,0E0,0E0,0E0,0E0,0E0],"parents":[2147483647,0,0,1,1,2,2,3,3,4,4,5,5,6,6],"right_children":[2,4,6,8,10,12,14,-1,-1,-1,-1,-1,-1,-1,-1],"split_conditions":[8.6E1,2.9333334E1,1.7966667E2,1E1,5.3E1,9.9E1,8.495833E0,8.071836E-3,1.0792751E-1,2.4978659E-1,4.2759722E-1,1.0949175E0,5.647805E-1,8.08863E-1,1.9132354E0],"split_indices":[93,93,93,93,93,96,55,0,0,0,0,0,0,0,0],"split_type":[0,0,0,0,0,0,0,0,0,0,0,0,0,0,0],"sum_hessian":[3.943E3,3.837E3,1.06E2,3.57E3,2.67E2,7.8E1,2.8E1,3.273E3,2.97E2,1.75E2,9.2E1,3.2E1,4.6E1,1.2E1,1.6E1],"tree_param":{"num_deleted":"0","num_feature":"125","num_nodes":"15","size_leaf_vector":"1"}},{"base_weights":[6.227362E0,3.6712694E0,9.785405E1,1.3419738E0,2.7631666E1,7.627684E1,1.4193816E2,1.9071002E-3,5.5259164E-2,1.969552E-1,3.8296866E-1,5.247854E-1,9.744159E-1,7.072959E-1,1.8265156E0],"categories":[],"categories_nodes":[],"categories_segments":[],"categories_sizes":[],"default_left":[0,0,0,0,0,0,0,0,0,0,0,0,0,0,0],"id":46,"left_children":[1,3,5,7,9,11,13,-1,-1,-1,-1,-1,-1,-1,-1],"loss_changes":[9.233504E5,2.1416494E5,9.095306E4,1.6853006E4,2.80235E4,3.2159125E4,8.5652E4,0E0,0E0,0E0,0E0,0E0,0E0,0E0,0E0],"parents":[2147483647,0,0,1,1,2,2,3,3,4,4,5,5,6,6],"right_children":[2,4,6,8,10,12,14,-1,-1,-1,-1,-1,-1,-1,-1],"split_conditions":[8.6E1,2.2333334E1,1.06125E1,4E0,4.3666668E1,2.1E1,6E1,1.9071002E-3,5.5259164E-2,1.969552E-1,3.8296866E-1,5.247854E-1,9.744159E-1,7.072959E-1,1.8265156E0],"split_indices":[93,93,70,93,93,2,109,0,0,0,0,0,0,0,0],"split_type":[0,0,0,0,0,0,0,0,0,0,0,0,0,0,0],"sum_hessian":[3.943E3,3.837E3,1.06E2,3.498E3,3.39E2,7.3E1,3.3E1,2.744E3,7.54E2,1.96E2,1.43E2,3.6E1,3.7E1,1.3E1,2E1],"tree_param":{"num_deleted":"0","num_feature":"125","num_nodes":"15","size_leaf_vector":"1"}},{"base_weights":[6.1662726E0,3.194243E0,8.345788E1,1.1075561E0,2.2704874E1,5.2655975E1,1.18015114E2,1.2129381E-3,4.582054E-2,1.6824698E-1,3.3169731E-1,7.621771E-1,3.316004E-1,9.204361E-1,1.617944E0],"categories":[],"categories_nodes":[],"categories_segments":[],"categories_sizes":[],"default_left":[0,0,0,0,0,1,0,0,0,0,0,0,0,0,0],"id":47,"left_children":[1,3,5,7,9,11,13,-1,-1,-1,-1,-1,-1,-1,-1],"loss_changes":[9.057211E5,1.546419E5,1.4919238E5,1.1763534E4,2.202536E4,3.3761906E4,6.2424938E4,0E0,0E0,0E0,0E0,0E0,0E0,0E0,0E0],"parents":[2147483647,0,0,1,1,2,2,3,3,4,4,5,5,6,6],"right_children":[2,4,6,8,10,12,14,-1,-1,-1,-1,-1,-1,-1,-1],"split_conditions":[6.9E1,1.6E1,1.25333336E2,3.6666667E0,4.0333332E1,7E1,1.7458333E-1,1.2129381E-3,4.582054E-2,1.6824698E-1,3.3169731E-1,7.621771E-1,3.316004E-1,9.204361E-1,1.617944E0],"split_indices":[93,93,93,93,93,96,66,0,0,0,0,0,0,0,0],"split_type":[0,0,0,0,0,0,0,0,0,0,0,0,0,0,0],"sum_hessian":[3.943E3,3.798E3,1.45E2,3.432E3,3.66E2,7.8E1,6.7E1,2.674E3,7.58E2,2.36E2,1.3E2,3.4E1,4.4E1,4.4E1,2.3E1],"tree_param":{"num_deleted":"0","num_feature":"125","num_nodes":"15","size_leaf_vector":"1"}},{"base_weights":[6.1056695E0,3.597522E0,9.601375E1,1.5900904E0,3.0332375E1,5.73108E1,1.1918814E2,8.92551E-3,1.19593106E-1,2.4241751E-1,4.1532552E-1,1.0492657E0,3.9151907E-1,9.29224E-1,1.6749586E0],"categories":[],"categories_nodes":[],"categories_segments":[],"categories_sizes":[],"default_left":[0,0,0,0,0,0,0,0,0,0,0,0,0,0,0],"id":48,"left_children":[1,3,5,7,9,11,13,-1,-1,-1,-1,-1,-1,-1,-1],"loss_changes":[8.8903725E5,2.0593103E5,8.9139375E4,2.5818152E4,1.7275078E4,3.2207219E4,6.817925E4,0E0,0E0,0E0,0E0,0E0,0E0,0E0,0E0],"parents":[2147483647,0,0,1,1,2,2,3,3,4,4,5,5,6,6],"right_children":[2,4,6,8,10,12,14,-1,-1,-1,-1,-1,-1,-1,-1],"split_conditions":[8.6E1,2.9333334E1,7.2875E0,1.2E1,5.3E1,1.1E0,2.5E0,8.92551E-3,1.19593106E-1,2.4241751E-1,4.1532552E-1,1.0492657E0,3.9151907E-1,9.29224E-1,1.6749586E0],"split_indices":[93,93,69,93,93,43,7,0,0,0,0,0,0,0,0],"split_type":[0,0,0,0,0,0,0,0,0,0,0,0,0,0,0],"sum_hessian":[3.943E3,3.837E3,1.06E2,3.57E3,2.67E2,4.1E1,6.5E1,3.346E3,2.24E2,1.75E2,9.2E1,1E1,3.1E1,4.4E1,2.1E1],"tree_param":{"num_deleted":"0","num_feature":"125","num_nodes":"15","size_leaf_vector":"1"}},{"base_weights":[6.045838E0,3.5617516E0,9.5091415E1,1.5742255E0,3.0031504E1,7.3913475E1,1.3838776E2,7.378491E-3,1.00689806E-1,2.4000713E-1,4.1121694E-1,5.058684E-1,9.468117E-1,6.848155E-1,1.78402E0],"categories":[],"categories_nodes":[],"categories_segments":[],"categories_sizes":[],"default_left":[0,0,0,0,0,0,0,0,0,0,0,0,0,0,0],"id":49,"left_children":[1,3,5,7,9,11,13,-1,-1,-1,-1,-1,-1,-1,-1],"loss_changes":[8.720617E5,2.018673E5,8.78825E4,2.536386E4,1.6937625E4,3.1058969E4,8.2889E4,0E0,0E0,0E0,0E0,0E0,0E0,0E0,0E0],"parents":[2147483647,0,0,1,1,2,2,3,3,4,4,5,5,6,6],"right_children":[2,4,6,8,10,12,14,-1,-1,-1,-1,-1,-1,-1,-1],"split_conditions":[8.6E1,2.9333334E1,1.06125E1,9.666667E0,5.3E1,2.1E1,6E1,7.378491E-3,1.00689806E-1,2.4000713E-1,4.1121694E-1,5.058684E-1,9.468117E-1,6.848155E-1,1.78402E0],"split_indices":[93,93,70,93,93,2,109,0,0,0,0,0,0,0,0],"split_type":[0,0,0,0,0,0,0,0,0,0,0,0,0,0,0],"sum_hessian":[3.943E3,3.837E3,1.06E2,3.57E3,2.67E2,7.3E1,3.3E1,3.251E3,3.19E2,1.75E2,9.2E1,3.6E1,3.7E1,1.3E1,2E1],"tree_param":{"num_deleted":"0","num_feature":"125","num_nodes":"15","size_leaf_vector":"1"}},{"base_weights":[5.986566E0,3.526332E0,9.417715E1,1.2868497E0,2.6562866E1,5.6089195E1,1.1698801E2,1.0378337E-3,5.1212925E-2,1.8926433E-1,3.6825466E-1,1.0331239E0,3.810343E-1,1.6882664E0,9.243991E-1],"categories":[],"categories_nodes":[],"categories_segments":[],"categories_sizes":[],"default_left":[0,0,0,0,0,0,0,0,0,0,0,0,0,0,0],"id":50,"left_children":[1,3,5,7,9,11,13,-1,-1,-1,-1,-1,-1,-1,-1],"loss_changes":[8.5539544E5,1.9796789E5,8.640194E4,1.5872334E4,2.5948703E4,3.1735938E4,6.838125E4,0E0,0E0,0E0,0E0,0E0,0E0,0E0,0E0],"parents":[2147483647,0,0,1,1,2,2,3,3,4,4,5,5,6,6],"right_children":[2,4,6,8,10,12,14,-1,-1,-1,-1,-1,-1,-1,-1],"split_conditions":[8.6E1,2.2333334E1,7.2875E0,3.6666667E0,4.3666668E1,1.1E0,8.691667E0,1.0378337E-3,5.1212925E-2,1.8926433E-1,3.6825466E-1,1.0331239E0,3.810343E-1,1.6882664E0,9.243991E-1],"split_indices":[93,93,69,93,93,43,54,0,0,0,0,0,0,0,0],"split_type":[0,0,0,0,0,0,0,0,0,0,0,0,0,0,0],"sum_hessian":[3.943E3,3.837E3,1.06E2,3.498E3,3.39E2,4.1E1,6.5E1,2.674E3,8.24E2,1.96E2,1.43E2,1E1,3.1E1,1.9E1,4.6E1],"tree_param":{"num_deleted":"0","num_feature":"125","num_nodes":"15","size_leaf_vector":"1"}},{"base_weights":[5.927876E0,3.343147E0,8.8266716E1,1.2108883E0,2.4847637E1,6.529859E1,1.2936707E2,1.0274593E-3,4.882598E-2,1.7678404E-1,3.4498316E-1,8.5270935E-1,3.77542E-1,2.491837E0,1.1019733E0],"categories":[],"categories_nodes":[],"categories_segments":[],"categories_sizes":[],"default_left":[0,0,0,0,0,1,0,0,0,0,0,0,0,0,0],"id":51,"left_children":[1,3,5,7,9,11,13,-1,-1,-1,-1,-1,-1,-1,-1],"loss_changes":[8.390811E5,1.7535819E5,1.0483219E5,1.416291E4,2.3259953E4,4.0240656E4,6.900844E4,0E0,0E0,0E0,0E0,0E0,0E0,0E0,0E0],"parents":[2147483647,0,0,1,1,2,2,3,3,4,4,5,5,6,6],"right_children":[2,4,6,8,10,12,14,-1,-1,-1,-1,-1,-1,-1,-1],"split_conditions":[7.9666664E1,2.0333334E1,1.55E2,3.6666667E0,4.2E1,1.15E2,1.21E2,1.0274593E-3,4.882598E-2,1.7678404E-1,3.4498316E-1,8.5270935E-1,3.77542E-1,2.491837E0,1.1019733E0],"split_indices":[93,93,93,93,93,96,95,0,0,0,0,0,0,0,0],"split_type":[0,0,0,0,0,0,0,0,0,0,0,0,0,0,0],"sum_hessian":[3.943E3,3.824E3,1.19E2,3.48E3,3.44E2,7.8E1,4.1E1,2.674E3,8.06E2,1.99E2,1.45E2,4.4E1,3.4E1,4E0,3.7E1],"tree_param":{"num_deleted":"0","num_feature":"125","num_nodes":"15","size_leaf_vector":"1"}},{"base_weights":[5.8699656E0,3.455665E0,9.2414024E1,1.5258578E0,2.9156733E1,7.167712E1,1.3482924E2,8.518678E-3,1.15450524E-1,3.27516E-1,1.19979315E-1,3.0584002E-1,8.248583E-1,7.303491E-1,1.7977029E0],"categories":[],"categories_nodes":[],"categories_segments":[],"categories_sizes":[],"default_left":[0,0,0,0,1,0,0,0,0,0,0,0,0,0,0],"id":52,"left_children":[1,3,5,7,9,11,13,-1,-1,-1,-1,-1,-1,-1,-1],"loss_changes":[8.237531E5,1.9031305E5,8.4448875E4,2.4104547E4,1.6138266E4,3.0345375E4,8.129194E4,0E0,0E0,0E0,0E0,0E0,0E0,0E0,0E0],"parents":[2147483647,0,0,1,1,2,2,3,3,4,4,5,5,6,6],"right_children":[2,4,6,8,10,12,14,-1,-1,-1,-1,-1,-1,-1,-1],"split_conditions":[8.6E1,2.9333334E1,1.06125E1,1.2E1,7.1E1,5.3125E0,6.15E1,8.518678E-3,1.15450524E-1,3.27516E-1,1.19979315E-1,3.0584002E-1,8.248583E-1,7.303491E-1,1.7977029E0],"split_indices":[93,93,70,93,96,69,112,0,0,0,0,0,0,0,0],"split_type":[0,0,0,0,0,0,0,0,0,0,0,0,0,0,0],"sum_hessian":[3.943E3,3.837E3,1.06E2,3.57E3,2.67E2,7.3E1,3.3E1,3.346E3,2.24E2,2.2E2,4.7E1,1.6E1,5.7E1,1.5E1,1.8E1],"tree_param":{"num_deleted":"0","num_feature":"125","num_nodes":"15","size_leaf_vector":"1"}},{"base_weights":[5.8123384E0,3.0039573E0,7.884814E1,1.0376109E0,2.1389416E1,4.943732E1,1.1185705E2,-4.0337662E-4,3.9603516E-2,1.5827492E-1,3.128855E-1,7.0923233E-1,2.88206E-1,8.657326E-1,1.5460345E0],"categories":[],"categories_nodes":[],"categories_segments":[],"categories_sizes":[],"default_left":[0,0,0,0,0,1,0,0,0,0,0,0,0,0,0],"id":53,"left_children":[1,3,5,7,9,11,13,-1,-1,-1,-1,-1,-1,-1,-1],"loss_changes":[8.087261E5,1.3731994E5,1.3620969E5,1.0816047E4,1.971114E4,3.2950516E4,6.010925E4,0E0,0E0,0E0,0E0,0E0,0E0,0E0,0E0],"parents":[2147483647,0,0,1,1,2,2,3,3,4,4,5,5,6,6],"right_children":[2,4,6,8,10,12,14,-1,-1,-1,-1,-1,-1,-1,-1],"split_conditions":[6.9E1,1.6E1,1.25333336E2,3E0,4.0333332E1,7.1E1,1.7458333E-1,-4.0337662E-4,3.9603516E-2,1.5827492E-1,3.128855E-1,7.0923233E-1,2.88206E-1,8.657326E-1,1.5460345E0],"split_indices":[93,93,93,93,93,96,66,0,0,0,0,0,0,0,0],"split_type":[0,0,0,0,0,0,0,0,0,0,0,0,0,0,0],"sum_hessian":[3.943E3,3.798E3,1.45E2,3.432E3,3.66E2,7.8E1,6.7E1,2.508E3,9.24E2,2.36E2,1.3E2,3.7E1,4.1E1,4.4E1,2.3E1],"tree_param":{"num_deleted":"0","num_feature":"125","num_nodes":"15","size_leaf_vector":"1"}},{"base_weights":[5.7552085E0,3.3860946E0,9.067955E1,1.4945533E0,2.8577541E1,5.3508495E1,1.1295992E2,6.9377148E-3,9.627829E-2,4.5687845E-1,2.482636E-1,9.9909526E-1,3.5886002E-1,1.6395478E0,8.885658E-1],"categories":[],"categories_nodes":[],"categories_segments":[],"categories_sizes":[],"default_left":[0,0,0,0,0,0,0,0,0,0,0,0,0,0,0],"id":54,"left_children":[1,3,5,7,9,11,13,-1,-1,-1,-1,-1,-1,-1,-1],"loss_changes":[7.932078E5,1.8284052E5,8.25715E4,2.325117E4,1.6067E4,3.0758125E4,6.655519E4,0E0,0E0,0E0,0E0,0E0,0E0,0E0,0E0],"parents":[2147483647,0,0,1,1,2,2,3,3,4,4,5,5,6,6],"right_children":[2,4,6,8,10,12,14,-1,-1,-1,-1,-1,-1,-1,-1],"split_conditions":[8.6E1,2.9333334E1,7.2875E0,9.666667E0,2.6E1,1.1E0,8.691667E0,6.9377148E-3,9.627829E-2,4.5687845E-1,2.482636E-1,9.9909526E-1,3.5886002E-1,1.6395478E0,8.885658E-1],"split_indices":[93,93,69,93,96,43,54,0,0,0,0,0,0,0,0],"split_type":[0,0,0,0,0,0,0,0,0,0,0,0,0,0,0],"sum_hessian":[3.943E3,3.837E3,1.06E2,3.57E3,2.67E2,4.1E1,6.5E1,3.251E3,3.19E2,4.6E1,2.21E2,1E1,3.1E1,1.9E1,4.6E1],"tree_param":{"num_deleted":"0","num_feature":"125","num_nodes":"15","size_leaf_vector":"1"}},{"base_weights":[5.698847E0,2.9428797E0,7.737159E1,1.0156001E0,2.0963064E1,4.8475834E1,1.0980385E2,-4.686942E-4,3.8963787E-2,1.5487401E-1,3.070939E-1,6.9754857E-1,2.8069195E-1,1.5359764E0,8.5519904E-1],"categories":[],"categories_nodes":[],"categories_segments":[],"categories_sizes":[],"default_left":[0,0,0,0,0,1,0,0,0,0,0,0,0,0,0],"id":55,"left_children":[1,3,5,7,9,11,13,-1,-1,-1,-1,-1,-1,-1,-1],"loss_changes":[7.7882175E5,1.3191772E5,1.3150169E5,1.0507703E4,1.9110297E4,3.2346453E4,5.9181375E4,0E0,0E0,0E0,0E0,0E0,0E0,0E0,0E0],"parents":[2147483647,0,0,1,1,2,2,3,3,4,4,5,5,6,6],"right_children":[2,4,6,8,10,12,14,-1,-1,-1,-1,-1,-1,-1,-1],"split_conditions":[6.9E1,1.6E1,1.25333336E2,3E0,4.0333332E1,7.1E1,8.691667E0,-4.686942E-4,3.8963787E-2,1.5487401E-1,3.070939E-1,6.9754857E-1,2.8069195E-1,1.5359764E0,8.5519904E-1],"split_indices":[93,93,93,93,93,96,54,0,0,0,0,0,0,0,0],"split_type":[0,0,0,0,0,0,0,0,0,0,0,0,0,0,0],"sum_hessian":[3.943E3,3.798E3,1.45E2,3.432E3,3.66E2,7.8E1,6.7E1,2.508E3,9.24E2,2.36E2,1.3E2,3.7E1,4.1E1,2.2E1,4.5E1],"tree_param":{"num_deleted":"0","num_feature":"125","num_nodes":"15","size_leaf_vector":"1"}},{"base_weights":[5.6428394E0,3.3179858E0,8.8980644E1,1.2910529E0,2.5905222E1,6.876384E1,1.3036485E2,3.694949E-3,6.4034715E-2,2.050556E-1,3.863231E-1,4.6097374E-1,8.9024246E-1,6.248528E-1,1.6941006E0],"categories":[],"categories_nodes":[],"categories_segments":[],"categories_sizes":[],"default_left":[0,0,0,0,0,0,0,0,0,0,0,0,0,0,0],"id":56,"left_children":[1,3,5,7,9,11,13,-1,-1,-1,-1,-1,-1,-1,-1],"loss_changes":[7.638477E5,1.7568098E5,8.055794E4,1.6595863E4,2.0923969E4,2.9879344E4,7.9527E4,0E0,0E0,0E0,0E0,0E0,0E0,0E0,0E0],"parents":[2147483647,0,0,1,1,2,2,3,3,4,4,5,5,6,6],"right_children":[2,4,6,8,10,12,14,-1,-1,-1,-1,-1,-1,-1,-1],"split_conditions":[8.6E1,2.4333334E1,1.06125E1,5.6666665E0,5.3E1,2.1E1,6E1,3.694949E-3,6.4034715E-2,2.050556E-1,3.863231E-1,4.6097374E-1,8.9024246E-1,6.248528E-1,1.6941006E0],"split_indices":[93,93,70,93,93,2,109,0,0,0,0,0,0,0,0],"split_type":[0,0,0,0,0,0,0,0,0,0,0,0,0,0,0],"sum_hessian":[3.943E3,3.837E3,1.06E2,3.522E3,3.15E2,7.3E1,3.3E1,2.985E3,5.37E2,2.23E2,9.2E1,3.6E1,3.7E1,1.3E1,2E1],"tree_param":{"num_deleted":"0","num_feature":"125","num_nodes":"15","size_leaf_vector":"1"}},{"base_weights":[5.5875087E0,2.8842015E0,7.589078E1,9.9390477E-1,2.05586E1,4.748312E1,1.0777775E2,-5.0094415E-4,3.8246077E-2,1.5182543E-1,3.012781E-1,6.854684E-1,2.729492E-1,8.291928E-1,1.4989663E0],"categories":[],"categories_nodes":[],"categories_segments":[],"categories_sizes":[],"default_left":[0,0,0,0,0,1,0,0,0,0,0,0,0,0,0],"id":57,"left_children":[1,3,5,7,9,11,13,-1,-1,-1,-1,-1,-1,-1,-1],"loss_changes":[7.493436E5,1.269036E5,1.27134125E5,1.014557E4,1.8422766E4,3.172286E4,5.8767438E4,0E0,0E0,0E0,0E0,0E0,0E0,0E0,0E0],"parents":[2147483647,0,0,1,1,2,2,3,3,4,4,5,5,6,6],"right_children":[2,4,6,8,10,12,14,-1,-1,-1,-1,-1,-1,-1,-1],"split_conditions":[6.9E1,1.6E1,1.25333336E2,3E0,4.0333332E1,7.1E1,1.7458333E-1,-5.0094415E-4,3.8246077E-2,1.5182543E-1,3.012781E-1,6.854684E-1,2.729492E-1,8.291928E-1,1.4989663E0],"split_indices":[93,93,93,93,93,96,66,0,0,0,0,0,0,0,0],"split_type":[0,0,0,0,0,0,0,0,0,0,0,0,0,0,0],"sum_hessian":[3.943E3,3.798E3,1.45E2,3.432E3,3.66E2,7.8E1,6.7E1,2.508E3,9.24E2,2.36E2,1.3E2,3.7E1,4.1E1,4.4E1,2.3E1],"tree_param":{"num_deleted":"0","num_feature":"125","num_nodes":"15","size_leaf_vector":"1"}},{"base_weights":[5.5325913E0,3.2512035E0,8.731235E1,1.433013E0,2.7465782E1,5.103175E1,1.0907709E2,6.6131377E-3,9.270927E-2,4.4500747E-1,2.373556E-1,9.17167E-1,3.1700543E-1,8.372725E-1,1.5597095E0],"categories":[],"categories_nodes":[],"categories_segments":[],"categories_sizes":[],"default_left":[0,0,0,0,0,0,0,0,0,0,0,0,0,0,0],"id":58,"left_children":[1,3,5,7,9,11,13,-1,-1,-1,-1,-1,-1,-1,-1],"loss_changes":[7.355536E5,1.6893519E5,7.892481E4,2.159311E4,1.5973594E4,3.0125078E4,6.5398625E4,0E0,0E0,0E0,0E0,0E0,0E0,0E0,0E0],"parents":[2147483647,0,0,1,1,2,2,3,3,4,4,5,5,6,6],"right_children":[2,4,6,8,10,12,14,-1,-1,-1,-1,-1,-1,-1,-1],"split_conditions":[8.6E1,2.9333334E1,7.2875E0,9.666667E0,2.6E1,1.9E1,2.5E0,6.6131377E-3,9.270927E-2,4.4500747E-1,2.373556E-1,9.17167E-1,3.1700543E-1,8.372725E-1,1.5597095E0],"split_indices":[93,93,69,93,96,27,7,0,0,0,0,0,0,0,0],"split_type":[0,0,0,0,0,0,0,0,0,0,0,0,0,0,0],"sum_hessian":[3.943E3,3.837E3,1.06E2,3.57E3,2.67E2,4.1E1,6.5E1,3.251E3,3.19E2,4.6E1,2.21E2,1.2E1,2.9E1,4.4E1,2.1E1],"tree_param":{"num_deleted":"0","num_feature":"125","num_nodes":"15","size_leaf_vector":"1"}},{"base_weights":[5.4783845E0,2.8255584E0,7.446884E1,9.7282624E-1,2.0148731E1,4.652933E1,1.05832855E2,7.000225E-4,4.153434E-2,1.4855573E-1,2.9571095E-1,6.739137E-1,2.6546314E-1,1.4906983E0,8.191364E-1],"categories":[],"categories_nodes":[],"categories_segments":[],"categories_sizes":[],"default_left":[0,0,0,0,0,1,0,0,0,0,0,0,0,0,0],"id":59,"left_children":[1,3,5,7,9,11,13,-1,-1,-1,-1,-1,-1,-1,-1],"loss_changes":[7.216192E5,1.21910055E5,1.2301475E5,9.857668E3,1.7864484E4,3.1145047E4,5.8114375E4,0E0,0E0,0E0,0E0,0E0,0E0,0E0,0E0],"parents":[2147483647,0,0,1,1,2,2,3,3,4,4,5,5,6,6],"right_children":[2,4,6,8,10,12,14,-1,-1,-1,-1,-1,-1,-1,-1],"split_conditions":[6.9E1,1.6E1,1.25333336E2,3.6666667E0,4.0333332E1,7.1E1,8.691667E0,7.000225E-4,4.153434E-2,1.4855573E-1,2.9571095E-1,6.739137E-1,2.6546314E-1,1.4906983E0,8.191364E-1],"split_indices":[93,93,93,93,93,96,54,0,0,0,0,0,0,0,0],"split_type":[0,0,0,0,0,0,0,0,0,0,0,0,0,0,0],"sum_hessian":[3.943E3,3.798E3,1.45E2,3.432E3,3.66E2,7.8E1,6.7E1,2.674E3,7.58E2,2.36E2,1.3E2,3.7E1,4.1E1,2.2E1,4.5E1],"tree_param":{"num_deleted":"0","num_feature":"125","num_nodes":"15","size_leaf_vector":"1"}},{"base_weights":[5.4245477E0,3.1858017E0,8.567578E1,1.4036293E0,2.6920698E1,6.5928154E1,1.2613605E2,7.7750683E-3,1.071131E-1,3.0487317E-1,9.938543E-2,4.3814948E-1,8.572448E-1,5.964331E-1,1.6445806E0],"categories":[],"categories_nodes":[],"categories_segments":[],"categories_sizes":[],"default_left":[0,0,0,0,1,0,0,0,0,0,0,0,0,0,0],"id":60,"left_children":[1,3,5,7,9,11,13,-1,-1,-1,-1,-1,-1,-1,-1],"loss_changes":[7.083145E5,1.6230838E5,7.71765E4,2.0802562E4,1.5929469E4,2.8638281E4,7.682781E4,0E0,0E0,0E0,0E0,0E0,0E0,0E0,0E0],"parents":[2147483647,0,0,1,1,2,2,3,3,4,4,5,5,6,6],"right_children":[2,4,6,8,10,12,14,-1,-1,-1,-1,-1,-1,-1,-1],"split_conditions":[8.6E1,2.9333334E1,1.06125E1,1.2E1,7.1E1,2.1E1,6E1,7.7750683E-3,1.071131E-1,3.0487317E-1,9.938543E-2,4.3814948E-1,8.572448E-1,5.964331E-1,1.6445806E0],"split_indices":[93,93,70,93,96,2,109,0,0,0,0,0,0,0,0],"split_type":[0,0,0,0,0,0,0,0,0,0,0,0,0,0,0],"sum_hessian":[3.943E3,3.837E3,1.06E2,3.57E3,2.67E2,7.3E1,3.3E1,3.346E3,2.24E2,2.2E2,4.7E1,3.6E1,3.7E1,1.3E1,2E1],"tree_param":{"num_deleted":"0","num_feature":"125","num_nodes":"15","size_leaf_vector":"1"}},{"base_weights":[5.3713307E0,2.7677011E0,7.3082405E1,9.52849E-1,1.973669E1,5.416306E1,1.18640724E2,-2.2632899E-3,3.3404943E-2,1.4520076E-1,2.9023722E-1,7.061247E-1,3.465645E-1,2.3789737E0,9.9826926E-1],"categories":[],"categories_nodes":[],"categories_segments":[],"categories_sizes":[],"default_left":[0,0,0,0,0,1,0,0,0,0,0,0,0,0,0],"id":61,"left_children":[1,3,5,7,9,11,13,-1,-1,-1,-1,-1,-1,-1,-1],"loss_changes":[6.9510344E5,1.16975984E5,1.19416375E5,9.666225E3,1.7358578E4,3.1244406E4,7.048556E4,0E0,0E0,0E0,0E0,0E0,0E0,0E0,0E0],"parents":[2147483647,0,0,1,1,2,2,3,3,4,4,5,5,6,6],"right_children":[2,4,6,8,10,12,14,-1,-1,-1,-1,-1,-1,-1,-1],"split_conditions":[6.9E1,1.6E1,1.55E2,2.3333333E0,4.0333332E1,9.8E1,1.21E2,-2.2632899E-3,3.3404943E-2,1.4520076E-1,2.9023722E-1,7.061247E-1,3.465645E-1,2.3789737E0,9.9826926E-1],"split_indices":[93,93,93,93,93,96,95,0,0,0,0,0,0,0,0],"split_type":[0,0,0,0,0,0,0,0,0,0,0,0,0,0,0],"sum_hessian":[3.943E3,3.798E3,1.45E2,3.432E3,3.66E2,1.04E2,4.1E1,2.298E3,1.134E3,2.36E2,1.3E2,5.5E1,4.9E1,4E0,3.7E1],"tree_param":{"num_deleted":"0","num_feature":"125","num_nodes":"15","size_leaf_vector":"1"}},{"base_weights":[5.3188586E0,3.1207538E0,8.411333E1,1.3748624E0,2.637246E1,4.866299E1,1.0539819E2,4.9386313E-3,7.77524E-2,4.3276718E-1,2.2674835E-1,9.395276E-1,3.1573913E-1,8.051269E-1,1.5150952E0],"categories":[],"categories_nodes":[],"categories_segments":[],"categories_sizes":[],"default_left":[0,0,0,0,0,0,0,0,0,0,0,0,0,0,0],"id":62,"left_children":[1,3,5,7,9,11,13,-1,-1,-1,-1,-1,-1,-1,-1],"loss_changes":[6.828325E5,1.5576719E5,7.560844E4,2.0132055E4,1.5770203E4,2.9539875E4,6.3536812E4,0E0,0E0,0E0,0E0,0E0,0E0,0E0,0E0],"parents":[2147483647,0,0,1,1,2,2,3,3,4,4,5,5,6,6],"right_children":[2,4,6,8,10,12,14,-1,-1,-1,-1,-1,-1,-1,-1],"split_conditions":[8.6E1,2.9333334E1,7.2875E0,7.6666665E0,2.6E1,1.1E0,2.5E0,4.9386313E-3,7.77524E-2,4.3276718E-1,2.2674835E-1,9.395276E-1,3.1573913E-1,8.051269E-1,1.5150952E0],"split_indices":[93,93,69,93,96,43,7,0,0,0,0,0,0,0,0],"split_type":[0,0,0,0,0,0,0,0,0,0,0,0,0,0,0],"sum_hessian":[3.943E3,3.837E3,1.06E2,3.57E3,2.67E2,4.1E1,6.5E1,3.139E3,4.31E2,4.6E1,2.21E2,1E1,3.1E1,4.4E1,2.1E1],"tree_param":{"num_deleted":"0","num_feature":"125","num_nodes":"15","size_leaf_vector":"1"}},{"base_weights":[5.266765E0,2.9570546E0,7.8844894E1,1.0656816E0,2.2032162E1,5.7766716E1,1.16614685E2,5.38425E-4,4.4183508E-2,1.6034998E-1,3.1706652E-1,7.7094555E-1,3.1266153E-1,2.3518121E0,9.794501E-1],"categories":[],"categories_nodes":[],"categories_segments":[],"categories_sizes":[],"default_left":[0,0,0,0,0,1,0,0,0,0,0,0,0,0,0],"id":63,"left_children":[1,3,5,7,9,11,13,-1,-1,-1,-1,-1,-1,-1,-1],"loss_changes":[6.700266E5,1.3797542E5,8.879775E4,1.1808573E4,1.9508312E4,3.805325E4,6.993631E4,0E0,0E0,0E0,0E0,0E0,0E0,0E0,0E0],"parents":[2147483647,0,0,1,1,2,2,3,3,4,4,5,5,6,6],"right_children":[2,4,6,8,10,12,14,-1,-1,-1,-1,-1,-1,-1,-1],"split_conditions":[7.9666664E1,2.0333334E1,1.55E2,3.6666667E0,4.3666668E1,1.15E2,1.21E2,5.38425E-4,4.4183508E-2,1.6034998E-1,3.1706652E-1,7.7094555E-1,3.1266153E-1,2.3518121E0,9.794501E-1],"split_indices":[93,93,93,93,93,96,95,0,0,0,0,0,0,0,0],"split_type":[0,0,0,0,0,0,0,0,0,0,0,0,0,0,0],"sum_hessian":[3.943E3,3.824E3,1.19E2,3.48E3,3.44E2,7.8E1,4.1E1,2.674E3,8.06E2,2.14E2,1.3E2,4.4E1,3.4E1,4E0,3.7E1],"tree_param":{"num_deleted":"0","num_feature":"125","num_nodes":"15","size_leaf_vector":"1"}},{"base_weights":[5.215349E0,3.0582716E0,8.253916E1,1.1104633E0,2.3094517E1,7.034422E1,1.4750137E2,2.05428E-3,5.13002E-2,1.7163032E-1,3.3825874E-1,1.1455421E0,5.565459E-1,4.315592E-1,2.2386382E0],"categories":[],"categories_nodes":[],"categories_segments":[],"categories_sizes":[],"default_left":[0,0,0,0,0,0,0,0,0,0,0,0,0,0,0],"id":64,"left_children":[1,3,5,7,9,11,13,-1,-1,-1,-1,-1,-1,-1,-1],"loss_changes":[6.5758106E5,1.4975908E5,7.4390625E4,1.272775E4,2.1061422E4,5.337197E4,1.1782816E5,0E0,0E0,0E0,0E0,0E0,0E0,0E0,0E0],"parents":[2147483647,0,0,1,1,2,2,3,3,4,4,5,5,6,6],"right_children":[2,4,6,8,10,12,14,-1,-1,-1,-1,-1,-1,-1,-1],"split_conditions":[8.6E1,2.2333334E1,2.2633333E2,4.6666665E0,4.8333332E1,7.7E1,8.495833E0,2.05428E-3,5.13002E-2,1.7163032E-1,3.3825874E-1,1.1455421E0,5.565459E-1,4.315592E-1,2.2386382E0],"split_indices":[93,93,93,93,93,96,55,0,0,0,0,0,0,0,0],"split_type":[0,0,0,0,0,0,0,0,0,0,0,0,0,0,0],"sum_hessian":[3.943E3,3.837E3,1.06E2,3.498E3,3.39E2,9.1E1,1.5E1,2.856E3,6.42E2,2.2E2,1.19E2,2.1E1,7E1,7E0,8E0],"tree_param":{"num_deleted":"0","num_feature":"125","num_nodes":"15","size_leaf_vector":"1"}},{"base_weights":[5.164447E0,3.0278356E0,8.175463E1,1.3323938E0,2.5607668E1,4.6843403E1,1.0273217E2,6.684719E-3,9.382428E-2,2.916427E-1,8.6989895E-2,8.666661E-1,2.802523E-1,1.5181521E0,7.965997E-1],"categories":[],"categories_nodes":[],"categories_segments":[],"categories_sizes":[],"default_left":[0,0,0,0,1,0,0,0,0,0,0,0,0,0,0],"id":65,"left_children":[1,3,5,7,9,11,13,-1,-1,-1,-1,-1,-1,-1,-1],"loss_changes":[6.451623E5,1.4689525E5,7.354931E4,1.9079271E4,1.5863141E4,2.9045945E4,6.2648375E4,0E0,0E0,0E0,0E0,0E0,0E0,0E0,0E0],"parents":[2147483647,0,0,1,1,2,2,3,3,4,4,5,5,6,6],"right_children":[2,4,6,8,10,12,14,-1,-1,-1,-1,-1,-1,-1,-1],"split_conditions":[8.6E1,2.9333334E1,7.2875E0,1.0666667E1,7.1E1,1.9E1,8.691667E0,6.684719E-3,9.382428E-2,2.916427E-1,8.6989895E-2,8.666661E-1,2.802523E-1,1.5181521E0,7.965997E-1],"split_indices":[93,93,69,93,96,27,54,0,0,0,0,0,0,0,0],"split_type":[0,0,0,0,0,0,0,0,0,0,0,0,0,0,0],"sum_hessian":[3.943E3,3.837E3,1.06E2,3.57E3,2.67E2,4.1E1,6.5E1,3.299E3,2.71E2,2.2E2,4.7E1,1.2E1,2.9E1,1.9E1,4.6E1],"tree_param":{"num_deleted":"0","num_feature":"125","num_nodes":"15","size_leaf_vector":"1"}},{"base_weights":[5.1138015E0,2.6283946E0,6.975043E1,9.0162784E-1,1.8773796E1,4.317413E1,9.960009E1,-2.3827648E-3,3.209767E-2,1.3765076E-1,2.769206E-1,6.352379E-1,2.373458E-1,7.5528604E-1,1.4058414E0],"categories":[],"categories_nodes":[],"categories_segments":[],"categories_sizes":[],"default_left":[0,0,0,0,0,1,0,0,0,0,0,0,0,0,0],"id":66,"left_children":[1,3,5,7,9,11,13,-1,-1,-1,-1,-1,-1,-1,-1],"loss_changes":[6.334137E5,1.0589669E5,1.1152069E5,9.0331875E3,1.6012375E4,2.9743766E4,5.6467062E4,0E0,0E0,0E0,0E0,0E0,0E0,0E0,0E0],"parents":[2147483647,0,0,1,1,2,2,3,3,4,4,5,5,6,6],"right_children":[2,4,6,8,10,12,14,-1,-1,-1,-1,-1,-1,-1,-1],"split_conditions":[6.9E1,1.6E1,1.25333336E2,2.3333333E0,4.0333332E1,7.1E1,1.7458333E-1,-2.3827648E-3,3.209767E-2,1.3765076E-1,2.769206E-1,6.352379E-1,2.373458E-1,7.5528604E-1,1.4058414E0],"split_indices":[93,93,93,93,93,96,66,0,0,0,0,0,0,0,0],"split_type":[0,0,0,0,0,0,0,0,0,0,0,0,0,0,0],"sum_hessian":[3.943E3,3.798E3,1.45E2,3.432E3,3.66E2,7.8E1,6.7E1,2.298E3,1.134E3,2.36E2,1.3E2,3.7E1,4.1E1,4.4E1,2.3E1],"tree_param":{"num_deleted":"0","num_feature":"125","num_nodes":"15","size_leaf_vector":"1"}},{"base_weights":[5.0635457E0,2.1694047E0,5.9517754E1,7.954781E-1,1.5169595E1,3.8915104E1,9.863587E1,-2.3589474E-3,2.9681003E-2,1.1435892E-1,2.155215E-1,5.6087536E-1,2.0892861E-1,1.4076059E0,7.542926E-1],"categories":[],"categories_nodes":[],"categories_segments":[],"categories_sizes":[],"default_left":[0,0,0,0,0,0,0,0,0,0,0,0,0,0,0],"id":67,"left_children":[1,3,5,7,9,11,13,-1,-1,-1,-1,-1,-1,-1,-1],"loss_changes":[6.21438E5,6.689639E4,1.5654306E5,7.594715E3,8.284875E3,3.9680297E4,5.5857438E4,0E0,0E0,0E0,0E0,0E0,0E0,0E0,0E0],"parents":[2147483647,0,0,1,1,2,2,3,3,4,4,5,5,6,6],"right_children":[2,4,6,8,10,12,14,-1,-1,-1,-1,-1,-1,-1,-1],"split_conditions":[5.3E1,1.3333333E1,1.25333336E2,2.3333333E0,3.3333332E1,7.1E1,8.691667E0,-2.3589474E-3,2.9681003E-2,1.1435892E-1,2.155215E-1,5.6087536E-1,2.0892861E-1,1.4076059E0,7.542926E-1],"split_indices":[93,93,93,93,93,96,54,0,0,0,0,0,0,0,0],"split_type":[0,0,0,0,0,0,0,0,0,0,0,0,0,0,0],"sum_hessian":[3.943E3,3.745E3,1.98E2,3.388E3,3.57E2,1.31E2,6.7E1,2.298E3,1.09E3,2.27E2,1.3E2,6.6E1,6.5E1,2.2E1,4.5E1],"tree_param":{"num_deleted":"0","num_feature":"125","num_nodes":"15","size_leaf_vector":"1"}},{"base_weights":[5.013744E0,2.8094816E0,7.523282E1,1.0114019E0,2.0943705E1,5.4848385E1,1.1178372E2,3.9958363E-4,4.230237E-2,1.5208016E-1,3.019736E-1,7.3828024E-1,2.8878886E-1,2.294833E0,9.335526E-1],"categories":[],"categories_nodes":[],"categories_segments":[],"categories_sizes":[],"default_left":[0,0,0,0,0,1,0,0,0,0,0,0,0,0,0],"id":68,"left_children":[1,3,5,7,9,11,13,-1,-1,-1,-1,-1,-1,-1,-1],"loss_changes":[6.1024594E5,1.2469975E5,8.327719E4,1.0884628E4,1.7852016E4,3.680639E4,6.967544E4,0E0,0E0,0E0,0E0,0E0,0E0,0E0,0E0],"parents":[2147483647,0,0,1,1,2,2,3,3,4,4,5,5,6,6],"right_children":[2,4,6,8,10,12,14,-1,-1,-1,-1,-1,-1,-1,-1],"split_conditions":[7.9666664E1,2.0333334E1,1.55E2,3.6666667E0,4.3666668E1,1.15E2,1.21E2,3.9958363E-4,4.230237E-2,1.5208016E-1,3.019736E-1,7.3828024E-1,2.8878886E-1,2.294833E0,9.335526E-1],"split_indices":[93,93,93,93,93,96,95,0,0,0,0,0,0,0,0],"split_type":[0,0,0,0,0,0,0,0,0,0,0,0,0,0,0],"sum_hessian":[3.943E3,3.824E3,1.19E2,3.48E3,3.44E2,7.8E1,4.1E1,2.674E3,8.06E2,2.14E2,1.3E2,4.4E1,3.4E1,4E0,3.7E1],"tree_param":{"num_deleted":"0","num_feature":"125","num_nodes":"15","size_leaf_vector":"1"}},{"base_weights":[4.9648113E0,2.9059377E0,7.876848E1,1.2780688E0,2.458584E1,6.689125E1,1.4213951E2,4.4906884E-3,7.300711E-2,4.1407618E-1,2.0913725E-1,1.1034459E0,5.248471E-1,3.9093468E-1,2.1794271E0],"categories":[],"categories_nodes":[],"categories_segments":[],"categories_sizes":[],"default_left":[0,0,0,0,0,0,0,0,0,0,0,0,0,0,0],"id":69,"left_children":[1,3,5,7,9,11,13,-1,-1,-1,-1,-1,-1,-1,-1],"loss_changes":[5.9907144E5,1.354194E5,7.1028125E4,1.7825902E4,1.5688781E4,5.180172E4,1.1645941E5,0E0,0E0,0E0,0E0,0E0,0E0,0E0,0E0],"parents":[2147483647,0,0,1,1,2,2,3,3,4,4,5,5,6,6],"right_children":[2,4,6,8,10,12,14,-1,-1,-1,-1,-1,-1,-1,-1],"split_conditions":[8.6E1,2.9333334E1,2.2633333E2,7.6666665E0,2.6E1,7.7E1,8.495833E0,4.4906884E-3,7.300711E-2,4.1407618E-1,2.0913725E-1,1.1034459E0,5.248471E-1,3.9093468E-1,2.1794271E0],"split_indices":[93,93,93,93,96,96,55,0,0,0,0,0,0,0,0],"split_type":[0,0,0,0,0,0,0,0,0,0,0,0,0,0,0],"sum_hessian":[3.943E3,3.837E3,1.06E2,3.57E3,2.67E2,9.1E1,1.5E1,3.139E3,4.31E2,4.6E1,2.21E2,2.1E1,7E1,7E0,8E0],"tree_param":{"num_deleted":"0","num_feature":"125","num_nodes":"15","size_leaf_vector":"1"}},{"base_weights":[4.9164057E0,2.1016624E0,5.7876762E1,7.6878035E-1,1.4713495E1,3.775313E1,9.608915E1,-2.3842494E-3,2.8905E-2,1.11027785E-1,2.0885478E-1,5.4720116E-1,1.9957058E-1,7.2417754E-1,1.3646928E0],"categories":[],"categories_nodes":[],"categories_segments":[],"categories_sizes":[],"default_left":[0,0,0,0,0,0,0,0,0,0,0,0,0,0,0],"id":70,"left_children":[1,3,5,7,9,11,13,-1,-1,-1,-1,-1,-1,-1,-1],"loss_changes":[5.878096E5,6.295927E4,1.4939781E5,7.243007E3,7.746242E3,3.876478E4,5.511525E4,0E0,0E0,0E0,0E0,0E0,0E0,0E0,0E0],"parents":[2147483647,0,0,1,1,2,2,3,3,4,4,5,5,6,6],"right_children":[2,4,6,8,10,12,14,-1,-1,-1,-1,-1,-1,-1,-1],"split_conditions":[5.3E1,1.3333333E1,1.25333336E2,2.3333333E0,3.3333332E1,7.1E1,1.7458333E-1,-2.3842494E-3,2.8905E-2,1.11027785E-1,2.0885478E-1,5.4720116E-1,1.9957058E-1,7.2417754E-1,1.3646928E0],"split_indices":[93,93,93,93,93,96,66,0,0,0,0,0,0,0,0],"split_type":[0,0,0,0,0,0,0,0,0,0,0,0,0,0,0],"sum_hessian":[3.943E3,3.745E3,1.98E2,3.388E3,3.57E2,1.31E2,6.7E1,2.298E3,1.09E3,2.27E2,1.3E2,6.6E1,6.5E1,4.4E1,2.3E1],"tree_param":{"num_deleted":"0","num_feature":"125","num_nodes":"15","size_leaf_vector":"1"}},{"base_weights":[4.868048E0,2.8469634E0,7.731717E1,1.0317286E0,2.1519491E1,4.334924E1,9.776166E1,1.7715445E-3,4.8271973E-2,1.592873E-1,3.1636477E-1,8.239426E-1,2.4984752E-1,7.286091E-1,1.4114735E0],"categories":[],"categories_nodes":[],"categories_segments":[],"categories_sizes":[],"default_left":[0,0,0,0,0,0,0,0,0,0,0,0,0,0,0],"id":71,"left_children":[1,3,5,7,9,11,13,-1,-1,-1,-1,-1,-1,-1,-1],"loss_changes":[5.772833E5,1.3006688E5,7.006906E4,1.1348186E4,1.8727047E4,2.8057156E4,6.1018062E4,0E0,0E0,0E0,0E0,0E0,0E0,0E0,0E0],"parents":[2147483647,0,0,1,1,2,2,3,3,4,4,5,5,6,6],"right_children":[2,4,6,8,10,12,14,-1,-1,-1,-1,-1,-1,-1,-1],"split_conditions":[8.6E1,2.2333334E1,7.2875E0,4.6666665E0,4.8333332E1,1.9E1,2.4E0,1.7715445E-3,4.8271973E-2,1.592873E-1,3.1636477E-1,8.239426E-1,2.4984752E-1,7.286091E-1,1.4114735E0],"split_indices":[93,93,69,93,93,27,7,0,0,0,0,0,0,0,0],"split_type":[0,0,0,0,0,0,0,0,0,0,0,0,0,0,0],"sum_hessian":[3.943E3,3.837E3,1.06E2,3.498E3,3.39E2,4.1E1,6.5E1,2.856E3,6.42E2,2.2E2,1.19E2,1.2E1,2.9E1,4.3E1,2.2E1],"tree_param":{"num_deleted":"0","num_feature":"125","num_nodes":"15","size_leaf_vector":"1"}},{"base_weights":[4.820316E0,2.8186307E0,7.6574036E1,9.695807E-1,2.0789927E1,5.8780315E1,1.16441185E2,3.128432E-4,4.0785935E-2,1.4582112E-1,2.9914165E-1,9.5466053E-1,4.6591777E-1,5.1791817E-1,1.5794908E0],"categories":[],"categories_nodes":[],"categories_segments":[],"categories_sizes":[],"default_left":[0,0,0,0,0,0,0,0,0,0,0,0,0,0,0],"id":72,"left_children":[1,3,5,7,9,11,13,-1,-1,-1,-1,-1,-1,-1,-1],"loss_changes":[5.6625444E5,1.275159E5,6.905975E4,1.015456E4,1.9841484E4,2.9535125E4,7.769022E4,0E0,0E0,0E0,0E0,0E0,0E0,0E0,0E0],"parents":[2147483647,0,0,1,1,2,2,3,3,4,4,5,5,6,6],"right_children":[2,4,6,8,10,12,14,-1,-1,-1,-1,-1,-1,-1,-1],"split_conditions":[8.6E1,2.0333334E1,1.0975E1,3.6666667E0,4.3666668E1,7.7E1,6E1,3.128432E-4,4.0785935E-2,1.4582112E-1,2.9914165E-1,9.5466053E-1,4.6591777E-1,5.1791817E-1,1.5794908E0],"split_indices":[93,93,70,93,93,96,109,0,0,0,0,0,0,0,0],"split_type":[0,0,0,0,0,0,0,0,0,0,0,0,0,0,0],"sum_hessian":[3.943E3,3.837E3,1.06E2,3.48E3,3.57E2,7.5E1,3.1E1,2.674E3,8.06E2,2.14E2,1.43E2,1.7E1,5.8E1,1.3E1,1.8E1],"tree_param":{"num_deleted":"0","num_feature":"125","num_nodes":"15","size_leaf_vector":"1"}},{"base_weights":[4.773128E0,2.4452076E0,6.53142E1,8.354942E-1,1.7496164E1,4.7964302E1,1.0713384E2,-2.3812528E-3,3.0094286E-2,1.2825897E-1,2.5811866E-1,6.373266E-1,2.934446E-1,2.2382438E0,8.896051E-1],"categories":[],"categories_nodes":[],"categories_segments":[],"categories_sizes":[],"default_left":[0,0,0,0,0,1,0,0,0,0,0,0,0,0,0],"id":73,"left_children":[1,3,5,7,9,11,13,-1,-1,-1,-1,-1,-1,-1,-1],"loss_changes":[5.556871E5,9.202651E4,1.0079406E5,8.013264E3,1.3921961E4,2.8958219E4,6.915603E4,0E0,0E0,0E0,0E0,0E0,0E0,0E0,0E0],"parents":[2147483647,0,0,1,1,2,2,3,3,4,4,5,5,6,6],"right_children":[2,4,6,8,10,12,14,-1,-1,-1,-1,-1,-1,-1,-1],"split_conditions":[6.9E1,1.6E1,1.55E2,2.3333333E0,4.0333332E1,9.8E1,1.21E2,-2.3812528E-3,3.0094286E-2,1.2825897E-1,2.5811866E-1,6.373266E-1,2.934446E-1,2.2382438E0,8.896051E-1],"split_indices":[93,93,93,93,93,96,95,0,0,0,0,0,0,0,0],"split_type":[0,0,0,0,0,0,0,0,0,0,0,0,0,0,0],"sum_hessian":[3.943E3,3.798E3,1.45E2,3.432E3,3.66E2,1.04E2,4.1E1,2.298E3,1.134E3,2.36E2,1.3E2,5.5E1,4.9E1,4E0,3.7E1],"tree_param":{"num_deleted":"0","num_feature":"125","num_nodes":"15","size_leaf_vector":"1"}},{"base_weights":[4.726531E0,2.7610743E0,7.518163E1,1.2129598E0,2.337882E1,1.1868076E2,5.9017162E1,5.4207803E-3,8.027005E-2,2.763352E-1,9.385182E-2,6.499826E-1,2.0880945E0,3.3602688E-1,8.121115E-1],"categories":[],"categories_nodes":[],"categories_segments":[],"categories_sizes":[],"default_left":[0,0,0,0,1,0,0,0,0,0,0,0,0,0,0],"id":74,"left_children":[1,3,5,7,9,11,13,-1,-1,-1,-1,-1,-1,-1,-1],"loss_changes":[5.4594356E5,1.2247534E5,6.823175E4,1.6320186E4,1.5697031E4,1.2190109E5,4.239497E4,0E0,0E0,0E0,0E0,0E0,0E0,0E0,0E0],"parents":[2147483647,0,0,1,1,2,2,3,3,4,4,5,5,6,6],"right_children":[2,4,6,8,10,12,14,-1,-1,-1,-1,-1,-1,-1,-1],"split_conditions":[8.6E1,2.9333334E1,8.8875E0,9.666667E0,6.5E1,1.7125E-1,2.1E1,5.4207803E-3,8.027005E-2,2.763352E-1,9.385182E-2,6.499826E-1,2.0880945E0,3.3602688E-1,8.121115E-1],"split_indices":[93,93,54,93,96,66,2,0,0,0,0,0,0,0,0],"split_type":[0,0,0,0,0,0,0,0,0,0,0,0,0,0,0],"sum_hessian":[3.943E3,3.837E3,1.06E2,3.57E3,2.67E2,2.7E1,7.9E1,3.251E3,3.19E2,2.04E2,6.3E1,1.8E1,9E0,3.8E1,4.1E1],"tree_param":{"num_deleted":"0","num_feature":"125","num_nodes":"15","size_leaf_vector":"1"}},{"base_weights":[4.6803665E0,2.6150854E0,7.04722E1,9.3955314E-1,1.9513384E1,5.5357483E1,1.1599225E2,2.33684E-4,3.9753087E-2,1.4109114E-1,2.8234026E-1,8.0254537E-1,3.5522765E-1,1.6401286E0,6.023881E-1],"categories":[],"categories_nodes":[],"categories_segments":[],"categories_sizes":[],"default_left":[0,0,0,0,0,1,0,0,0,0,0,0,0,0,0],"id":75,"left_children":[1,3,5,7,9,11,13,-1,-1,-1,-1,-1,-1,-1,-1],"loss_changes":[5.35721E5,1.0828136E5,7.614156E4,9.681657E3,1.5861047E4,4.2581156E4,6.776222E4,0E0,0E0,0E0,0E0,0E0,0E0,0E0,0E0],"parents":[2147483647,0,0,1,1,2,2,3,3,4,4,5,5,6,6],"right_children":[2,4,6,8,10,12,14,-1,-1,-1,-1,-1,-1,-1,-1],"split_conditions":[7.9666664E1,2.0333334E1,1.7966667E2,3.6666667E0,4.3666668E1,9.8E1,2.0833334E-2,2.33684E-4,3.9753087E-2,1.4109114E-1,2.8234026E-1,8.0254537E-1,3.5522765E-1,1.6401286E0,6.023881E-1],"split_indices":[93,93,93,93,93,96,17,0,0,0,0,0,0,0,0],"split_type":[0,0,0,0,0,0,0,0,0,0,0,0,0,0,0],"sum_hessian":[3.943E3,3.824E3,1.19E2,3.48E3,3.44E2,9.1E1,2.8E1,2.674E3,8.06E2,2.14E2,1.3E2,3.9E1,5.2E1,1.4E1,1.4E1],"tree_param":{"num_deleted":"0","num_feature":"125","num_nodes":"15","size_leaf_vector":"1"}},{"base_weights":[4.6345425E0,2.7056217E0,7.377999E1,1.1881506E0,2.291526E1,5.9222538E1,1.2165692E2,4.0849173E-3,6.852366E-2,3.9656904E-1,1.9267637E-1,3.0774617E-1,7.795163E-1,1.7897735E0,7.533284E-1],"categories":[],"categories_nodes":[],"categories_segments":[],"categories_sizes":[],"default_left":[0,0,0,0,0,0,0,0,0,0,0,0,0,0,0],"id":76,"left_children":[1,3,5,7,9,11,13,-1,-1,-1,-1,-1,-1,-1,-1],"loss_changes":[5.258357E5,1.176748E5,6.737056E4,1.5767293E4,1.5601922E4,4.2356562E4,5.024472E4,0E0,0E0,0E0,0E0,0E0,0E0,0E0,0E0],"parents":[2147483647,0,0,1,1,2,2,3,3,4,4,5,5,6,6],"right_children":[2,4,6,8,10,12,14,-1,-1,-1,-1,-1,-1,-1,-1],"split_conditions":[8.6E1,2.9333334E1,1.1691667E1,7.6666665E0,2.6E1,7.7E1,1.1704166E1,4.0849173E-3,6.852366E-2,3.9656904E-1,1.9267637E-1,3.0774617E-1,7.795163E-1,1.7897735E0,7.533284E-1],"split_indices":[93,93,69,93,96,98,16,0,0,0,0,0,0,0,0],"split_type":[0,0,0,0,0,0,0,0,0,0,0,0,0,0,0],"sum_hessian":[3.943E3,3.837E3,1.06E2,3.57E3,2.67E2,8.3E1,2.3E1,3.139E3,4.31E2,4.6E1,2.21E2,3.4E1,4.9E1,9E0,1.4E1],"tree_param":{"num_deleted":"0","num_feature":"125","num_nodes":"15","size_leaf_vector":"1"}},{"base_weights":[4.5892854E0,1.9508153E0,5.42331E1,7.0930266E-1,1.3698121E1,3.5164318E1,9.045142E1,-2.4548024E-3,2.7206102E-2,1.4874265E-1,-4.9409E-2,5.190157E-1,1.764067E-1,1.3122196E0,6.8099815E-1],"categories":[],"categories_nodes":[],"categories_segments":[],"categories_sizes":[],"default_left":[0,0,0,0,1,0,0,0,0,0,0,0,0,0,0],"id":77,"left_children":[1,3,5,7,9,11,13,-1,-1,-1,-1,-1,-1,-1,-1],"loss_changes":[5.1649397E5,5.4623555E4,1.3425662E5,6.5087744E3,7.921633E3,3.779972E4,5.3031312E4,0E0,0E0,0E0,0E0,0E0,0E0,0E0,0E0],"parents":[2147483647,0,0,1,1,2,2,3,3,4,4,5,5,6,6],"right_children":[2,4,6,8,10,12,14,-1,-1,-1,-1,-1,-1,-1,-1],"split_conditions":[5.3E1,1.3333333E1,1.25333336E2,2.3333333E0,6.6E1,7.1E1,8.691667E0,-2.4548024E-3,2.7206102E-2,1.4874265E-1,-4.9409E-2,5.190157E-1,1.764067E-1,1.3122196E0,6.8099815E-1],"split_indices":[93,93,93,93,96,96,54,0,0,0,0,0,0,0,0],"split_type":[0,0,0,0,0,0,0,0,0,0,0,0,0,0,0],"sum_hessian":[3.943E3,3.745E3,1.98E2,3.388E3,3.57E2,1.31E2,6.7E1,2.298E3,1.09E3,3.36E2,2.1E1,6.6E1,6.5E1,2.2E1,4.5E1],"tree_param":{"num_deleted":"0","num_feature":"125","num_nodes":"15","size_leaf_vector":"1"}},{"base_weights":[4.5441055E0,2.3212273E0,6.2353493E1,7.903376E-1,1.6635185E1,4.564566E1,1.02638466E2,-2.4302653E-3,2.8827727E-2,1.2131106E-1,2.4656801E-1,6.116519E-1,2.7350873E-1,2.1786957E0,8.4775466E-1],"categories":[],"categories_nodes":[],"categories_segments":[],"categories_sizes":[],"default_left":[0,0,0,0,0,1,0,0,0,0,0,0,0,0,0],"id":78,"left_children":[1,3,5,7,9,11,13,-1,-1,-1,-1,-1,-1,-1,-1],"loss_changes":[5.0667206E5,8.323469E4,9.3583875E4,7.4236953E3,1.2960602E4,2.8139375E4,6.798166E4,0E0,0E0,0E0,0E0,0E0,0E0,0E0,0E0],"parents":[2147483647,0,0,1,1,2,2,3,3,4,4,5,5,6,6],"right_children":[2,4,6,8,10,12,14,-1,-1,-1,-1,-1,-1,-1,-1],"split_conditions":[6.9E1,1.6E1,1.55E2,2.3333333E0,4.0333332E1,9.8E1,1.21E2,-2.4302653E-3,2.8827727E-2,1.2131106E-1,2.4656801E-1,6.116519E-1,2.7350873E-1,2.1786957E0,8.4775466E-1],"split_indices":[93,93,93,93,93,96,95,0,0,0,0,0,0,0,0],"split_type":[0,0,0,0,0,0,0,0,0,0,0,0,0,0,0],"sum_hessian":[3.943E3,3.798E3,1.45E2,3.432E3,3.66E2,1.04E2,4.1E1,2.298E3,1.134E3,2.36E2,1.3E2,5.5E1,4.9E1,4E0,3.7E1],"tree_param":{"num_deleted":"0","num_feature":"125","num_nodes":"15","size_leaf_vector":"1"}},{"base_weights":[4.4997563E0,2.622649E0,7.1787964E1,1.1497055E0,2.2239285E1,3.898928E1,9.157216E1,3.9297543E-3,6.64735E-2,3.0040818E-1,1.4672324E-1,7.6964843E-1,2.1233556E-1,6.8190503E-1,1.3523589E0],"categories":[],"categories_nodes":[],"categories_segments":[],"categories_sizes":[],"default_left":[0,0,0,0,1,0,0,0,0,0,0,0,0,0,0],"id":79,"left_children":[1,3,5,7,9,11,13,-1,-1,-1,-1,-1,-1,-1,-1],"loss_changes":[4.9796734E5,1.1087035E5,6.58615E4,1.4853582E4,1.53803125E4,2.668568E4,5.8159562E4,0E0,0E0,0E0,0E0,0E0,0E0,0E0,0E0],"parents":[2147483647,0,0,1,1,2,2,3,3,4,4,