{"learner":{"attributes":{},"feature_names":["NO2 (ug/m3)","O3 (ug/m3)","PM10 (ug/m3)","PM2.5 (ug/m3)","CO (mg/m3)","SO2 (ug/m3)","Benceno (ug/m3)","Tolueno (ug/m3)","NO (ug/m3)","NOx (ug/m3)","temperature_2m (°C)","wind_speed_10m (km/h)","wind_gusts_10m (km/h)","relative_humidity_2m (%)","wind_direction_10m (°)","et0_fao_evapotranspiration (mm)","dew_point_2m (°C)","rain (mm)","vapour_pressure_deficit (kPa)","cloud_cover (%)","shortwave_radiation (W/m²)","NO2 (ug/m3)_lag_1","NO2 (ug/m3)_lag_2","NO2 (ug/m3)_lag_3","O3 (ug/m3)_lag_1","O3 (ug/m3)_lag_2","O3 (ug/m3)_lag_3","PM10 (ug/m3)_lag_1","PM10 (ug/m3)_lag_2","PM10 (ug/m3)_lag_3","PM2.5 (ug/m3)_lag_1","PM2.5 (ug/m3)_lag_2","PM2.5 (ug/m3)_lag_3","CO (mg/m3)_lag_1","CO (mg/m3)_lag_2","CO (mg/m3)_lag_3","SO2 (ug/m3)_lag_1","SO2 (ug/m3)_lag_2","SO2 (ug/m3)_lag_3","Benceno (ug/m3)_lag_1","Benceno (ug/m3)_lag_2","Benceno (ug/m3)_lag_3","Tolueno (ug/m3)_lag_1","Tolueno (ug/m3)_lag_2","Tolueno (ug/m3)_lag_3","NO (ug/m3)_lag_1","NO (ug/m3)_lag_2","NO (ug/m3)_lag_3","NOx (ug/m3)_lag_1","NOx (ug/m3)_lag_2","NOx (ug/m3)_lag_3","temperature_2m (°C)_lag_1","temperature_2m (°C)_lag_2","temperature_2m (°C)_lag_3","wind_speed_10m (km/h)_lag_1","wind_speed_10m (km/h)_lag_2","wind_speed_10m (km/h)_lag_3","wind_gusts_10m (km/h)_lag_1","wind_gusts_10m (km/h)_lag_2","wind_gusts_10m (km/h)_lag_3","relative_humidity_2m (%)_lag_1","relative_humidity_2m (%)_lag_2","relative_humidity_2m (%)_lag_3","wind_direction_10m (°)_lag_1","wind_direction_10m (°)_lag_2","wind_direction_10m (°)_lag_3","et0_fao_evapotranspiration (mm)_lag_1","et0_fao_evapotranspiration (mm)_lag_2","et0_fao_evapotranspiration (mm)_lag_3","dew_point_2m (°C)_lag_1","dew_point_2m (°C)_lag_2","dew_point_2m (°C)_lag_3","rain (mm)_lag_1","rain (mm)_lag_2","rain (mm)_lag_3","vapour_pressure_deficit (kPa)_lag_1","vapour_pressure_deficit (kPa)_lag_2","vapour_pressure_deficit (kPa)_lag_3","cloud_cover (%)_lag_1","cloud_cover (%)_lag_2","cloud_cover (%)_lag_3","shortwave_radiation (W/m²)_lag_1","shortwave_radiation (W/m²)_lag_2","shortwave_radiation (W/m²)_lag_3","precip_autumn_last_year","precip_winter_last_year","temp_mean_spring_summer_last","humidity_sum_spring_summer_last","co2_mean_april_may_last","o3_mean_april_may_last","no2_mean_april_may_last","drought_days_summer_last","growing_degree_days_last","polen_rolling_mean_3d","polen_rolling_mean_7d","polen_lag_1","polen_lag_2","polen_lag_3","polen_lag_4","polen_lag_5","polen_lag_6","polen_lag_7","polen_rolling_mean_3d_lag_1","polen_rolling_mean_7d_lag_1","polen_rolling_mean_3d_lag_2","polen_rolling_mean_7d_lag_2","polen_rolling_mean_3d_lag_3","polen_rolling_mean_7d_lag_3","polen_rolling_mean_3d_lag_4","polen_rolling_mean_7d_lag_4","polen_rolling_mean_3d_lag_5","polen_rolling_mean_7d_lag_5","polen_rolling_mean_3d_lag_6","polen_rolling_mean_7d_lag_6","polen_rolling_mean_3d_lag_7","polen_rolling_mean_7d_lag_7","temperature_forecast_t+1","rain_forecast_t+1","humidity_forecast_t+1","temperature_forecast_t+2","rain_forecast_t+2","humidity_forecast_t+2","temperature_forecast_t+3","rain_forecast_t+3","humidity_forecast_t+3"],"feature_types":["float","float","float","float","float","float","float","float","float","float","float","float","float","float","float","float","float","float","float","float","float","float","float","float","float","float","float","float","float","float","float","float","float","float","float","float","float","float","float","float","float","float","float","float","float","float","float","float","float","float","float","float","float","float","float","float","float","float","float","float","float","float","float","float","float","float","float","float","float","float","float","float","float","float","float","float","float","float","float","float","float","float","float","float","float","float","float","float","float","float","float","float","float","float","float","float","float","float","float","float","float","float","float","float","float","float","float","float","float","float","float","float","float","float","float","float","float","float","float","float","float","float","float","float","float"],"gradient_booster":{"model":{"cats":{"enc":[],"feature_segments":[],"sorted_idx":[]},"gbtree_model_param":{"num_parallel_tree":"1","num_trees":"1000"},"iteration_indptr":[0,1,2,3,4,5,6,7,8,9,10,11,12,13,14,15,16,17,18,19,20,21,22,23,24,25,26,27,28,29,30,31,32,33,34,35,36,37,38,39,40,41,42,43,44,45,46,47,48,49,50,51,52,53,54,55,56,57,58,59,60,61,62,63,64,65,66,67,68,69,70,71,72,73,74,75,76,77,78,79,80,81,82,83,84,85,86,87,88,89,90,91,92,93,94,95,96,97,98,99,100,101,102,103,104,105,106,107,108,109,110,111,112,113,114,115,116,117,118,119,120,121,122,123,124,125,126,127,128,129,130,131,132,133,134,135,136,137,138,139,140,141,142,143,144,145,146,147,148,149,150,151,152,153,154,155,156,157,158,159,160,161,162,163,164,165,166,167,168,169,170,171,172,173,174,175,176,177,178,179,180,181,182,183,184,185,186,187,188,189,190,191,192,193,194,195,196,197,198,199,200,201,202,203,204,205,206,207,208,209,210,211,212,213,214,215,216,217,218,219,220,221,222,223,224,225,226,227,228,229,230,231,232,233,234,235,236,237,238,239,240,241,242,243,244,245,246,247,248,249,250,251,252,253,254,255,256,257,258,259,260,261,262,263,264,265,266,267,268,269,270,271,272,273,274,275,276,277,278,279,280,281,282,283,284,285,286,287,288,289,290,291,292,293,294,295,296,297,298,299,300,301,302,303,304,305,306,307,308,309,310,311,312,313,314,315,316,317,318,319,320,321,322,323,324,325,326,327,328,329,330,331,332,333,334,335,336,337,338,339,340,341,342,343,344,345,346,347,348,349,350,351,352,353,354,355,356,357,358,359,360,361,362,363,364,365,366,367,368,369,370,371,372,373,374,375,376,377,378,379,380,381,382,383,384,385,386,387,388,389,390,391,392,393,394,395,396,397,398,399,400,401,402,403,404,405,406,407,408,409,410,411,412,413,414,415,416,417,418,419,420,421,422,423,424,425,426,427,428,429,430,431,432,433,434,435,436,437,438,439,440,441,442,443,444,445,446,447,448,449,450,451,452,453,454,455,456,457,458,459,460,461,462,463,464,465,466,467,468,469,470,471,472,473,474,475,476,477,478,479,480,481,482,483,484,485,486,487,488,489,490,491,492,493,494,495,496,497,498,499,500,501,502,503,504,505,506,507,508,509,510,511,512,513,514,515,516,517,518,519,520,521,522,523,524,525,526,527,528,529,530,531,532,533,534,535,536,537,538,539,540,541,542,543,544,545,546,547,548,549,550,551,552,553,554,555,556,557,558,559,560,561,562,563,564,565,566,567,568,569,570,571,572,573,574,575,576,577,578,579,580,581,582,583,584,585,586,587,588,589,590,591,592,593,594,595,596,597,598,599,600,601,602,603,604,605,606,607,608,609,610,611,612,613,614,615,616,617,618,619,620,621,622,623,624,625,626,627,628,629,630,631,632,633,634,635,636,637,638,639,640,641,642,643,644,645,646,647,648,649,650,651,652,653,654,655,656,657,658,659,660,661,662,663,664,665,666,667,668,669,670,671,672,673,674,675,676,677,678,679,680,681,682,683,684,685,686,687,688,689,690,691,692,693,694,695,696,697,698,699,700,701,702,703,704,705,706,707,708,709,710,711,712,713,714,715,716,717,718,719,720,721,722,723,724,725,726,727,728,729,730,731,732,733,734,735,736,737,738,739,740,741,742,743,744,745,746,747,748,749,750,751,752,753,754,755,756,757,758,759,760,761,762,763,764,765,766,767,768,769,770,771,772,773,774,775,776,777,778,779,780,781,782,783,784,785,786,787,788,789,790,791,792,793,794,795,796,797,798,799,800,801,802,803,804,805,806,807,808,809,810,811,812,813,814,815,816,817,818,819,820,821,822,823,824,825,826,827,828,829,830,831,832,833,834,835,836,837,838,839,840,841,842,843,844,845,846,847,848,849,850,851,852,853,854,855,856,857,858,859,860,861,862,863,864,865,866,867,868,869,870,871,872,873,874,875,876,877,878,879,880,881,882,883,884,885,886,887,888,889,890,891,892,893,894,895,896,897,898,899,900,901,902,903,904,905,906,907,908,909,910,911,912,913,914,915,916,917,918,919,920,921,922,923,924,925,926,927,928,929,930,931,932,933,934,935,936,937,938,939,940,941,942,943,944,945,946,947,948,949,950,951,952,953,954,955,956,957,958,959,960,961,962,963,964,965,966,967,968,969,970,971,972,973,974,975,976,977,978,979,980,981,982,983,984,985,986,987,988,989,990,991,992,993,994,995,996,997,998,999,1000],"tree_info":[0,0,0,0,0,0,0,0,0,0,0,0,0,0,0,0,0,0,0,0,0,0,0,0,0,0,0,0,0,0,0,0,0,0,0,0,0,0,0,0,0,0,0,0,0,0,0,0,0,0,0,0,0,0,0,0,0,0,0,0,0,0,0,0,0,0,0,0,0,0,0,0,0,0,0,0,0,0,0,0,0,0,0,0,0,0,0,0,0,0,0,0,0,0,0,0,0,0,0,0,0,0,0,0,0,0,0,0,0,0,0,0,0,0,0,0,0,0,0,0,0,0,0,0,0,0,0,0,0,0,0,0,0,0,0,0,0,0,0,0,0,0,0,0,0,0,0,0,0,0,0,0,0,0,0,0,0,0,0,0,0,0,0,0,0,0,0,0,0,0,0,0,0,0,0,0,0,0,0,0,0,0,0,0,0,0,0,0,0,0,0,0,0,0,0,0,0,0,0,0,0,0,0,0,0,0,0,0,0,0,0,0,0,0,0,0,0,0,0,0,0,0,0,0,0,0,0,0,0,0,0,0,0,0,0,0,0,0,0,0,0,0,0,0,0,0,0,0,0,0,0,0,0,0,0,0,0,0,0,0,0,0,0,0,0,0,0,0,0,0,0,0,0,0,0,0,0,0,0,0,0,0,0,0,0,0,0,0,0,0,0,0,0,0,0,0,0,0,0,0,0,0,0,0,0,0,0,0,0,0,0,0,0,0,0,0,0,0,0,0,0,0,0,0,0,0,0,0,0,0,0,0,0,0,0,0,0,0,0,0,0,0,0,0,0,0,0,0,0,0,0,0,0,0,0,0,0,0,0,0,0,0,0,0,0,0,0,0,0,0,0,0,0,0,0,0,0,0,0,0,0,0,0,0,0,0,0,0,0,0,0,0,0,0,0,0,0,0,0,0,0,0,0,0,0,0,0,0,0,0,0,0,0,0,0,0,0,0,0,0,0,0,0,0,0,0,0,0,0,0,0,0,0,0,0,0,0,0,0,0,0,0,0,0,0,0,0,0,0,0,0,0,0,0,0,0,0,0,0,0,0,0,0,0,0,0,0,0,0,0,0,0,0,0,0,0,0,0,0,0,0,0,0,0,0,0,0,0,0,0,0,0,0,0,0,0,0,0,0,0,0,0,0,0,0,0,0,0,0,0,0,0,0,0,0,0,0,0,0,0,0,0,0,0,0,0,0,0,0,0,0,0,0,0,0,0,0,0,0,0,0,0,0,0,0,0,0,0,0,0,0,0,0,0,0,0,0,0,0,0,0,0,0,0,0,0,0,0,0,0,0,0,0,0,0,0,0,0,0,0,0,0,0,0,0,0,0,0,0,0,0,0,0,0,0,0,0,0,0,0,0,0,0,0,0,0,0,0,0,0,0,0,0,0,0,0,0,0,0,0,0,0,0,0,0,0,0,0,0,0,0,0,0,0,0,0,0,0,0,0,0,0,0,0,0,0,0,0,0,0,0,0,0,0,0,0,0,0,0,0,0,0,0,0,0,0,0,0,0,0,0,0,0,0,0,0,0,0,0,0,0,0,0,0,0,0,0,0,0,0,0,0,0,0,0,0,0,0,0,0,0,0,0,0,0,0,0,0,0,0,0,0,0,0,0,0,0,0,0,0,0,0,0,0,0,0,0,0,0,0,0,0,0,0,0,0,0,0,0,0,0,0,0,0,0,0,0,0,0,0,0,0,0,0,0,0,0,0,0,0,0,0,0,0,0,0,0,0,0,0,0,0,0,0,0,0,0,0,0,0,0,0,0,0,0,0,0,0,0,0,0,0,0,0,0,0,0,0,0,0,0,0,0,0,0,0,0,0,0,0,0,0,0,0,0,0,0,0,0,0,0,0,0,0,0,0,0,0,0,0,0,0,0,0,0,0,0,0,0,0,0,0,0,0,0,0,0,0,0,0,0,0,0,0,0,0,0,0,0,0,0,0,0,0,0,0,0,0,0,0,0,0,0,0,0,0,0,0,0,0,0,0,0,0,0,0,0,0,0,0,0,0,0,0,0,0,0,0,0,0,0,0,0,0,0,0,0,0,0,0,0,0,0,0,0,0,0,0,0,0,0,0,0,0,0,0,0,0,0,0,0,0,0,0,0,0,0,0,0,0,0,0,0,0,0,0,0,0,0,0,0,0,0,0,0,0,0,0,0,0,0,0,0,0,0,0,0,0,0,0,0,0,0,0,0,0,0,0,0,0,0,0,0,0,0,0,0,0,0,0,0,0,0,0,0,0,0,0,0,0],"trees":[{"base_weights":[9.779367E0,5.569459E0,1.21818184E2,2.716944E0,4.416603E1,7.483036E1,1.5033522E2,1.2406992E-2,1.3415116E-1,4.2090192E-1,1.048125E0,5.755682E-1,1.2753845E0,8.1890625E-1,1.861228E0],"categories":[],"categories_nodes":[],"categories_segments":[],"categories_sizes":[],"default_left":[1,1,0,1,0,0,1,0,0,0,0,0,0,0,0],"id":0,"left_children":[1,3,5,7,9,11,13,-1,-1,-1,-1,-1,-1,-1,-1],"loss_changes":[1.8624302E6,4.1913056E5,1.80364E5,5.6001562E4,2.8572125E4,4.3644812E4,2.0031138E5,0E0,0E0,0E0,0E0,0E0,0E0,0E0,0E0],"parents":[2147483647,0,0,1,1,2,2,3,3,4,4,5,5,6,6],"right_children":[2,4,6,8,10,12,14,-1,-1,-1,-1,-1,-1,-1,-1],"split_conditions":[6.9E1,2.5666666E1,1.7041666E1,7.428571E0,4.0845833E1,8.5375E1,4.8E1,1.2406992E-2,1.3415116E-1,4.2090192E-1,1.048125E0,5.755682E-1,1.2753845E0,8.1890625E-1,1.861228E0],"split_indices":[95,93,2,94,59,19,99,0,0,0,0,0,0,0,0],"split_type":[0,0,0,0,0,0,0,0,0,0,0,0,0,0,0],"sum_hessian":[3.949E3,3.807E3,1.42E2,3.546E3,2.61E2,5.5E1,8.7E1,3.117E3,4.29E2,2.54E2,7E0,4.3E1,1.2E1,3.1E1,5.6E1],"tree_param":{"num_deleted":"0","num_feature":"125","num_nodes":"15","size_leaf_vector":"1"}},{"base_weights":[9.683129E0,5.514189E0,1.2063168E2,2.6898158E0,4.3729977E1,7.4115105E1,1.4886234E2,1.2282961E-2,1.3281277E-1,4.1670942E-1,1.0389539E0,5.699433E-1,1.2636118E0,8.1097305E-1,1.8429424E0],"categories":[],"categories_nodes":[],"categories_segments":[],"categories_sizes":[],"default_left":[1,1,0,1,0,0,1,0,0,0,0,0,0,0,0],"id":1,"left_children":[1,3,5,7,9,11,13,-1,-1,-1,-1,-1,-1,-1,-1],"loss_changes":[1.8263596E6,4.1090128E5,1.7675375E5,5.488993E4,2.8127781E4,4.288975E4,1.96346E5,0E0,0E0,0E0,0E0,0E0,0E0,0E0,0E0],"parents":[2147483647,0,0,1,1,2,2,3,3,4,4,5,5,6,6],"right_children":[2,4,6,8,10,12,14,-1,-1,-1,-1,-1,-1,-1,-1],"split_conditions":[6.9E1,2.5666666E1,1.7041666E1,7.428571E0,4.0845833E1,8.5375E1,4.8E1,1.2282961E-2,1.3281277E-1,4.1670942E-1,1.0389539E0,5.699433E-1,1.2636118E0,8.1097305E-1,1.8429424E0],"split_indices":[95,93,2,94,59,19,99,0,0,0,0,0,0,0,0],"split_type":[0,0,0,0,0,0,0,0,0,0,0,0,0,0,0],"sum_hessian":[3.949E3,3.807E3,1.42E2,3.546E3,2.61E2,5.5E1,8.7E1,3.117E3,4.29E2,2.54E2,7E0,4.3E1,1.2E1,3.1E1,5.6E1],"tree_param":{"num_deleted":"0","num_feature":"125","num_nodes":"15","size_leaf_vector":"1"}},{"base_weights":[9.58784E0,5.459467E0,1.1945675E2,2.5105743E0,4.1357887E1,7.34067E1,1.4740387E2,9.947098E-3,1.10604614E-1,3.7137985E-1,6.4011014E-1,5.6437343E-1,1.2519476E0,8.0311674E-1,1.8248363E0],"categories":[],"categories_nodes":[],"categories_segments":[],"categories_sizes":[],"default_left":[1,1,0,1,1,0,1,0,0,0,0,0,0,0,0],"id":2,"left_children":[1,3,5,7,9,11,13,-1,-1,-1,-1,-1,-1,-1,-1],"loss_changes":[1.7909879E6,4.0301325E5,1.7321588E5,4.560986E4,2.5249438E4,4.2147688E4,1.9245925E5,0E0,0E0,0E0,0E0,0E0,0E0,0E0,0E0],"parents":[2147483647,0,0,1,1,2,2,3,3,4,4,5,5,6,6],"right_children":[2,4,6,8,10,12,14,-1,-1,-1,-1,-1,-1,-1,-1],"split_conditions":[6.9E1,2.3333334E1,1.7041666E1,5.571429E0,8.5E1,8.5375E1,4.8E1,9.947098E-3,1.10604614E-1,3.7137985E-1,6.4011014E-1,5.6437343E-1,1.2519476E0,8.0311674E-1,1.8248363E0],"split_indices":[95,93,2,94,98,19,99,0,0,0,0,0,0,0,0],"split_type":[0,0,0,0,0,0,0,0,0,0,0,0,0,0,0],"sum_hessian":[3.949E3,3.807E3,1.42E2,3.519E3,2.88E2,5.5E1,8.7E1,2.99E3,5.29E2,2.45E2,4.3E1,4.3E1,1.2E1,3.1E1,5.6E1],"tree_param":{"num_deleted":"0","num_feature":"125","num_nodes":"15","size_leaf_vector":"1"}},{"base_weights":[9.493373E0,5.40517E0,1.1829326E2,2.6352508E0,4.2884167E1,6.914708E1,1.4397243E2,1.2019733E-2,1.3022052E-1,4.0844843E-1,1.0252699E0,9.8783386E-1,5.142354E-1,6.467265E-1,1.6085957E0],"categories":[],"categories_nodes":[],"categories_segments":[],"categories_sizes":[],"default_left":[1,1,0,1,0,0,0,0,0,0,0,0,0,0,0],"id":3,"left_children":[1,3,5,7,9,11,13,-1,-1,-1,-1,-1,-1,-1,-1],"loss_changes":[1.756305E6,3.9520984E5,1.7051525E5,5.278913E4,2.7679562E4,2.17085E4,1.141375E5,0E0,0E0,0E0,0E0,0E0,0E0,0E0,0E0],"parents":[2147483647,0,0,1,1,2,2,3,3,4,4,5,5,6,6],"right_children":[2,4,6,8,10,12,14,-1,-1,-1,-1,-1,-1,-1,-1],"split_conditions":[6.9E1,2.5666666E1,9.9E1,7.428571E0,4.0845833E1,4.675E-1,1.5791667E1,1.2019733E-2,1.3022052E-1,4.0844843E-1,1.0252699E0,9.8783386E-1,5.142354E-1,6.467265E-1,1.6085957E0],"split_indices":[95,93,95,94,59,76,2,0,0,0,0,0,0,0,0],"split_type":[0,0,0,0,0,0,0,0,0,0,0,0,0,0,0],"sum_hessian":[3.949E3,3.807E3,1.42E2,3.546E3,2.61E2,5E1,9.2E1,3.117E3,4.29E2,2.54E2,7E0,1.7E1,3.3E1,1.7E1,7.5E1],"tree_param":{"num_deleted":"0","num_feature":"125","num_nodes":"15","size_leaf_vector":"1"}},{"base_weights":[9.399789E0,5.351532E0,1.17136604E2,2.4599874E0,4.0551826E1,7.19078E1,1.4458748E2,9.727503E-3,1.0848414E-1,3.638434E-1,6.2930214E-1,5.5169266E-1,1.2302991E0,7.8429115E-1,1.7919238E0],"categories":[],"categories_nodes":[],"categories_segments":[],"categories_sizes":[],"default_left":[1,1,0,1,1,0,1,0,0,0,0,0,0,0,0],"id":4,"left_children":[1,3,5,7,9,11,13,-1,-1,-1,-1,-1,-1,-1,-1],"loss_changes":[1.7221511E6,3.8749072E5,1.6714762E5,4.3903492E4,2.4662938E4,4.113222E4,1.8741375E5,0E0,0E0,0E0,0E0,0E0,0E0,0E0,0E0],"parents":[2147483647,0,0,1,1,2,2,3,3,4,4,5,5,6,6],"right_children":[2,4,6,8,10,12,14,-1,-1,-1,-1,-1,-1,-1,-1],"split_conditions":[6.9E1,2.3333334E1,1.7041666E1,5.571429E0,8.5E1,8.5375E1,4.8E1,9.727503E-3,1.0848414E-1,3.638434E-1,6.2930214E-1,5.5169266E-1,1.2302991E0,7.8429115E-1,1.7919238E0],"split_indices":[95,93,2,94,98,19,99,0,0,0,0,0,0,0,0],"split_type":[0,0,0,0,0,0,0,0,0,0,0,0,0,0,0],"sum_hessian":[3.949E3,3.807E3,1.42E2,3.519E3,2.88E2,5.5E1,8.7E1,2.99E3,5.29E2,2.45E2,4.3E1,4.3E1,1.2E1,3.1E1,5.6E1],"tree_param":{"num_deleted":"0","num_feature":"125","num_nodes":"15","size_leaf_vector":"1"}},{"base_weights":[9.307177E0,5.2983084E0,1.1599572E2,2.5817895E0,4.2054775E1,6.768995E1,1.4123871E2,1.1762105E-2,1.2767868E-1,4.0034983E-1,1.0117878E0,9.692669E-1,5.0220793E-1,6.339001E-1,1.5781816E0],"categories":[],"categories_nodes":[],"categories_segments":[],"categories_sizes":[],"default_left":[1,1,0,1,0,0,0,0,0,0,0,0,0,0,0],"id":5,"left_children":[1,3,5,7,9,11,13,-1,-1,-1,-1,-1,-1,-1,-1],"loss_changes":[1.6888012E6,3.801188E5,1.6481125E5,5.076858E4,2.7236875E4,2.1180062E4,1.1003E5,0E0,0E0,0E0,0E0,0E0,0E0,0E0,0E0],"parents":[2147483647,0,0,1,1,2,2,3,3,4,4,5,5,6,6],"right_children":[2,4,6,8,10,12,14,-1,-1,-1,-1,-1,-1,-1,-1],"split_conditions":[6.9E1,2.5666666E1,9.9E1,7.428571E0,4.0845833E1,4.675E-1,1.5791667E1,1.1762105E-2,1.2767868E-1,4.0034983E-1,1.0117878E0,9.692669E-1,5.0220793E-1,6.339001E-1,1.5781816E0],"split_indices":[95,93,95,94,59,76,2,0,0,0,0,0,0,0,0],"split_type":[0,0,0,0,0,0,0,0,0,0,0,0,0,0,0],"sum_hessian":[3.949E3,3.807E3,1.42E2,3.546E3,2.61E2,5E1,9.2E1,3.117E3,4.29E2,2.54E2,7E0,1.7E1,3.3E1,1.7E1,7.5E1],"tree_param":{"num_deleted":"0","num_feature":"125","num_nodes":"15","size_leaf_vector":"1"}},{"base_weights":[9.215429E0,5.1599627E0,1.1263604E2,1.8186738E0,3.333669E1,6.625808E1,1.3985011E2,8.138939E-3,7.445812E-2,2.0887811E-1,4.359695E-1,9.5251954E-1,5.0433934E-1,6.754566E-1,1.5750198E0],"categories":[],"categories_nodes":[],"categories_segments":[],"categories_sizes":[],"default_left":[1,1,0,1,0,0,0,0,0,0,0,0,0,0,0],"id":6,"left_children":[1,3,5,7,9,11,13,-1,-1,-1,-1,-1,-1,-1,-1],"loss_changes":[1.6561234E6,3.5788462E5,1.7879175E5,1.9217666E4,5.056403E4,2.134786E4,1.0805825E5,0E0,0E0,0E0,0E0,0E0,0E0,0E0,0E0],"parents":[2147483647,0,0,1,1,2,2,3,3,4,4,5,5,6,6],"right_children":[2,4,6,8,10,12,14,-1,-1,-1,-1,-1,-1,-1,-1],"split_conditions":[6.7E1,1.3333333E1,9.9E1,4.571429E0,3.04E1,4.675E-1,7.2083335E0,8.138939E-3,7.445812E-2,2.0887811E-1,4.359695E-1,9.5251954E-1,5.0433934E-1,6.754566E-1,1.5750198E0],"split_indices":[95,93,95,94,94,76,3,0,0,0,0,0,0,0,0],"split_type":[0,0,0,0,0,0,0,0,0,0,0,0,0,0,0],"sum_hessian":[3.949E3,3.801E3,1.48E2,3.399E3,4.02E2,5.6E1,9.2E1,2.885E3,5.14E2,1.83E2,2.19E2,1.8E1,3.8E1,1.9E1,7.3E1],"tree_param":{"num_deleted":"0","num_feature":"125","num_nodes":"15","size_leaf_vector":"1"}},{"base_weights":[9.124398E0,5.108554E0,1.1153456E2,1.8005115E0,3.300492E1,6.5621056E1,1.384758E2,8.057577E-3,7.371499E-2,2.0680068E-1,4.316296E-1,9.321797E-1,4.9369493E-1,9.5263547E-1,1.6929139E0],"categories":[],"categories_nodes":[],"categories_segments":[],"categories_sizes":[],"default_left":[1,1,0,1,0,0,0,0,0,0,0,0,0,0,0],"id":7,"left_children":[1,3,5,7,9,11,13,-1,-1,-1,-1,-1,-1,-1,-1],"loss_changes":[1.62392E6,3.507982E5,1.75221E5,1.8836047E4,4.95615E4,2.0961953E4,1.07712625E5,0E0,0E0,0E0,0E0,0E0,0E0,0E0,0E0],"parents":[2147483647,0,0,1,1,2,2,3,3,4,4,5,5,6,6],"right_children":[2,4,6,8,10,12,14,-1,-1,-1,-1,-1,-1,-1,-1],"split_conditions":[6.7E1,1.3333333E1,9.9E1,4.571429E0,3.04E1,4.8666668E-1,9.2E1,8.057577E-3,7.371499E-2,2.0680068E-1,4.316296E-1,9.321797E-1,4.9369493E-1,9.5263547E-1,1.6929139E0],"split_indices":[95,93,95,94,94,76,91,0,0,0,0,0,0,0,0],"split_type":[0,0,0,0,0,0,0,0,0,0,0,0,0,0,0],"sum_hessian":[3.949E3,3.801E3,1.48E2,3.399E3,4.02E2,5.6E1,9.2E1,2.885E3,5.14E2,1.83E2,2.19E2,1.9E1,3.7E1,4E1,5.2E1],"tree_param":{"num_deleted":"0","num_feature":"125","num_nodes":"15","size_leaf_vector":"1"}},{"base_weights":[9.034368E0,5.057658E0,1.1044654E2,2.360058E0,3.859297E1,6.498986E1,1.3711949E2,1.1383551E-2,1.1806485E-1,3.67464E-1,9.072785E-1,9.346644E-1,4.9450243E-1,6.0733616E-1,1.5340668E0],"categories":[],"categories_nodes":[],"categories_segments":[],"categories_sizes":[],"default_left":[1,1,0,1,0,0,0,0,0,0,0,0,0,0,0],"id":8,"left_children":[1,3,5,7,9,11,13,-1,-1,-1,-1,-1,-1,-1,-1],"loss_changes":[1.592424E6,3.438563E5,1.7174575E5,4.060992E4,2.3910719E4,2.0601422E4,1.06385375E5,0E0,0E0,0E0,0E0,0E0,0E0,0E0,0E0],"parents":[2147483647,0,0,1,1,2,2,3,3,4,4,5,5,6,6],"right_children":[2,4,6,8,10,12,14,-1,-1,-1,-1,-1,-1,-1,-1],"split_conditions":[6.7E1,2.3333334E1,9.9E1,7.428571E0,4.0845833E1,4.675E-1,1.5791667E1,1.1383551E-2,1.1806485E-1,3.67464E-1,9.072785E-1,9.346644E-1,4.9450243E-1,6.0733616E-1,1.5340668E0],"split_indices":[95,93,95,94,59,76,2,0,0,0,0,0,0,0,0],"split_type":[0,0,0,0,0,0,0,0,0,0,0,0,0,0,0],"sum_hessian":[3.949E3,3.801E3,1.48E2,3.519E3,2.82E2,5.6E1,9.2E1,3.117E3,4.02E2,2.74E2,8E0,1.8E1,3.8E1,1.7E1,7.5E1],"tree_param":{"num_deleted":"0","num_feature":"125","num_nodes":"15","size_leaf_vector":"1"}},{"base_weights":[8.945283E0,3.9407413E0,8.804286E1,1.7622706E0,2.7293612E1,5.682827E1,1.3594351E2,7.57279E-3,7.071907E-2,2.031895E-1,3.6789992E-1,5.358664E-1,1.3622825E0,7.985701E-1,1.5923358E0],"categories":[],"categories_nodes":[],"categories_segments":[],"categories_sizes":[],"default_left":[1,1,1,1,0,1,0,0,0,0,0,0,0,0,0],"id":9,"left_children":[1,3,5,7,9,11,13,-1,-1,-1,-1,-1,-1,-1,-1],"loss_changes":[1.5632492E6,1.88998E5,3.4364638E5,1.813752E4,2.0248656E4,2.9763469E4,1.07459875E5,0E0,0E0,0E0,0E0,0E0,0E0,0E0,0E0],"parents":[2147483647,0,0,1,1,2,2,3,3,4,4,5,5,6,6],"right_children":[2,4,6,8,10,12,14,-1,-1,-1,-1,-1,-1,-1,-1],"split_conditions":[4.6333332E1,1.3333333E1,9.9E1,4.428571E0,3.04E1,5E-1,7.5291667E0,7.57279E-3,7.071907E-2,2.031895E-1,3.6789992E-1,5.358664E-1,1.3622825E0,7.985701E-1,1.5923358E0],"split_indices":[93,93,95,94,94,4,70,0,0,0,0,0,0,0,0],"split_type":[0,0,0,0,0,0,0,0,0,0,0,0,0,0,0],"sum_hessian":[3.949E3,3.715E3,2.34E2,3.399E3,3.16E2,1.43E2,9.1E1,2.859E3,5.4E2,1.84E2,1.32E2,1.39E2,4E0,2.8E1,6.3E1],"tree_param":{"num_deleted":"0","num_feature":"125","num_nodes":"15","size_leaf_vector":"1"}},{"base_weights":[8.85708E0,3.9015086E0,8.718069E1,1.7446709E0,2.7022476E1,5.627317E1,1.3461006E2,7.7818427E-3,7.1573615E-2,2.011686E-1,3.6424857E-1,5.30546E-1,1.3513843E0,9.1189873E-1,1.6484019E0],"categories":[],"categories_nodes":[],"categories_segments":[],"categories_sizes":[],"default_left":[1,1,1,1,0,1,0,0,0,0,0,0,0,0,0],"id":10,"left_children":[1,3,5,7,9,11,13,-1,-1,-1,-1,-1,-1,-1,-1],"loss_changes":[1.532806E6,1.85263E5,3.3691725E5,1.7780826E4,1.9849812E4,2.9382281E4,1.05727375E5,0E0,0E0,0E0,0E0,0E0,0E0,0E0,0E0],"parents":[2147483647,0,0,1,1,2,2,3,3,4,4,5,5,6,6],"right_children":[2,4,6,8,10,12,14,-1,-1,-1,-1,-1,-1,-1,-1],"split_conditions":[4.6333332E1,1.3333333E1,9.9E1,4.571429E0,3.04E1,5E-1,9.2E1,7.7818427E-3,7.1573615E-2,2.011686E-1,3.6424857E-1,5.30546E-1,1.3513843E0,9.1189873E-1,1.6484019E0],"split_indices":[93,93,95,94,94,4,91,0,0,0,0,0,0,0,0],"split_type":[0,0,0,0,0,0,0,0,0,0,0,0,0,0,0],"sum_hessian":[3.949E3,3.715E3,2.34E2,3.399E3,3.16E2,1.43E2,9.1E1,2.885E3,5.14E2,1.84E2,1.32E2,1.39E2,4E0,3.9E1,5.2E1],"tree_param":{"num_deleted":"0","num_feature":"125","num_nodes":"15","size_leaf_vector":"1"}},{"base_weights":[8.769797E0,4.905368E0,1.0731873E2,2.4239576E0,3.9267307E1,6.3306107E1,1.3314024E2,1.1015698E-2,1.20071694E-1,3.7221643E-1,9.803015E-1,9.139729E-1,4.7997424E-1,6.235073E-1,1.5047336E0],"categories":[],"categories_nodes":[],"categories_segments":[],"categories_sizes":[],"default_left":[1,1,0,1,0,0,0,0,0,0,0,0,0,0,0],"id":11,"left_children":[1,3,5,7,9,11,13,-1,-1,-1,-1,-1,-1,-1,-1],"loss_changes":[1.5037735E6,3.2408644E5,1.6090575E5,4.493692E4,2.7124656E4,2.012539E4,1.04729125E5,0E0,0E0,0E0,0E0,0E0,0E0,0E0,0E0],"parents":[2147483647,0,0,1,1,2,2,3,3,4,4,5,5,6,6],"right_children":[2,4,6,8,10,12,14,-1,-1,-1,-1,-1,-1,-1,-1],"split_conditions":[6.7E1,2.5666666E1,9.9E1,7.428571E0,4.0845833E1,4.675E-1,7.2083335E0,1.1015698E-2,1.20071694E-1,3.7221643E-1,9.803015E-1,9.139729E-1,4.7997424E-1,6.235073E-1,1.5047336E0],"split_indices":[95,93,95,94,59,76,3,0,0,0,0,0,0,0,0],"split_type":[0,0,0,0,0,0,0,0,0,0,0,0,0,0,0],"sum_hessian":[3.949E3,3.801E3,1.48E2,3.546E3,2.55E2,5.6E1,9.2E1,3.117E3,4.29E2,2.48E2,7E0,1.8E1,3.8E1,1.9E1,7.3E1],"tree_param":{"num_deleted":"0","num_feature":"125","num_nodes":"15","size_leaf_vector":"1"}},{"base_weights":[8.683367E0,3.8216963E0,8.552287E1,1.7071577E0,2.6489235E1,5.5244568E1,1.319854E2,7.3091784E-3,6.8649E-2,1.9720674E-1,3.5704982E-1,5.20536E-1,1.3354285E0,7.6762205E-1,1.5494614E0],"categories":[],"categories_nodes":[],"categories_segments":[],"categories_sizes":[],"default_left":[1,1,1,1,0,1,0,0,0,0,0,0,0,0,0],"id":12,"left_children":[1,3,5,7,9,11,13,-1,-1,-1,-1,-1,-1,-1,-1],"loss_changes":[1.4752681E6,1.7806781E5,3.2330825E5,1.711464E4,1.9069516E4,2.9026656E4,1.04758625E5,0E0,0E0,0E0,0E0,0E0,0E0,0E0,0E0],"parents":[2147483647,0,0,1,1,2,2,3,3,4,4,5,5,6,6],"right_children":[2,4,6,8,10,12,14,-1,-1,-1,-1,-1,-1,-1,-1],"split_conditions":[4.6333332E1,1.3333333E1,9.9E1,4.428571E0,3.04E1,5E-1,7.5291667E0,7.3091784E-3,6.8649E-2,1.9720674E-1,3.5704982E-1,5.20536E-1,1.3354285E0,7.6762205E-1,1.5494614E0],"split_indices":[93,93,95,94,94,4,70,0,0,0,0,0,0,0,0],"split_type":[0,0,0,0,0,0,0,0,0,0,0,0,0,0,0],"sum_hessian":[3.949E3,3.715E3,2.34E2,3.399E3,3.16E2,1.43E2,9.1E1,2.859E3,5.4E2,1.84E2,1.32E2,1.39E2,4E0,2.8E1,6.3E1],"tree_param":{"num_deleted":"0","num_feature":"125","num_nodes":"15","size_leaf_vector":"1"}},{"base_weights":[8.597749E0,4.8069305E0,1.0526952E2,1.6901084E0,3.1090773E1,6.413524E1,1.3227988E2,7.2361124E-3,6.796378E-2,1.9450338E-1,4.0685087E-1,4.9650908E-1,1.1379652E0,6.991291E-1,1.6440855E0],"categories":[],"categories_nodes":[],"categories_segments":[],"categories_sizes":[],"default_left":[1,1,0,1,0,0,1,0,0,0,0,0,0,0,0],"id":13,"left_children":[1,3,5,7,9,11,13,-1,-1,-1,-1,-1,-1,-1,-1],"loss_changes":[1.4470312E6,3.1141516E5,1.5706288E5,1.6774744E4,4.42165E4,3.822783E4,1.6684125E5,0E0,0E0,0E0,0E0,0E0,0E0,0E0,0E0],"parents":[2147483647,0,0,1,1,2,2,3,3,4,4,5,5,6,6],"right_children":[2,4,6,8,10,12,14,-1,-1,-1,-1,-1,-1,-1,-1],"split_conditions":[6.7E1,1.3333333E1,1.7041666E1,4.428571E0,3.04E1,8.5375E1,4.8E1,7.2361124E-3,6.796378E-2,1.9450338E-1,4.0685087E-1,4.9650908E-1,1.1379652E0,6.991291E-1,1.6440855E0],"split_indices":[95,93,2,94,94,19,99,0,0,0,0,0,0,0,0],"split_type":[0,0,0,0,0,0,0,0,0,0,0,0,0,0,0],"sum_hessian":[3.949E3,3.801E3,1.48E2,3.399E3,4.02E2,6E1,8.8E1,2.859E3,5.4E2,1.83E2,2.19E2,4.8E1,1.2E1,3.1E1,5.7E1],"tree_param":{"num_deleted":"0","num_feature":"125","num_nodes":"15","size_leaf_vector":"1"}},{"base_weights":[8.51295E0,3.7433336E0,8.389755E1,1.6732295E0,2.5934536E1,5.418615E1,1.2949043E2,7.437532E-3,6.878657E-2,1.9323993E-1,3.493465E-1,5.102564E-1,1.3184313E0,7.732342E-1,1.5348538E0],"categories":[],"categories_nodes":[],"categories_segments":[],"categories_sizes":[],"default_left":[1,1,1,1,0,1,0,0,0,0,0,0,0,0,0],"id":14,"left_children":[1,3,5,7,9,11,13,-1,-1,-1,-1,-1,-1,-1,-1],"loss_changes":[1.4199308E6,1.7066258E5,3.1132112E5,1.6445176E4,1.8185031E4,2.8615344E4,1.03292375E5,0E0,0E0,0E0,0E0,0E0,0E0,0E0,0E0],"parents":[2147483647,0,0,1,1,2,2,3,3,4,4,5,5,6,6],"right_children":[2,4,6,8,10,12,14,-1,-1,-1,-1,-1,-1,-1,-1],"split_conditions":[4.6333332E1,1.3333333E1,9.9E1,4.571429E0,3.04E1,5E-1,6E1,7.437532E-3,6.878657E-2,1.9323993E-1,3.493465E-1,5.102564E-1,1.3184313E0,7.732342E-1,1.5348538E0],"split_indices":[93,93,95,94,94,4,107,0,0,0,0,0,0,0,0],"split_type":[0,0,0,0,0,0,0,0,0,0,0,0,0,0,0],"sum_hessian":[3.949E3,3.715E3,2.34E2,3.399E3,3.16E2,1.43E2,9.1E1,2.885E3,5.14E2,1.84E2,1.32E2,1.39E2,4E0,3E1,6.1E1],"tree_param":{"num_deleted":"0","num_feature":"125","num_nodes":"15","size_leaf_vector":"1"}},{"base_weights":[8.429025E0,4.7102714E0,1.03263054E2,2.3245902E0,3.77466E1,6.272725E1,1.2988576E2,1.1094098E-2,1.1963654E-1,3.5720134E-1,9.610213E-1,4.8458862E-1,1.1168292E0,6.851421E-1,1.6150651E0],"categories":[],"categories_nodes":[],"categories_segments":[],"categories_sizes":[],"default_left":[1,1,0,1,0,0,1,0,0,0,0,0,0,0,0],"id":15,"left_children":[1,3,5,7,9,11,13,-1,-1,-1,-1,-1,-1,-1,-1],"loss_changes":[1.3925378E6,2.995637E5,1.5264925E5,4.1533453E4,2.6840688E4,3.7197594E4,1.6164912E5,0E0,0E0,0E0,0E0,0E0,0E0,0E0,0E0],"parents":[2147483647,0,0,1,1,2,2,3,3,4,4,5,5,6,6],"right_children":[2,4,6,8,10,12,14,-1,-1,-1,-1,-1,-1,-1,-1],"split_conditions":[6.7E1,2.5666666E1,1.7041666E1,7.6666665E0,4.0845833E1,8.5375E1,4.8E1,1.1094098E-2,1.1963654E-1,3.5720134E-1,9.610213E-1,4.8458862E-1,1.1168292E0,6.851421E-1,1.6150651E0],"split_indices":[95,93,2,93,59,19,99,0,0,0,0,0,0,0,0],"split_type":[0,0,0,0,0,0,0,0,0,0,0,0,0,0,0],"sum_hessian":[3.949E3,3.801E3,1.48E2,3.546E3,2.55E2,6E1,8.8E1,3.15E3,3.96E2,2.48E2,7E0,4.8E1,1.2E1,3.1E1,5.7E1],"tree_param":{"num_deleted":"0","num_feature":"125","num_nodes":"15","size_leaf_vector":"1"}},{"base_weights":[8.346088E0,3.666509E0,8.230767E1,1.6374797E0,2.5417402E1,5.3155537E1,1.2704246E2,6.977007E-3,6.6026E-2,1.8937251E-1,3.4240034E-1,5.002479E-1,1.3018545E0,7.262342E-1,1.4971604E0],"categories":[],"categories_nodes":[],"categories_segments":[],"categories_sizes":[],"default_left":[1,1,1,1,0,1,0,0,0,0,0,0,0,0,0],"id":16,"left_children":[1,3,5,7,9,11,13,-1,-1,-1,-1,-1,-1,-1,-1],"loss_changes":[1.3668294E6,1.6395733E5,2.9971375E5,1.5860188E4,1.7475125E4,2.821475E4,1.02643625E5,0E0,0E0,0E0,0E0,0E0,0E0,0E0,0E0],"parents":[2147483647,0,0,1,1,2,2,3,3,4,4,5,5,6,6],"right_children":[2,4,6,8,10,12,14,-1,-1,-1,-1,-1,-1,-1,-1],"split_conditions":[4.6333332E1,1.3333333E1,9.9E1,4.428571E0,3.04E1,5E-1,7.5291667E0,6.977007E-3,6.6026E-2,1.8937251E-1,3.4240034E-1,5.002479E-1,1.3018545E0,7.262342E-1,1.4971604E0],"split_indices":[93,93,95,94,94,4,70,0,0,0,0,0,0,0,0],"split_type":[0,0,0,0,0,0,0,0,0,0,0,0,0,0,0],"sum_hessian":[3.949E3,3.715E3,2.34E2,3.399E3,3.16E2,1.43E2,9.1E1,2.859E3,5.4E2,1.84E2,1.32E2,1.39E2,4E0,2.8E1,6.3E1],"tree_param":{"num_deleted":"0","num_feature":"125","num_nodes":"15","size_leaf_vector":"1"}},{"base_weights":[8.2638E0,3.6300066E0,8.1501724E1,1.6211263E0,2.5164906E1,5.2636497E1,1.25796196E2,6.907261E-3,6.536696E-2,1.8748903E-1,3.3900207E-1,4.9528113E-1,1.2914397E0,8.358815E-1,1.5527781E0],"categories":[],"categories_nodes":[],"categories_segments":[],"categories_sizes":[],"default_left":[1,1,1,1,0,1,0,0,0,0,0,0,0,0,0],"id":17,"left_children":[1,3,5,7,9,11,13,-1,-1,-1,-1,-1,-1,-1,-1],"loss_changes":[1.3402134E6,1.6071722E5,2.938425E5,1.5545205E4,1.713089E4,2.7849031E4,1.01501875E5,0E0,0E0,0E0,0E0,0E0,0E0,0E0,0E0],"parents":[2147483647,0,0,1,1,2,2,3,3,4,4,5,5,6,6],"right_children":[2,4,6,8,10,12,14,-1,-1,-1,-1,-1,-1,-1,-1],"split_conditions":[4.6333332E1,1.3333333E1,9.9E1,4.428571E0,3.04E1,5E-1,9.2E1,6.907261E-3,6.536696E-2,1.8748903E-1,3.3900207E-1,4.9528113E-1,1.2914397E0,8.358815E-1,1.5527781E0],"split_indices":[93,93,95,94,94,4,91,0,0,0,0,0,0,0,0],"split_type":[0,0,0,0,0,0,0,0,0,0,0,0,0,0,0],"sum_hessian":[3.949E3,3.715E3,2.34E2,3.399E3,3.16E2,1.43E2,9.1E1,2.859E3,5.4E2,1.84E2,1.32E2,1.39E2,4E0,3.9E1,5.2E1],"tree_param":{"num_deleted":"0","num_feature":"125","num_nodes":"15","size_leaf_vector":"1"}},{"base_weights":[8.182371E0,4.5684566E0,1.003429E2,2.2531943E0,3.6629654E1,6.0565826E1,1.2647839E2,1.01682935E-2,1.1213037E-1,3.462178E-1,9.454601E-1,4.6572772E-1,1.0864996E0,6.62019E-1,1.5755372E0],"categories":[],"categories_nodes":[],"categories_segments":[],"categories_sizes":[],"default_left":[1,1,0,1,0,0,1,0,0,0,0,0,0,0,0],"id":18,"left_children":[1,3,5,7,9,11,13,-1,-1,-1,-1,-1,-1,-1,-1],"loss_changes":[1.3151295E6,2.8214025E5,1.4723925E5,3.9280977E4,2.6496562E4,3.5983344E4,1.5627662E5,0E0,0E0,0E0,0E0,0E0,0E0,0E0,0E0],"parents":[2147483647,0,0,1,1,2,2,3,3,4,4,5,5,6,6],"right_children":[2,4,6,8,10,12,14,-1,-1,-1,-1,-1,-1,-1,-1],"split_conditions":[6.7E1,2.5666666E1,1.7041666E1,7.428571E0,4.0845833E1,8.5375E1,4.8E1,1.01682935E-2,1.1213037E-1,3.462178E-1,9.454601E-1,4.6572772E-1,1.0864996E0,6.62019E-1,1.5755372E0],"split_indices":[95,93,2,94,59,19,99,0,0,0,0,0,0,0,0],"split_type":[0,0,0,0,0,0,0,0,0,0,0,0,0,0,0],"sum_hessian":[3.949E3,3.801E3,1.48E2,3.546E3,2.55E2,6E1,8.8E1,3.117E3,4.29E2,2.48E2,7E0,4.8E1,1.2E1,3.1E1,5.7E1],"tree_param":{"num_deleted":"0","num_feature":"125","num_nodes":"15","size_leaf_vector":"1"}},{"base_weights":[8.101864E0,3.5555136E0,7.995776E1,1.5189906E0,2.3970625E1,5.1636513E1,1.2341758E2,6.736565E-3,6.156488E-2,1.1548138E-1,2.838213E-1,4.8557383E-1,1.2752482E0,6.9893575E-1,1.4574223E0],"categories":[],"categories_nodes":[],"categories_segments":[],"categories_sizes":[],"default_left":[1,1,1,1,0,1,0,0,0,0,0,0,0,0,0],"id":19,"left_children":[1,3,5,7,9,11,13,-1,-1,-1,-1,-1,-1,-1,-1],"loss_changes":[1.29011E6,1.5445944E5,2.8287375E5,1.3246248E4,1.8140469E4,2.7456219E4,9.9744875E4,0E0,0E0,0E0,0E0,0E0,0E0,0E0,0E0],"parents":[2147483647,0,0,1,1,2,2,3,3,4,4,5,5,6,6],"right_children":[2,4,6,8,10,12,14,-1,-1,-1,-1,-1,-1,-1,-1],"split_conditions":[4.6333332E1,1.25E1,9.9E1,4.428571E0,1.6E1,5E-1,7.5291667E0,6.736565E-3,6.156488E-2,1.1548138E-1,2.838213E-1,4.8557383E-1,1.2752482E0,6.9893575E-1,1.4574223E0],"split_indices":[93,93,95,94,95,4,70,0,0,0,0,0,0,0,0],"split_type":[0,0,0,0,0,0,0,0,0,0,0,0,0,0,0],"sum_hessian":[3.949E3,3.715E3,2.34E2,3.379E3,3.36E2,1.43E2,9.1E1,2.859E3,5.2E2,8.9E1,2.47E2,1.39E2,4E0,2.8E1,6.3E1],"tree_param":{"num_deleted":"0","num_feature":"125","num_nodes":"15","size_leaf_vector":"1"}},{"base_weights":[8.0219555E0,4.4767985E0,9.842911E1,2.2062006E0,3.591951E1,5.9224728E1,1.2419358E2,1.048299E-2,1.139094E-1,3.392947E-1,9.3369514E-1,4.5435783E-1,1.0664269E0,6.4716995E-1,1.5486698E0],"categories":[],"categories_nodes":[],"categories_segments":[],"categories_sizes":[],"default_left":[1,1,0,1,0,0,1,0,0,0,0,0,0,0,0],"id":20,"left_children":[1,3,5,7,9,11,13,-1,-1,-1,-1,-1,-1,-1,-1],"loss_changes":[1.2655642E6,2.713598E5,1.4314662E5,3.7710484E4,2.6099938E4,3.5039062E4,1.5234438E5,0E0,0E0,0E0,0E0,0E0,0E0,0E0,0E0],"parents":[2147483647,0,0,1,1,2,2,3,3,4,4,5,5,6,6],"right_children":[2,4,6,8,10,12,14,-1,-1,-1,-1,-1,-1,-1,-1],"split_conditions":[6.7E1,2.5666666E1,1.7041666E1,7.6666665E0,4.0845833E1,8.5375E1,4.8E1,1.048299E-2,1.139094E-1,3.392947E-1,9.3369514E-1,4.5435783E-1,1.0664269E0,6.4716995E-1,1.5486698E0],"split_indices":[95,93,2,93,59,19,99,0,0,0,0,0,0,0,0],"split_type":[0,0,0,0,0,0,0,0,0,0,0,0,0,0,0],"sum_hessian":[3.949E3,3.801E3,1.48E2,3.546E3,2.55E2,6E1,8.8E1,3.15E3,3.96E2,2.48E2,7E0,4.8E1,1.2E1,3.1E1,5.7E1],"tree_param":{"num_deleted":"0","num_feature":"125","num_nodes":"15","size_leaf_vector":"1"}},{"base_weights":[7.943031E0,3.4825127E0,7.844236E1,1.5521233E0,2.4176018E1,5.0656162E1,1.2108117E2,6.562983E-3,6.285039E-2,1.7958005E-1,3.2643357E-1,4.760599E-1,1.2592973E0,7.056319E-1,1.4438723E0],"categories":[],"categories_nodes":[],"categories_segments":[],"categories_sizes":[],"default_left":[1,1,1,1,0,1,0,0,0,0,0,0,0,0,0],"id":21,"left_children":[1,3,5,7,9,11,13,-1,-1,-1,-1,-1,-1,-1,-1],"loss_changes":[1.2418578E6,1.4840375E5,2.7228775E5,1.4411415E4,1.6103844E4,2.7067031E4,9.813E4,0E0,0E0,0E0,0E0,0E0,0E0,0E0,0E0],"parents":[2147483647,0,0,1,1,2,2,3,3,4,4,5,5,6,6],"right_children":[2,4,6,8,10,12,14,-1,-1,-1,-1,-1,-1,-1,-1],"split_conditions":[4.6333332E1,1.3333333E1,9.9E1,4.428571E0,3.04E1,5E-1,6E1,6.562983E-3,6.285039E-2,1.7958005E-1,3.2643357E-1,4.760599E-1,1.2592973E0,7.056319E-1,1.4438723E0],"split_indices":[93,93,95,94,94,4,107,0,0,0,0,0,0,0,0],"split_type":[0,0,0,0,0,0,0,0,0,0,0,0,0,0,0],"sum_hessian":[3.949E3,3.715E3,2.34E2,3.399E3,3.16E2,1.43E2,9.1E1,2.859E3,5.4E2,1.84E2,1.32E2,1.39E2,4E0,3E1,6.1E1],"tree_param":{"num_deleted":"0","num_feature":"125","num_nodes":"15","size_leaf_vector":"1"}},{"base_weights":[7.86473E0,4.3869796E0,9.6552925E1,2.1612103E0,3.520892E1,5.7917084E1,1.2194881E2,9.715506E-3,1.0782601E-1,3.3236143E-1,9.221045E-1,4.4333282E-1,1.0466241E0,6.342053E-1,1.521377E0],"categories":[],"categories_nodes":[],"categories_segments":[],"categories_sizes":[],"default_left":[1,1,0,1,0,0,1,0,0,0,0,0,0,0,0],"id":22,"left_children":[1,3,5,7,9,11,13,-1,-1,-1,-1,-1,-1,-1,-1],"loss_changes":[1.2178961E6,2.6075073E5,1.3913462E5,3.6369406E4,2.5722812E4,3.4093703E4,1.4760575E5,0E0,0E0,0E0,0E0,0E0,0E0,0E0,0E0],"parents":[2147483647,0,0,1,1,2,2,3,3,4,4,5,5,6,6],"right_children":[2,4,6,8,10,12,14,-1,-1,-1,-1,-1,-1,-1,-1],"split_conditions":[6.7E1,2.5666666E1,1.7041666E1,7.428571E0,4.0845833E1,8.5375E1,4.8E1,9.715506E-3,1.0782601E-1,3.3236143E-1,9.221045E-1,4.4333282E-1,1.0466241E0,6.342053E-1,1.521377E0],"split_indices":[95,93,2,94,59,19,99,0,0,0,0,0,0,0,0],"split_type":[0,0,0,0,0,0,0,0,0,0,0,0,0,0,0],"sum_hessian":[3.949E3,3.801E3,1.48E2,3.546E3,2.55E2,6E1,8.8E1,3.117E3,4.29E2,2.48E2,7E0,4.8E1,1.2E1,3.1E1,5.7E1],"tree_param":{"num_deleted":"0","num_feature":"125","num_nodes":"15","size_leaf_vector":"1"}},{"base_weights":[7.787353E0,3.4110298E0,7.6955986E1,1.4537663E0,2.3031622E1,4.9695034E1,1.18788826E2,6.400255E-3,5.9179604E-2,1.0922521E-1,2.7333185E-1,2.3728073E-1,5.7201177E-1,6.603779E-1,1.4083555E0],"categories":[],"categories_nodes":[],"categories_segments":[],"categories_sizes":[],"default_left":[1,1,1,1,0,0,0,0,0,0,0,0,0,0,0],"id":23,"left_children":[1,3,5,7,9,11,13,-1,-1,-1,-1,-1,-1,-1,-1],"loss_changes":[1.1954195E6,1.4267084E5,2.6209138E5,1.2274729E4,1.725514E4,2.671E4,9.76945E4,0E0,0E0,0E0,0E0,0E0,0E0,0E0,0E0],"parents":[2147483647,0,0,1,1,2,2,3,3,4,4,5,5,6,6],"right_children":[2,4,6,8,10,12,14,-1,-1,-1,-1,-1,-1,-1,-1],"split_conditions":[4.6333332E1,1.25E1,9.9E1,4.428571E0,1.6E1,1.1166667E1,7.5291667E0,6.400255E-3,5.9179604E-2,1.0922521E-1,2.7333185E-1,2.3728073E-1,5.7201177E-1,6.603779E-1,1.4083555E0],"split_indices":[93,93,95,94,95,2,70,0,0,0,0,0,0,0,0],"split_type":[0,0,0,0,0,0,0,0,0,0,0,0,0,0,0],"sum_hessian":[3.949E3,3.715E3,2.34E2,3.379E3,3.36E2,1.43E2,9.1E1,2.859E3,5.2E2,8.9E1,2.47E2,3.3E1,1.1E2,2.8E1,6.3E1],"tree_param":{"num_deleted":"0","num_feature":"125","num_nodes":"15","size_leaf_vector":"1"}},{"base_weights":[7.7103214E0,3.3770401E0,7.619867E1,1.4392481E0,2.280244E1,4.9203705E1,1.1762342E2,6.893267E-3,6.210122E-2,1.0814509E-1,2.7060956E-1,4.61845E-1,1.2390063E0,7.668589E-1,1.4630035E0],"categories":[],"categories_nodes":[],"categories_segments":[],"categories_sizes":[],"default_left":[1,1,1,0,0,1,0,0,0,0,0,0,0,0,0],"id":24,"left_children":[1,3,5,7,9,11,13,-1,-1,-1,-1,-1,-1,-1,-1],"loss_changes":[1.1720209E6,1.398463E5,2.570035E5,1.2088617E4,1.6911453E4,2.6753344E4,9.6785375E4,0E0,0E0,0E0,0E0,0E0,0E0,0E0,0E0],"parents":[2147483647,0,0,1,1,2,2,3,3,4,4,5,5,6,6],"right_children":[2,4,6,8,10,12,14,-1,-1,-1,-1,-1,-1,-1,-1],"split_conditions":[4.6333332E1,1.25E1,9.9E1,6E0,1.6E1,5E-1,9.2E1,6.893267E-3,6.210122E-2,1.0814509E-1,2.7060956E-1,4.61845E-1,1.2390063E0,7.668589E-1,1.4630035E0],"split_indices":[93,93,95,95,95,4,91,0,0,0,0,0,0,0,0],"split_type":[0,0,0,0,0,0,0,0,0,0,0,0,0,0,0],"sum_hessian":[3.949E3,3.715E3,2.34E2,3.379E3,3.36E2,1.43E2,9.1E1,2.921E3,4.58E2,8.9E1,2.47E2,1.39E2,4E0,3.9E1,5.2E1],"tree_param":{"num_deleted":"0","num_feature":"125","num_nodes":"15","size_leaf_vector":"1"}},{"base_weights":[7.6343265E0,4.2549067E0,9.3814995E1,2.0929363E0,3.4193398E1,5.589866E1,1.187485E2,9.392463E-3,1.0453664E-1,3.2239813E-1,9.072454E-1,4.2580196E-1,1.0179912E0,6.12419E-1,1.4842889E0],"categories":[],"categories_nodes":[],"categories_segments":[],"categories_sizes":[],"default_left":[1,1,0,1,0,0,1,0,0,0,0,0,0,0,0],"id":25,"left_children":[1,3,5,7,9,11,13,-1,-1,-1,-1,-1,-1,-1,-1],"loss_changes":[1.1500015E6,2.4601722E5,1.3422475E5,3.4203438E4,2.534725E4,3.295611E4,1.4281662E5,0E0,0E0,0E0,0E0,0E0,0E0,0E0,0E0],"parents":[2147483647,0,0,1,1,2,2,3,3,4,4,5,5,6,6],"right_children":[2,4,6,8,10,12,14,-1,-1,-1,-1,-1,-1,-1,-1],"split_conditions":[6.7E1,2.5666666E1,1.7041666E1,7.428571E0,4.0845833E1,8.5375E1,4.8E1,9.392463E-3,1.0453664E-1,3.2239813E-1,9.072454E-1,4.2580196E-1,1.0179912E0,6.12419E-1,1.4842889E0],"split_indices":[95,93,2,94,59,19,99,0,0,0,0,0,0,0,0],"split_type":[0,0,0,0,0,0,0,0,0,0,0,0,0,0,0],"sum_hessian":[3.949E3,3.801E3,1.48E2,3.546E3,2.55E2,6E1,8.8E1,3.117E3,4.29E2,2.48E2,7E0,4.8E1,1.2E1,3.1E1,5.7E1],"tree_param":{"num_deleted":"0","num_feature":"125","num_nodes":"15","size_leaf_vector":"1"}},{"base_weights":[7.55922E0,3.3077066E0,7.475524E1,1.4080832E0,2.2350492E1,4.8271107E1,1.153961E2,5.910153E-3,5.6479715E-2,1.6533563E-1,3.103932E-1,4.453491E-1,1.0621957E0,6.35091E-1,1.3710433E0],"categories":[],"categories_nodes":[],"categories_segments":[],"categories_sizes":[],"default_left":[1,1,1,0,0,0,0,0,0,0,0,0,0,0,0],"id":26,"left_children":[1,3,5,7,9,11,13,-1,-1,-1,-1,-1,-1,-1,-1],"loss_changes":[1.1282076E6,1.3439156E5,2.4736912E5,1.1705918E4,1.6519578E4,2.6446531E4,9.4919125E4,0E0,0E0,0E0,0E0,0E0,0E0,0E0,0E0],"parents":[2147483647,0,0,1,1,2,2,3,3,4,4,5,5,6,6],"right_children":[2,4,6,8,10,12,14,-1,-1,-1,-1,-1,-1,-1,-1],"split_conditions":[4.6333332E1,1.25E1,9.9E1,4.6666665E0,3.04E1,3.8066666E1,7.5291667E0,5.910153E-3,5.6479715E-2,1.6533563E-1,3.103932E-1,4.453491E-1,1.0621957E0,6.35091E-1,1.3710433E0],"split_indices":[93,93,95,93,94,59,70,0,0,0,0,0,0,0,0],"split_type":[0,0,0,0,0,0,0,0,0,0,0,0,0,0,0],"sum_hessian":[3.949E3,3.715E3,2.34E2,3.379E3,3.36E2,1.43E2,9.1E1,2.834E3,5.45E2,2.03E2,1.33E2,1.36E2,7E0,2.8E1,6.3E1],"tree_param":{"num_deleted":"0","num_feature":"125","num_nodes":"15","size_leaf_vector":"1"}},{"base_weights":[7.4846535E0,4.2392635E0,9.3854996E1,2.0501592E0,3.3859547E1,5.4854057E1,1.1760724E2,1.2462339E-2,1.3638741E-1,3.1987414E-1,8.930134E-1,4.029223E-1,9.9920696E-1,5.9891057E-1,1.4794602E0],"categories":[],"categories_nodes":[],"categories_segments":[],"categories_sizes":[],"default_left":[1,1,0,1,0,0,1,0,0,0,0,0,0,0,0],"id":27,"left_children":[1,3,5,7,9,11,13,-1,-1,-1,-1,-1,-1,-1,-1],"loss_changes":[1.1068085E6,2.4684853E5,1.2601825E5,3.302811E4,2.4337625E4,3.272411E4,1.4523075E5,0E0,0E0,0E0,0E0,0E0,0E0,0E0,0E0],"parents":[2147483647,0,0,1,1,2,2,3,3,4,4,5,5,6,6],"right_children":[2,4,6,8,10,12,14,-1,-1,-1,-1,-1,-1,-1,-1],"split_conditions":[6.9E1,2.5666666E1,1.7041666E1,1.1E1,4.0845833E1,8.5375E1,4.8E1,1.2462339E-2,1.3638741E-1,3.1987414E-1,8.930134E-1,4.029223E-1,9.9920696E-1,5.9891057E-1,1.4794602E0],"split_indices":[95,93,2,94,59,19,99,0,0,0,0,0,0,0,0],"split_type":[0,0,0,0,0,0,0,0,0,0,0,0,0,0,0],"sum_hessian":[3.949E3,3.807E3,1.42E2,3.546E3,2.61E2,5.5E1,8.7E1,3.317E3,2.29E2,2.54E2,7E0,4.3E1,1.2E1,3.1E1,5.6E1],"tree_param":{"num_deleted":"0","num_feature":"125","num_nodes":"15","size_leaf_vector":"1"}},{"base_weights":[7.4110327E0,3.2396753E0,7.3340195E1,1.4396284E0,2.2535952E1,4.7365154E1,1.13199615E2,6.499017E-3,6.277618E-2,1.02404535E-1,2.6370877E-1,4.4384947E-1,1.2133784E0,7.30929E-1,1.4133298E0],"categories":[],"categories_nodes":[],"categories_segments":[],"categories_sizes":[],"default_left":[1,1,1,0,0,1,0,0,0,0,0,0,0,0,0],"id":28,"left_children":[1,3,5,7,9,11,13,-1,-1,-1,-1,-1,-1,-1,-1],"loss_changes":[1.0860681E6,1.2903983E5,2.3794562E5,1.2986266E4,1.4677234E4,2.6359781E4,9.34765E4,0E0,0E0,0E0,0E0,0E0,0E0,0E0,0E0],"parents":[2147483647,0,0,1,1,2,2,3,3,4,4,5,5,6,6],"right_children":[2,4,6,8,10,12,14,-1,-1,-1,-1,-1,-1,-1,-1],"split_conditions":[4.6333332E1,1.3333333E1,9.9E1,6E0,1.6E1,5E-1,9.2E1,6.499017E-3,6.277618E-2,1.02404535E-1,2.6370877E-1,4.4384947E-1,1.2133784E0,7.30929E-1,1.4133298E0],"split_indices":[93,93,95,95,95,4,91,0,0,0,0,0,0,0,0],"split_type":[0,0,0,0,0,0,0,0,0,0,0,0,0,0,0],"sum_hessian":[3.949E3,3.715E3,2.34E2,3.399E3,3.16E2,1.43E2,9.1E1,2.923E3,4.76E2,7.6E1,2.4E2,1.39E2,4E0,3.9E1,5.2E1],"tree_param":{"num_deleted":"0","num_feature":"125","num_nodes":"15","size_leaf_vector":"1"}},{"base_weights":[7.337995E0,4.085599E0,9.027942E1,2.0075827E0,3.2861526E1,5.343269E1,1.1451955E2,9.420616E-3,1.0459597E-1,3.0951637E-1,8.819913E-1,4.0484434E-1,9.812743E-1,5.860223E-1,1.43396E0],"categories":[],"categories_nodes":[],"categories_segments":[],"categories_sizes":[],"default_left":[1,1,0,1,0,0,1,0,0,0,0,0,0,0,0],"id":29,"left_children":[1,3,5,7,9,11,13,-1,-1,-1,-1,-1,-1,-1,-1],"loss_changes":[1.0651769E6,2.2728162E5,1.26963125E5,3.193372E4,2.4326406E4,3.1329203E4,1.353045E5,0E0,0E0,0E0,0E0,0E0,0E0,0E0,0E0],"parents":[2147483647,0,0,1,1,2,2,3,3,4,4,5,5,6,6],"right_children":[2,4,6,8,10,12,14,-1,-1,-1,-1,-1,-1,-1,-1],"split_conditions":[6.7E1,2.5666666E1,1.7041666E1,7.6666665E0,4.0845833E1,8.5375E1,4.8E1,9.420616E-3,1.0459597E-1,3.0951637E-1,8.819913E-1,4.0484434E-1,9.812743E-1,5.860223E-1,1.43396E0],"split_indices":[95,93,2,93,59,19,99,0,0,0,0,0,0,0,0],"split_type":[0,0,0,0,0,0,0,0,0,0,0,0,0,0,0],"sum_hessian":[3.949E3,3.801E3,1.48E2,3.546E3,2.55E2,6E1,8.8E1,3.15E3,3.96E2,2.48E2,7E0,4.8E1,1.2E1,3.1E1,5.7E1],"tree_param":{"num_deleted":"0","num_feature":"125","num_nodes":"15","size_leaf_vector":"1"}},{"base_weights":[7.265808E0,3.1731477E0,7.195117E1,1.3484201E0,2.1465155E1,4.6468845E1,1.1105447E2,5.2723805E-3,5.3534433E-2,9.9576265E-2,2.555472E-1,4.3516552E-1,1.1983935E0,8.323449E-1,1.5201792E0],"categories":[],"categories_nodes":[],"categories_segments":[],"categories_sizes":[],"default_left":[1,1,1,0,0,1,0,0,0,0,0,0,0,0,0],"id":30,"left_children":[1,3,5,7,9,11,13,-1,-1,-1,-1,-1,-1,-1,-1],"loss_changes":[1.04547575E6,1.2400344E5,2.290035E5,1.1113502E4,1.5605031E4,2.5977062E4,9.219025E4,0E0,0E0,0E0,0E0,0E0,0E0,0E0,0E0],"parents":[2147483647,0,0,1,1,2,2,3,3,4,4,5,5,6,6],"right_children":[2,4,6,8,10,12,14,-1,-1,-1,-1,-1,-1,-1,-1],"split_conditions":[4.6333332E1,1.25E1,9.9E1,5E0,1.6E1,5E-1,1.0383333E1,5.2723805E-3,5.3534433E-2,9.9576265E-2,2.555472E-1,4.3516552E-1,1.1983935E0,8.323449E-1,1.5201792E0],"split_indices":[93,93,95,95,95,4,70,0,0,0,0,0,0,0,0],"split_type":[0,0,0,0,0,0,0,0,0,0,0,0,0,0,0],"sum_hessian":[3.949E3,3.715E3,2.34E2,3.379E3,3.36E2,1.43E2,9.1E1,2.805E3,5.74E2,8.9E1,2.47E2,1.39E2,4E0,5.6E1,3.5E1],"tree_param":{"num_deleted":"0","num_feature":"125","num_nodes":"15","size_leaf_vector":"1"}},{"base_weights":[7.194264E0,3.1415277E0,7.124862E1,1.3349533E0,2.1251556E1,4.6015503E1,1.0996949E2,5.6577176E-3,5.5547696E-2,1.5625536E-1,2.9657945E-1,2.0665275E-1,5.336588E-1,6.13821E-1,1.3248948E0],"categories":[],"categories_nodes":[],"categories_segments":[],"categories_sizes":[],"default_left":[1,1,1,1,0,0,0,0,0,0,0,0,0,0,0],"id":31,"left_children":[1,3,5,7,9,11,13,-1,-1,-1,-1,-1,-1,-1,-1],"loss_changes":[1.025178E6,1.21548414E5,2.24546E5,1.0967676E4,1.5474828E4,2.572925E4,9.253275E4,0E0,0E0,0E0,0E0,0E0,0E0,0E0,0E0],"parents":[2147483647,0,0,1,1,2,2,3,3,4,4,5,5,6,6],"right_children":[2,4,6,8,10,12,14,-1,-1,-1,-1,-1,-1,-1,-1],"split_conditions":[4.6333332E1,1.25E1,9.9E1,4.428571E0,3.04E1,1.1166667E1,6E1,5.6577176E-3,5.5547696E-2,1.5625536E-1,2.9657945E-1,2.0665275E-1,5.336588E-1,6.13821E-1,1.3248948E0],"split_indices":[93,93,95,94,94,2,107,0,0,0,0,0,0,0,0],"split_type":[0,0,0,0,0,0,0,0,0,0,0,0,0,0,0],"sum_hessian":[3.949E3,3.715E3,2.34E2,3.379E3,3.36E2,1.43E2,9.1E1,2.859E3,5.2E2,2.03E2,1.33E2,3.3E1,1.1E2,3E1,6.1E1],"tree_param":{"num_deleted":"0","num_feature":"125","num_nodes":"15","size_leaf_vector":"1"}},{"base_weights":[7.1231294E0,3.962592E0,8.772206E1,1.9450195E0,3.1901524E1,5.1541283E1,1.11534485E2,1.177246E-2,1.3012528E-1,3.000978E-1,8.679435E-1,3.883877E-1,9.545526E-1,5.6663436E-1,1.3988516E0],"categories":[],"categories_nodes":[],"categories_segments":[],"categories_sizes":[],"default_left":[1,1,0,1,0,0,1,0,0,0,0,0,0,0,0],"id":32,"left_children":[1,3,5,7,9,11,13,-1,-1,-1,-1,-1,-1,-1,-1],"loss_changes":[1.00585944E6,2.142522E5,1.22622625E5,3.0124742E4,2.3979188E4,3.0319516E4,1.3052475E5,0E0,0E0,0E0,0E0,0E0,0E0,0E0,0E0],"parents":[2147483647,0,0,1,1,2,2,3,3,4,4,5,5,6,6],"right_children":[2,4,6,8,10,12,14,-1,-1,-1,-1,-1,-1,-1,-1],"split_conditions":[6.7E1,2.5666666E1,1.7041666E1,1.1E1,4.0845833E1,8.5375E1,4.8E1,1.177246E-2,1.3012528E-1,3.000978E-1,8.679435E-1,3.883877E-1,9.545526E-1,5.6663436E-1,1.3988516E0],"split_indices":[95,93,2,94,59,19,99,0,0,0,0,0,0,0,0],"split_type":[0,0,0,0,0,0,0,0,0,0,0,0,0,0,0],"sum_hessian":[3.949E3,3.801E3,1.48E2,3.546E3,2.55E2,6E1,8.8E1,3.317E3,2.29E2,2.48E2,7E0,4.8E1,1.2E1,3.1E1,5.7E1],"tree_param":{"num_deleted":"0","num_feature":"125","num_nodes":"15","size_leaf_vector":"1"}},{"base_weights":[7.053067E0,3.0770583E0,6.989476E1,1.520671E0,2.3339592E1,4.5139664E1,1.0788213E2,6.749601E-3,6.965303E-2,1.7629947E-1,3.134945E-1,4.2217204E-1,1.1794057E0,8.027301E-1,1.4859985E0],"categories":[],"categories_nodes":[],"categories_segments":[],"categories_sizes":[],"default_left":[1,1,1,1,0,1,0,0,0,0,0,0,0,0,0],"id":33,"left_children":[1,3,5,7,9,11,13,-1,-1,-1,-1,-1,-1,-1,-1],"loss_changes":[9.867285E5,1.1715358E5,2.1611975E5,1.5890325E4,1.15666875E4,2.5657969E4,9.1496125E4,0E0,0E0,0E0,0E0,0E0,0E0,0E0,0E0],"parents":[2147483647,0,0,1,1,2,2,3,3,4,4,5,5,6,6],"right_children":[2,4,6,8,10,12,14,-1,-1,-1,-1,-1,-1,-1,-1],"split_conditions":[4.6333332E1,1.6E1,9.9E1,5.571429E0,3.04E1,5E-1,1.0383333E1,6.749601E-3,6.965303E-2,1.7629947E-1,3.134945E-1,4.2217204E-1,1.1794057E0,8.027301E-1,1.4859985E0],"split_indices":[93,95,95,94,94,4,70,0,0,0,0,0,0,0,0],"split_type":[0,0,0,0,0,0,0,0,0,0,0,0,0,0,0],"sum_hessian":[3.949E3,3.715E3,2.34E2,3.451E3,2.64E2,1.43E2,9.1E1,2.988E3,4.63E2,1.56E2,1.08E2,1.39E2,4E0,5.6E1,3.5E1],"tree_param":{"num_deleted":"0","num_feature":"125","num_nodes":"15","size_leaf_vector":"1"}},{"base_weights":[6.983665E0,3.8831573E0,8.605176E1,1.9052761E0,3.127246E1,5.036423E1,1.09544876E2,8.880071E-3,9.974569E-2,2.939646E-1,8.575388E-1,3.7822348E-1,9.37633E-1,5.5382234E-1,1.3753899E0],"categories":[],"categories_nodes":[],"categories_segments":[],"categories_sizes":[],"default_left":[1,1,0,1,0,0,1,0,0,0,0,0,0,0,0],"id":34,"left_children":[1,3,5,7,9,11,13,-1,-1,-1,-1,-1,-1,-1,-1],"loss_changes":[9.680131E5,2.0590536E5,1.19406125E5,2.9107195E4,2.3644156E4,2.9656312E4,1.2732775E5,0E0,0E0,0E0,0E0,0E0,0E0,0E0,0E0],"parents":[2147483647,0,0,1,1,2,2,3,3,4,4,5,5,6,6],"right_children":[2,4,6,8,10,12,14,-1,-1,-1,-1,-1,-1,-1,-1],"split_conditions":[6.7E1,2.5666666E1,1.7041666E1,7.6666665E0,4.0845833E1,8.5375E1,4.8E1,8.880071E-3,9.974569E-2,2.939646E-1,8.575388E-1,3.7822348E-1,9.37633E-1,5.5382234E-1,1.3753899E0],"split_indices":[95,93,2,93,59,19,99,0,0,0,0,0,0,0,0],"split_type":[0,0,0,0,0,0,0,0,0,0,0,0,0,0,0],"sum_hessian":[3.949E3,3.801E3,1.48E2,3.546E3,2.55E2,6E1,8.8E1,3.15E3,3.96E2,2.48E2,7E0,4.8E1,1.2E1,3.1E1,5.7E1],"tree_param":{"num_deleted":"0","num_feature":"125","num_nodes":"15","size_leaf_vector":"1"}},{"base_weights":[6.914969E0,3.0139127E0,6.857204E1,1.4873446E0,2.2888247E1,4.428721E1,1.05837715E2,6.5878844E-3,6.8215415E-2,1.7291239E-1,3.0740008E-1,4.139207E-1,1.1649361E0,5.569168E-1,1.2690642E0],"categories":[],"categories_nodes":[],"categories_segments":[],"categories_sizes":[],"default_left":[1,1,1,1,0,1,0,0,0,0,0,0,0,0,0],"id":35,"left_children":[1,3,5,7,9,11,13,-1,-1,-1,-1,-1,-1,-1,-1],"loss_changes":[9.498777E5,1.1270762E5,2.0798538E5,1.5252246E4,1.111425E4,2.5280906E4,9.013156E4,0E0,0E0,0E0,0E0,0E0,0E0,0E0,0E0],"parents":[2147483647,0,0,1,1,2,2,3,3,4,4,5,5,6,6],"right_children":[2,4,6,8,10,12,14,-1,-1,-1,-1,-1,-1,-1,-1],"split_conditions":[4.6333332E1,1.6E1,9.9E1,5.571429E0,3.04E1,5E-1,7.5291667E0,6.5878844E-3,6.8215415E-2,1.7291239E-1,3.0740008E-1,4.139207E-1,1.1649361E0,5.569168E-1,1.2690642E0],"split_indices":[93,95,95,94,94,4,70,0,0,0,0,0,0,0,0],"split_type":[0,0,0,0,0,0,0,0,0,0,0,0,0,0,0],"sum_hessian":[3.949E3,3.715E3,2.34E2,3.451E3,2.64E2,1.43E2,9.1E1,2.988E3,4.63E2,1.56E2,1.08E2,1.39E2,4E0,2.8E1,6.3E1],"tree_param":{"num_deleted":"0","num_feature":"125","num_nodes":"15","size_leaf_vector":"1"}},{"base_weights":[6.846822E0,3.8694804E0,8.608367E1,1.866351E0,3.0973413E1,4.926689E1,1.085343E2,1.1237125E-2,1.2571603E-1,2.916553E-1,8.472801E-1,3.5511672E-1,9.203325E-1,5.412336E-1,1.3717668E0],"categories":[],"categories_nodes":[],"categories_segments":[],"categories_sizes":[],"default_left":[1,1,0,1,0,0,1,0,0,0,0,0,0,0,0],"id":36,"left_children":[1,3,5,7,9,11,13,-1,-1,-1,-1,-1,-1,-1,-1],"loss_changes":[9.315317E5,2.0668875E5,1.12851E5,2.8184996E4,2.2990562E4,2.9674328E4,1.2971994E5,0E0,0E0,0E0,0E0,0E0,0E0,0E0,0E0],"parents":[2147483647,0,0,1,1,2,2,3,3,4,4,5,5,6,6],"right_children":[2,4,6,8,10,12,14,-1,-1,-1,-1,-1,-1,-1,-1],"split_conditions":[6.9E1,2.5666666E1,1.7041666E1,1.1E1,4.0845833E1,8.5375E1,4.8E1,1.1237125E-2,1.2571603E-1,2.916553E-1,8.472801E-1,3.5511672E-1,9.203325E-1,5.412336E-1,1.3717668E0],"split_indices":[95,93,2,94,59,19,99,0,0,0,0,0,0,0,0],"split_type":[0,0,0,0,0,0,0,0,0,0,0,0,0,0,0],"sum_hessian":[3.949E3,3.807E3,1.42E2,3.546E3,2.61E2,5.5E1,8.7E1,3.317E3,2.29E2,2.54E2,7E0,4.3E1,1.2E1,3.1E1,5.6E1],"tree_param":{"num_deleted":"0","num_feature":"125","num_nodes":"15","size_leaf_vector":"1"}},{"base_weights":[6.779484E0,2.9519231E0,6.7274956E1,1.4547642E0,2.2443396E1,4.346032E1,1.03818794E2,5.3676995E-3,6.1149023E-2,1.6958533E-1,3.0137703E-1,3.9868096E-1,9.9544597E-1,7.662517E-1,1.4399152E0],"categories":[],"categories_nodes":[],"categories_segments":[],"categories_sizes":[],"default_left":[1,1,1,1,0,0,0,0,0,0,0,0,0,0,0],"id":37,"left_children":[1,3,5,7,9,11,13,-1,-1,-1,-1,-1,-1,-1,-1],"loss_changes":[9.1442425E5,1.0840702E5,2.000035E5,1.4764307E4,1.0672516E4,2.5042625E4,8.947125E4,0E0,0E0,0E0,0E0,0E0,0E0,0E0,0E0],"parents":[2147483647,0,0,1,1,2,2,3,3,4,4,5,5,6,6],"right_children":[2,4,6,8,10,12,14,-1,-1,-1,-1,-1,-1,-1,-1],"split_conditions":[4.6333332E1,1.6E1,9.9E1,4.571429E0,3.04E1,3.8066666E1,1.0383333E1,5.3676995E-3,6.1149023E-2,1.6958533E-1,3.0137703E-1,3.9868096E-1,9.9544597E-1,7.662517E-1,1.4399152E0],"split_indices":[93,95,95,94,94,59,70,0,0,0,0,0,0,0,0],"split_type":[0,0,0,0,0,0,0,0,0,0,0,0,0,0,0],"sum_hessian":[3.949E3,3.715E3,2.34E2,3.451E3,2.64E2,1.43E2,9.1E1,2.884E3,5.67E2,1.56E2,1.08E2,1.36E2,7E0,5.6E1,3.5E1],"tree_param":{"num_deleted":"0","num_feature":"125","num_nodes":"15","size_leaf_vector":"1"}},{"base_weights":[6.7127366E0,2.9225483E0,6.661753E1,1.4402359E0,2.2220737E1,4.3035397E1,1.0280459E2,5.314042E-3,6.053861E-2,1.679003E-1,2.9839092E-1,4.017126E-1,1.1462411E0,5.539469E-1,1.2485139E0],"categories":[],"categories_nodes":[],"categories_segments":[],"categories_sizes":[],"default_left":[1,1,1,1,0,1,0,0,0,0,0,0,0,0,0],"id":38,"left_children":[1,3,5,7,9,11,13,-1,-1,-1,-1,-1,-1,-1,-1],"loss_changes":[8.966545E5,1.06267695E5,1.9611719E5,1.4471049E4,1.0462859E4,2.4921125E4,8.9245625E4,0E0,0E0,0E0,0E0,0E0,0E0,0E0,0E0],"parents":[2147483647,0,0,1,1,2,2,3,3,4,4,5,5,6,6],"right_children":[2,4,6,8,10,12,14,-1,-1,-1,-1,-1,-1,-1,-1],"split_conditions":[4.6333332E1,1.6E1,9.9E1,4.571429E0,3.04E1,5E-1,6E1,5.314042E-3,6.053861E-2,1.679003E-1,2.9839092E-1,4.017126E-1,1.1462411E0,5.539469E-1,1.2485139E0],"split_indices":[93,95,95,94,94,4,107,0,0,0,0,0,0,0,0],"split_type":[0,0,0,0,0,0,0,0,0,0,0,0,0,0,0],"sum_hessian":[3.949E3,3.715E3,2.34E2,3.451E3,2.64E2,1.43E2,9.1E1,2.884E3,5.67E2,1.56E2,1.08E2,1.39E2,4E0,3E1,6.1E1],"tree_param":{"num_deleted":"0","num_feature":"125","num_nodes":"15","size_leaf_vector":"1"}},{"base_weights":[6.646592E0,3.6905715E0,8.2030106E1,1.2755077E0,2.4056643E1,4.7478947E1,1.0478955E2,5.435763E-3,5.759557E-2,1.4767393E-1,3.1716484E-1,3.5346806E-1,8.955556E-1,5.992655E-1,1.3704183E0],"categories":[],"categories_nodes":[],"categories_segments":[],"categories_sizes":[],"default_left":[1,1,0,0,0,0,0,0,0,0,0,0,0,0,0],"id":39,"left_children":[1,3,5,7,9,11,13,-1,-1,-1,-1,-1,-1,-1,-1],"loss_changes":[8.798964E5,1.8697205E5,1.12193125E5,1.1155727E4,2.8206781E4,2.797375E4,1.2056469E5,0E0,0E0,0E0,0E0,0E0,0E0,0E0,0E0],"parents":[2147483647,0,0,1,1,2,2,3,3,4,4,5,5,6,6],"right_children":[2,4,6,8,10,12,14,-1,-1,-1,-1,-1,-1,-1,-1],"split_conditions":[6.7E1,1.3333333E1,1.7041666E1,6E0,3.04E1,8.5375E1,6E1,5.435763E-3,5.759557E-2,1.4767393E-1,3.1716484E-1,3.5346806E-1,8.955556E-1,5.992655E-1,1.3704183E0],"split_indices":[95,93,2,95,94,19,109,0,0,0,0,0,0,0,0],"split_type":[0,0,0,0,0,0,0,0,0,0,0,0,0,0,0],"sum_hessian":[3.949E3,3.801E3,1.48E2,3.399E3,4.02E2,6E1,8.8E1,2.923E3,4.76E2,1.83E2,2.19E2,4.8E1,1.2E1,3.8E1,5E1],"tree_param":{"num_deleted":"0","num_feature":"125","num_nodes":"15","size_leaf_vector":"1"}},{"base_weights":[6.5810747E0,2.8627741E0,6.5349686E1,1.4091743E0,2.1787165E1,4.222518E1,1.00834236E2,4.7014807E-3,5.7145633E-2,1.6485468E-1,2.9223675E-1,3.8665462E-1,9.790716E-1,7.3835003E-1,1.4078207E0],"categories":[],"categories_nodes":[],"categories_segments":[],"categories_sizes":[],"default_left":[1,1,1,0,0,0,0,0,0,0,0,0,0,0,0],"id":40,"left_children":[1,3,5,7,9,11,13,-1,-1,-1,-1,-1,-1,-1,-1],"loss_changes":[8.6296425E5,1.0219084E5,1.8857456E5,1.39533125E4,9.966164E3,2.4756922E4,8.8833E4,0E0,0E0,0E0,0E0,0E0,0E0,0E0,0E0],"parents":[2147483647,0,0,1,1,2,2,3,3,4,4,5,5,6,6],"right_children":[2,4,6,8,10,12,14,-1,-1,-1,-1,-1,-1,-1,-1],"split_conditions":[4.6333332E1,1.6E1,9.9E1,4.6666665E0,3.04E1,3.8066666E1,1.0383333E1,4.7014807E-3,5.7145633E-2,1.6485468E-1,2.9223675E-1,3.8665462E-1,9.790716E-1,7.3835003E-1,1.4078207E0],"split_indices":[93,95,95,93,94,59,70,0,0,0,0,0,0,0,0],"split_type":[0,0,0,0,0,0,0,0,0,0,0,0,0,0,0],"sum_hessian":[3.949E3,3.715E3,2.34E2,3.451E3,2.64E2,1.43E2,9.1E1,2.834E3,6.17E2,1.56E2,1.08E2,1.36E2,7E0,5.6E1,3.5E1],"tree_param":{"num_deleted":"0","num_feature":"125","num_nodes":"15","size_leaf_vector":"1"}},{"base_weights":[6.5162845E0,3.616342E0,8.0469734E1,1.248469E0,2.3584461E1,4.6370426E1,1.0293701E2,5.303038E-3,5.6481894E-2,1.4486933E-1,3.1086102E-1,3.4386405E-1,8.7974006E-1,5.095419E-1,1.298424E0],"categories":[],"categories_nodes":[],"categories_segments":[],"categories_sizes":[],"default_left":[1,1,0,0,0,0,1,0,0,0,0,0,0,0,0],"id":41,"left_children":[1,3,5,7,9,11,13,-1,-1,-1,-1,-1,-1,-1,-1],"loss_changes":[8.468288E5,1.7973662E5,1.093785E5,1.0740074E4,2.7052953E4,2.7388156E4,1.1786094E5,0E0,0E0,0E0,0E0,0E0,0E0,0E0,0E0],"parents":[2147483647,0,0,1,1,2,2,3,3,4,4,5,5,6,6],"right_children":[2,4,6,8,10,12,14,-1,-1,-1,-1,-1,-1,-1,-1],"split_conditions":[6.7E1,1.3333333E1,1.7041666E1,6E0,3.04E1,8.5375E1,4.8E1,5.303038E-3,5.6481894E-2,1.4486933E-1,3.1086102E-1,3.4386405E-1,8.7974006E-1,5.095419E-1,1.298424E0],"split_indices":[95,93,2,95,94,19,99,0,0,0,0,0,0,0,0],"split_type":[0,0,0,0,0,0,0,0,0,0,0,0,0,0,0],"sum_hessian":[3.949E3,3.801E3,1.48E2,3.399E3,4.02E2,6E1,8.8E1,2.923E3,4.76E2,1.83E2,2.19E2,4.8E1,1.2E1,3.1E1,5.7E1],"tree_param":{"num_deleted":"0","num_feature":"125","num_nodes":"15","size_leaf_vector":"1"}},{"base_weights":[6.45202E0,2.804086E0,6.410849E1,1.3787686E0,2.1360283E1,4.1422955E1,9.891946E1,6.002924E-3,6.3905925E-2,1.349688E-1,2.612069E-1,3.8591224E-1,1.1242679E0,7.2183895E-1,1.3850297E0],"categories":[],"categories_nodes":[],"categories_segments":[],"categories_sizes":[],"default_left":[1,1,1,1,1,1,0,0,0,0,0,0,0,0,0],"id":42,"left_children":[1,3,5,7,9,11,13,-1,-1,-1,-1,-1,-1,-1,-1],"loss_changes":[8.3061194E5,9.825306E4,1.8148319E5,1.34644375E4,9.567195E3,2.46145E4,8.736475E4,0E0,0E0,0E0,0E0,0E0,0E0,0E0,0E0],"parents":[2147483647,0,0,1,1,2,2,3,3,4,4,5,5,6,6],"right_children":[2,4,6,8,10,12,14,-1,-1,-1,-1,-1,-1,-1,-1],"split_conditions":[4.6333332E1,1.6E1,9.9E1,5.571429E0,1.72E1,5E-1,1.0383333E1,6.002924E-3,6.3905925E-2,1.349688E-1,2.612069E-1,3.8591224E-1,1.1242679E0,7.2183895E-1,1.3850297E0],"split_indices":[93,95,95,94,107,4,70,0,0,0,0,0,0,0,0],"split_type":[0,0,0,0,0,0,0,0,0,0,0,0,0,0,0],"sum_hessian":[3.949E3,3.715E3,2.34E2,3.451E3,2.64E2,1.43E2,9.1E1,2.988E3,4.63E2,1.01E2,1.63E2,1.39E2,4E0,5.6E1,3.5E1],"tree_param":{"num_deleted":"0","num_feature":"125","num_nodes":"15","size_leaf_vector":"1"}},{"base_weights":[6.3885336E0,3.5436833E0,7.893707E1,1.222231E0,2.3120344E1,4.529938E1,1.0110518E2,5.162095E-3,5.547566E-2,2.015961E-1,4.622663E-1,3.3465323E-1,8.64201E-1,5.718106E-1,1.3271176E0],"categories":[],"categories_nodes":[],"categories_segments":[],"categories_sizes":[],"default_left":[1,1,0,0,1,0,0,0,0,0,0,0,0,0,0],"id":43,"left_children":[1,3,5,7,9,11,13,-1,-1,-1,-1,-1,-1,-1,-1],"loss_changes":[8.149596E5,1.727585E5,1.06527E5,1.0379987E4,2.6637922E4,2.6792047E4,1.1596931E5,0E0,0E0,0E0,0E0,0E0,0E0,0E0,0E0],"parents":[2147483647,0,0,1,1,2,2,3,3,4,4,5,5,6,6],"right_children":[2,4,6,8,10,12,14,-1,-1,-1,-1,-1,-1,-1,-1],"split_conditions":[6.7E1,1.3333333E1,1.7041666E1,6E0,8.4E1,8.5375E1,6E1,5.162095E-3,5.547566E-2,2.015961E-1,4.622663E-1,3.3465323E-1,8.64201E-1,5.718106E-1,1.3271176E0],"split_indices":[95,93,2,95,98,19,109,0,0,0,0,0,0,0,0],"split_type":[0,0,0,0,0,0,0,0,0,0,0,0,0,0,0],"sum_hessian":[3.949E3,3.801E3,1.48E2,3.399E3,4.02E2,6E1,8.8E1,2.923E3,4.76E2,3.58E2,4.4E1,4.8E1,1.2E1,3.8E1,5E1],"tree_param":{"num_deleted":"0","num_feature":"125","num_nodes":"15","size_leaf_vector":"1"}},{"base_weights":[6.325616E0,2.7463384E0,6.2896976E1,1.3484564E0,2.0945366E1,4.065609E1,9.702513E1,4.886607E-3,5.7131786E-2,1.3192934E-1,2.5639284E-1,1.6141094E-1,4.779892E-1,5.898165E-1,1.2390652E0],"categories":[],"categories_nodes":[],"categories_segments":[],"categories_sizes":[],"default_left":[1,1,1,1,1,0,0,0,0,0,0,0,0,0,0],"id":44,"left_children":[1,3,5,7,9,11,13,-1,-1,-1,-1,-1,-1,-1,-1],"loss_changes":[7.996414E5,9.4507125E4,1.7442981E5,1.2951769E4,9.304906E3,2.4443766E4,8.6776625E4,0E0,0E0,0E0,0E0,0E0,0E0,0E0,0E0],"parents":[2147483647,0,0,1,1,2,2,3,3,4,4,5,5,6,6],"right_children":[2,4,6,8,10,12,14,-1,-1,-1,-1,-1,-1,-1,-1],"split_conditions":[4.6333332E1,1.6E1,9.9E1,4.571429E0,1.72E1,1.1166667E1,9.2E1,4.886607E-3,5.7131786E-2,1.3192934E-1,2.5639284E-1,1.6141094E-1,4.779892E-1,5.898165E-1,1.2390652E0],"split_indices":[93,95,95,94,107,2,91,0,0,0,0,0,0,0,0],"split_type":[0,0,0,0,0,0,0,0,0,0,0,0,0,0,0],"sum_hessian":[3.949E3,3.715E3,2.34E2,3.451E3,2.64E2,1.43E2,9.1E1,2.884E3,5.67E2,1.01E2,1.63E2,3.3E1,1.1E2,3.9E1,5.2E1],"tree_param":{"num_deleted":"0","num_feature":"125","num_nodes":"15","size_leaf_vector":"1"}},{"base_weights":[6.2630987E0,3.4725173E0,7.742771E1,1.6945819E0,2.8093082E1,4.4263832E1,9.928803E1,1.0103675E-2,1.1557748E-1,2.6272383E-1,8.1250656E-1,3.259166E-1,8.4854025E-1,4.8451778E-1,1.2562375E0],"categories":[],"categories_nodes":[],"categories_segments":[],"categories_sizes":[],"default_left":[1,1,0,1,0,0,1,0,0,0,0,0,0,0,0],"id":45,"left_children":[1,3,5,7,9,11,13,-1,-1,-1,-1,-1,-1,-1,-1],"loss_changes":[7.8416406E5,1.6638028E5,1.03626125E5,2.392532E4,2.2642E4,2.6134781E4,1.13067375E5,0E0,0E0,0E0,0E0,0E0,0E0,0E0,0E0],"parents":[2147483647,0,0,1,1,2,2,3,3,4,4,5,5,6,6],"right_children":[2,4,6,8,10,12,14,-1,-1,-1,-1,-1,-1,-1,-1],"split_conditions":[6.7E1,2.5666666E1,1.7041666E1,1.1E1,4.0845833E1,8.5375E1,4.8E1,1.0103675E-2,1.1557748E-1,2.6272383E-1,8.1250656E-1,3.259166E-1,8.4854025E-1,4.8451778E-1,1.2562375E0],"split_indices":[95,93,2,94,59,19,99,0,0,0,0,0,0,0,0],"split_type":[0,0,0,0,0,0,0,0,0,0,0,0,0,0,0],"sum_hessian":[3.949E3,3.801E3,1.48E2,3.546E3,2.55E2,6E1,8.8E1,3.317E3,2.29E2,2.48E2,7E0,4.8E1,1.2E1,3.1E1,5.7E1],"tree_param":{"num_deleted":"0","num_feature":"125","num_nodes":"15","size_leaf_vector":"1"}},{"base_weights":[6.2015095E0,2.6899822E0,6.170208E1,1.3189274E0,2.0539759E1,3.988609E1,9.517818E1,4.2800037E-3,5.4038126E-2,1.5507916E-1,2.759902E-1,3.6381358E-1,9.4918835E-1,6.875981E-1,1.3436341E0],"categories":[],"categories_nodes":[],"categories_segments":[],"categories_sizes":[],"default_left":[1,1,1,0,0,0,0,0,0,0,0,0,0,0,0],"id":46,"left_children":[1,3,5,7,9,11,13,-1,-1,-1,-1,-1,-1,-1,-1],"loss_changes":[7.6965656E5,9.091464E4,1.678275E5,1.2560672E4,8.985094E3,2.4320719E4,8.600056E4,0E0,0E0,0E0,0E0,0E0,0E0,0E0,0E0],"parents":[2147483647,0,0,1,1,2,2,3,3,4,4,5,5,6,6],"right_children":[2,4,6,8,10,12,14,-1,-1,-1,-1,-1,-1,-1,-1],"split_conditions":[4.6333332E1,1.6E1,9.9E1,4.6666665E0,3.04E1,3.8066666E1,1.0383333E1,4.2800037E-3,5.4038126E-2,1.5507916E-1,2.759902E-1,3.6381358E-1,9.4918835E-1,6.875981E-1,1.3436341E0],"split_indices":[93,95,95,93,94,59,70,0,0,0,0,0,0,0,0],"split_type":[0,0,0,0,0,0,0,0,0,0,0,0,0,0,0],"sum_hessian":[3.949E3,3.715E3,2.34E2,3.451E3,2.64E2,1.43E2,9.1E1,2.834E3,6.17E2,1.56E2,1.08E2,1.36E2,7E0,5.6E1,3.5E1],"tree_param":{"num_deleted":"0","num_feature":"125","num_nodes":"15","size_leaf_vector":"1"}},{"base_weights":[6.140465E0,3.1188707E0,6.940875E1,1.1698153E0,2.0924433E1,3.803533E1,9.0952126E1,3.8845183E-3,4.8602488E-2,1.3321791E0,2.0262678E-1,2.2914823E-2,4.2874774E-1,4.6239266E-1,1.1957245E0],"categories":[],"categories_nodes":[],"categories_segments":[],"categories_sizes":[],"default_left":[1,1,1,0,0,0,0,0,0,0,0,0,0,0,0],"id":47,"left_children":[1,3,5,7,9,11,13,-1,-1,-1,-1,-1,-1,-1,-1],"loss_changes":[7.549094E5,1.30844414E5,1.1820069E5,9.80225E3,2.4944281E4,1.2875273E4,1.3011894E5,0E0,0E0,0E0,0E0,0E0,0E0,0E0,0E0],"parents":[2147483647,0,0,1,1,2,2,3,3,4,4,5,5,6,6],"right_children":[2,4,6,8,10,12,14,-1,-1,-1,-1,-1,-1,-1,-1],"split_conditions":[5.7E1,1.3333333E1,4.6E1,5E0,1E0,5.108333E0,1.7041666E1,3.8845183E-3,4.8602488E-2,1.3321791E0,2.0262678E-1,2.2914823E-2,4.2874774E-1,4.6239266E-1,1.1957245E0],"split_indices":[95,93,99,95,5,69,2,0,0,0,0,0,0,0,0],"split_type":[0,0,0,0,0,0,0,0,0,0,0,0,0,0,0],"sum_hessian":[3.949E3,3.77E3,1.79E2,3.399E3,3.71E2,7.4E1,1.05E2,2.806E3,5.93E2,1E0,3.7E2,9E0,6.5E1,4.2E1,6.3E1],"tree_param":{"num_deleted":"0","num_feature":"125","num_nodes":"15","size_leaf_vector":"1"}},{"base_weights":[6.079996E0,2.633646E0,6.0550457E1,1.2899467E0,2.0127293E1,3.9138546E1,9.340659E1,4.365142E-3,5.3954575E-2,1.2609972E-1,2.4679969E-1,3.6352587E-1,1.0931755E0,6.7260784E-1,1.322095E0],"categories":[],"categories_nodes":[],"categories_segments":[],"categories_sizes":[],"default_left":[1,1,1,1,1,1,0,0,0,0,0,0,0,0,0],"id":48,"left_children":[1,3,5,7,9,11,13,-1,-1,-1,-1,-1,-1,-1,-1],"loss_changes":[7.4135144E5,8.732308E4,1.6166969E5,1.209268E4,8.758133E3,2.4180266E4,8.444456E4,0E0,0E0,0E0,0E0,0E0,0E0,0E0,0E0],"parents":[2147483647,0,0,1,1,2,2,3,3,4,4,5,5,6,6],"right_children":[2,4,6,8,10,12,14,-1,-1,-1,-1,-1,-1,-1,-1],"split_conditions":[4.6333332E1,1.6E1,9.9E1,4.428571E0,1.72E1,5E-1,1.0383333E1,4.365142E-3,5.3954575E-2,1.2609972E-1,2.4679969E-1,3.6352587E-1,1.0931755E0,6.7260784E-1,1.322095E0],"split_indices":[93,95,95,94,107,4,70,0,0,0,0,0,0,0,0],"split_type":[0,0,0,0,0,0,0,0,0,0,0,0,0,0,0],"sum_hessian":[3.949E3,3.715E3,2.34E2,3.451E3,2.64E2,1.43E2,9.1E1,2.858E3,5.93E2,1.01E2,1.63E2,1.39E2,4E0,5.6E1,3.5E1],"tree_param":{"num_deleted":"0","num_feature":"125","num_nodes":"15","size_leaf_vector":"1"}},{"base_weights":[6.0201793E0,2.6074255E0,5.9959637E1,1.2770641E0,1.9927425E1,3.8757275E1,9.249421E1,4.111936E-3,5.2470736E-2,1.5003736E-1,2.6836523E-1,3.599166E-1,1.0844302E0,4.6799284E-1,1.1384983E0],"categories":[],"categories_nodes":[],"categories_segments":[],"categories_sizes":[],"default_left":[1,1,1,0,0,1,0,0,0,0,0,0,0,0,0],"id":49,"left_children":[1,3,5,7,9,11,13,-1,-1,-1,-1,-1,-1,-1,-1],"loss_changes":[7.26968E5,8.55981E4,1.5852044E5,1.1864141E4,8.6121875E3,2.3849219E4,8.444956E4,0E0,0E0,0E0,0E0,0E0,0E0,0E0,0E0],"parents":[2147483647,0,0,1,1,2,2,3,3,4,4,5,5,6,6],"right_children":[2,4,6,8,10,12,14,-1,-1,-1,-1,-1,-1,-1,-1],"split_conditions":[4.6333332E1,1.6E1,9.9E1,4.6666665E0,3.04E1,5E-1,6E1,4.111936E-3,5.2470736E-2,1.5003736E-1,2.6836523E-1,3.599166E-1,1.0844302E0,4.6799284E-1,1.1384983E0],"split_indices":[93,95,95,93,94,4,107,0,0,0,0,0,0,0,0],"split_type":[0,0,0,0,0,0,0,0,0,0,0,0,0,0,0],"sum_hessian":[3.949E3,3.715E3,2.34E2,3.451E3,2.64E2,1.43E2,9.1E1,2.834E3,6.17E2,1.56E2,1.08E2,1.39E2,4E0,3E1,6.1E1],"tree_param":{"num_deleted":"0","num_feature":"125","num_nodes":"15","size_leaf_vector":"1"}},{"base_weights":[5.9608703E0,3.3556519E0,7.529451E1,1.4624087E0,2.5251213E1,4.1479774E1,9.595735E1,8.57375E-3,1.0365852E-1,9.082471E-2,3.1109706E-1,2.8721696E-1,8.1470215E-1,5.286585E-1,1.2764958E0],"categories":[],"categories_nodes":[],"categories_segments":[],"categories_sizes":[],"default_left":[1,1,0,1,0,0,0,0,0,0,0,0,0,0,0],"id":50,"left_children":[1,3,5,7,9,11,13,-1,-1,-1,-1,-1,-1,-1,-1],"loss_changes":[7.13233E5,1.5781847E5,9.5935E4,1.8877521E4,2.8418969E4,2.6231305E4,1.1343025E5,0E0,0E0,0E0,0E0,0E0,0E0,0E0,0E0],"parents":[2147483647,0,0,1,1,2,2,3,3,4,4,5,5,6,6],"right_children":[2,4,6,8,10,12,14,-1,-1,-1,-1,-1,-1,-1,-1],"split_conditions":[6.9E1,2.2428572E1,1.7041666E1,1.1E1,1.1166667E1,8.5375E1,6.9333336E1,8.57375E-3,1.0365852E-1,9.082471E-2,3.1109706E-1,2.8721696E-1,8.1470215E-1,5.286585E-1,1.2764958E0],"split_indices":[95,94,2,95,2,19,106,0,0,0,0,0,0,0,0],"split_type":[0,0,0,0,0,0,0,0,0,0,0,0,0,0,0],"sum_hessian":[3.949E3,3.807E3,1.42E2,3.505E3,3.02E2,5.5E1,8.7E1,3.283E3,2.22E2,8.1E1,2.21E2,4.3E1,1.2E1,3.8E1,4.9E1],"tree_param":{"num_deleted":"0","num_feature":"125","num_nodes":"15","size_leaf_vector":"1"}},{"base_weights":[5.9021273E0,2.552962E0,5.8836582E1,1.2494049E0,1.9524004E1,3.8045868E1,9.0739044E1,2.5955185E-3,4.6231702E-2,1.2205328E-1,2.3956813E-1,3.459213E-1,9.243532E-1,6.4773E-1,1.2933142E0],"categories":[],"categories_nodes":[],"categories_segments":[],"categories_sizes":[],"default_left":[1,1,1,0,1,0,0,0,0,0,0,0,0,0,0],"id":51,"left_children":[1,3,5,7,9,11,13,-1,-1,-1,-1,-1,-1,-1,-1],"loss_changes":[7.001305E5,8.218364E4,1.5241731E5,1.1526867E4,8.3048125E3,2.3852375E4,8.381525E4,0E0,0E0,0E0,0E0,0E0,0E0,0E0,0E0],"parents":[2147483647,0,0,1,1,2,2,3,3,4,4,5,5,6,6],"right_children":[2,4,6,8,10,12,14,-1,-1,-1,-1,-1,-1,-1,-1],"split_conditions":[4.6333332E1,1.6E1,9.9E1,4E0,1.72E1,3.8066666E1,1.0383333E1,2.5955185E-3,4.6231702E-2,1.2205328E-1,2.3956813E-1,3.459213E-1,9.243532E-1,6.4773E-1,1.2933142E0],"split_indices":[93,95,95,95,107,59,70,0,0,0,0,0,0,0,0],"split_type":[0,0,0,0,0,0,0,0,0,0,0,0,0,0,0],"sum_hessian":[3.949E3,3.715E3,2.34E2,3.451E3,2.64E2,1.43E2,9.1E1,2.669E3,7.82E2,1.01E2,1.63E2,1.36E2,7E0,5.6E1,3.5E1],"tree_param":{"num_deleted":"0","num_feature":"125","num_nodes":"15","size_leaf_vector":"1"}},{"base_weights":[5.844023E0,2.9617903E0,6.6194336E1,1.1063297E0,1.9912338E1,3.580331E1,8.7072945E1,4.485391E-3,5.136253E-2,1.3157237E0,1.9256724E-1,7.361595E-3,4.0574038E-1,4.3720967E-1,1.1483954E0],"categories":[],"categories_nodes":[],"categories_segments":[],"categories_sizes":[],"default_left":[1,1,1,0,0,0,0,0,0,0,0,0,0,0,0],"id":52,"left_children":[1,3,5,7,9,11,13,-1,-1,-1,-1,-1,-1,-1,-1],"loss_changes":[6.868814E5,1.18579984E5,1.1109656E5,9.01057E3,2.4698875E4,1.2517328E4,1.2257525E5,0E0,0E0,0E0,0E0,0E0,0E0,0E0,0E0],"parents":[2147483647,0,0,1,1,2,2,3,3,4,4,5,5,6,6],"right_children":[2,4,6,8,10,12,14,-1,-1,-1,-1,-1,-1,-1,-1],"split_conditions":[5.7E1,1.3333333E1,4.6E1,6E0,1E0,5.108333E0,1.7041666E1,4.485391E-3,5.136253E-2,1.3157237E0,1.9256724E-1,7.361595E-3,4.0574038E-1,4.3720967E-1,1.1483954E0],"split_indices":[95,93,99,95,5,69,2,0,0,0,0,0,0,0,0],"split_type":[0,0,0,0,0,0,0,0,0,0,0,0,0,0,0],"sum_hessian":[3.949E3,3.77E3,1.79E2,3.399E3,3.71E2,7.4E1,1.05E2,2.923E3,4.76E2,1E0,3.7E2,9E0,6.5E1,4.2E1,6.3E1],"tree_param":{"num_deleted":"0","num_feature":"125","num_nodes":"15","size_leaf_vector":"1"}},{"base_weights":[5.7864847E0,2.499496E0,5.773825E1,1.0346828E0,1.7041185E1,3.7334316E1,8.904726E1,3.4277262E-3,4.6691388E-2,1.1653318E-1,2.4035776E-1,3.391981E-1,9.1140914E-1,5.2213186E-1,1.1516641E0],"categories":[],"categories_nodes":[],"categories_segments":[],"categories_sizes":[],"default_left":[1,1,1,1,0,0,0,0,0,0,0,0,0,0,0],"id":53,"left_children":[1,3,5,7,9,11,13,-1,-1,-1,-1,-1,-1,-1,-1],"loss_changes":[6.74377E5,7.913636E4,1.4679975E5,8.490599E3,1.2533117E4,2.3364625E4,8.249781E4,0E0,0E0,0E0,0E0,0E0,0E0,0E0,0E0],"parents":[2147483647,0,0,1,1,2,2,3,3,4,4,5,5,6,6],"right_children":[2,4,6,8,10,12,14,-1,-1,-1,-1,-1,-1,-1,-1],"split_conditions":[4.6333332E1,1.3285714E1,9.9E1,5E0,2.7E1,3.8066666E1,9.2E1,3.4277262E-3,4.6691388E-2,1.1653318E-1,2.4035776E-1,3.391981E-1,9.1140914E-1,5.2213186E-1,1.1516641E0],"split_indices":[93,94,95,95,95,59,91,0,0,0,0,0,0,0,0],"split_type":[0,0,0,0,0,0,0,0,0,0,0,0,0,0,0],"sum_hessian":[3.949E3,3.715E3,2.34E2,3.376E3,3.39E2,1.43E2,9.1E1,2.837E3,5.39E2,1.93E2,1.46E2,1.36E2,7E0,3.9E1,5.2E1],"tree_param":{"num_deleted":"0","num_feature":"125","num_nodes":"15","size_leaf_vector":"1"}},{"base_weights":[5.7294636E0,2.4746103E0,5.7173313E1,1.2081257E0,1.8963028E1,3.6969658E1,8.817497E1,3.9647063E-3,5.1126942E-2,1.432531E-1,2.5784457E-1,1.314223E-1,4.3935087E-1,6.253784E-1,1.263178E0],"categories":[],"categories_nodes":[],"categories_segments":[],"categories_sizes":[],"default_left":[1,1,1,1,1,0,0,0,0,0,0,0,0,0,0],"id":54,"left_children":[1,3,5,7,9,11,13,-1,-1,-1,-1,-1,-1,-1,-1],"loss_changes":[6.612551E5,7.757582E4,1.4393169E5,1.0937924E4,8.0141406E3,2.3322031E4,8.206469E4,0E0,0E0,0E0,0E0,0E0,0E0,0E0,0E0],"parents":[2147483647,0,0,1,1,2,2,3,3,4,4,5,5,6,6],"right_children":[2,4,6,8,10,12,14,-1,-1,-1,-1,-1,-1,-1,-1],"split_conditions":[4.6333332E1,1.6E1,9.9E1,4.428571E0,2.6142857E1,1.1166667E1,1.0383333E1,3.9647063E-3,5.1126942E-2,1.432531E-1,2.5784457E-1,1.314223E-1,4.3935087E-1,6.253784E-1,1.263178E0],"split_indices":[93,95,95,94,113,2,70,0,0,0,0,0,0,0,0],"split_type":[0,0,0,0,0,0,0,0,0,0,0,0,0,0,0],"sum_hessian":[3.949E3,3.715E3,2.34E2,3.451E3,2.64E2,1.43E2,9.1E1,2.858E3,5.93E2,1.59E2,1.05E2,3.3E1,1.1E2,5.6E1,3.5E1],"tree_param":{"num_deleted":"0","num_feature":"125","num_nodes":"15","size_leaf_vector":"1"}},{"base_weights":[5.672907E0,2.8716903E0,6.432688E1,1.3629152E0,2.2587646E1,3.4499683E1,8.4824165E1,5.517193E-3,7.099826E-2,1.3023913E0,2.169667E-1,-5.1055715E-4,3.921192E-1,4.2232963E-1,1.1211475E0],"categories":[],"categories_nodes":[],"categories_segments":[],"categories_sizes":[],"default_left":[1,1,1,1,0,0,0,0,0,0,0,0,0,0,0],"id":55,"left_children":[1,3,5,7,9,11,13,-1,-1,-1,-1,-1,-1,-1,-1],"loss_changes":[6.488101E5,1.12144945E5,1.0712131E5,1.6302852E4,2.2879438E4,1.2212852E4,1.1847306E5,0E0,0E0,0E0,0E0,0E0,0E0,0E0,0E0],"parents":[2147483647,0,0,1,1,2,2,3,3,4,4,5,5,6,6],"right_children":[2,4,6,8,10,12,14,-1,-1,-1,-1,-1,-1,-1,-1],"split_conditions":[5.7E1,2.2428572E1,4.6E1,7E0,1E0,5.108333E0,1.7041666E1,5.517193E-3,7.099826E-2,1.3023913E0,2.169667E-1,-5.1055715E-4,3.921192E-1,4.2232963E-1,1.1211475E0],"split_indices":[95,94,99,95,5,69,2,0,0,0,0,0,0,0,0],"split_type":[0,0,0,0,0,0,0,0,0,0,0,0,0,0,0],"sum_hessian":[3.949E3,3.77E3,1.79E2,3.503E3,2.67E2,7.4E1,1.05E2,3.07E3,4.33E2,1E0,2.66E2,9E0,6.5E1,4.2E1,6.3E1],"tree_param":{"num_deleted":"0","num_feature":"125","num_nodes":"15","size_leaf_vector":"1"}},{"base_weights":[5.6170716E0,3.1556017E0,7.112519E1,1.5023118E0,2.5526073E1,4.2217854E1,9.400939E1,8.850853E-3,1.0399944E-1,2.3810035E-1,7.7034E-1,5.7658845E-1,1.5205905E-1,6.396697E-1,1.7943618E0],"categories":[],"categories_nodes":[],"categories_segments":[],"categories_sizes":[],"default_left":[1,1,0,1,0,0,0,0,0,0,0,0,0,0,0],"id":56,"left_children":[1,3,5,7,9,11,13,-1,-1,-1,-1,-1,-1,-1,-1],"loss_changes":[6.366984E5,1.4080005E5,9.062869E4,1.9470408E4,2.1323875E4,2.623418E4,1.9126981E5,0E0,0E0,0E0,0E0,0E0,0E0,0E0,0E0],"parents":[2147483647,0,0,1,1,2,2,3,3,4,4,5,5,6,6],"right_children":[2,4,6,8,10,12,14,-1,-1,-1,-1,-1,-1,-1,-1],"split_conditions":[6.9E1,2.5666666E1,6E1,1.1E1,4.0845833E1,4.3E1,1.0975E1,8.850853E-3,1.0399944E-1,2.3810035E-1,7.7034E-1,5.7658845E-1,1.5205905E-1,6.396697E-1,1.7943618E0],"split_indices":[95,93,107,94,59,21,70,0,0,0,0,0,0,0,0],"split_type":[0,0,0,0,0,0,0,0,0,0,0,0,0,0,0],"sum_hessian":[3.949E3,3.807E3,1.42E2,3.546E3,2.61E2,6.4E1,7.8E1,3.317E3,2.29E2,2.54E2,7E0,4E1,2.4E1,5.9E1,1.9E1],"tree_param":{"num_deleted":"0","num_feature":"125","num_nodes":"15","size_leaf_vector":"1"}},{"base_weights":[5.5619855E0,2.397632E0,5.55755E1,1.166705E0,1.842315E1,3.518905E1,8.472684E1,2.263398E-3,4.371824E-2,1.3908148E-1,2.5064442E-1,3.238862E-1,1.0432295E0,7.850434E-1,2.5145593E0],"categories":[],"categories_nodes":[],"categories_segments":[],"categories_sizes":[],"default_left":[1,1,0,0,1,1,1,0,0,0,0,0,0,0,0],"id":57,"left_children":[1,3,5,7,9,11,13,-1,-1,-1,-1,-1,-1,-1,-1],"loss_changes":[6.2499556E5,7.328122E4,1.3667725E5,1.0403279E4,7.597547E3,2.3725797E4,7.985675E4,0E0,0E0,0E0,0E0,0E0,0E0,0E0,0E0],"parents":[2147483647,0,0,1,1,2,2,3,3,4,4,5,5,6,6],"right_children":[2,4,6,8,10,12,14,-1,-1,-1,-1,-1,-1,-1,-1],"split_conditions":[4.6333332E1,1.6E1,9.9E1,4E0,2.6142857E1,5E-1,3.47E2,2.263398E-3,4.371824E-2,1.3908148E-1,2.5064442E-1,3.238862E-1,1.0432295E0,7.850434E-1,2.5145593E0],"split_indices":[93,95,95,95,113,4,99,0,0,0,0,0,0,0,0],"split_type":[0,0,0,0,0,0,0,0,0,0,0,0,0,0,0],"sum_hessian":[3.949E3,3.715E3,2.34E2,3.451E3,2.64E2,1.39E2,9.5E1,2.669E3,7.82E2,1.59E2,1.05E2,1.35E2,4E0,9.3E1,2E0],"tree_param":{"num_deleted":"0","num_feature":"125","num_nodes":"15","size_leaf_vector":"1"}},{"base_weights":[5.5076575E0,3.0922155E0,6.979084E1,1.3849497E0,2.3953989E1,4.127314E1,9.2371346E1,7.7724555E-3,9.840588E-2,7.548796E-2,3.00114E-1,5.6568414E-1,1.4537965E-1,6.26693E-1,1.768589E0],"categories":[],"categories_nodes":[],"categories_segments":[],"categories_sizes":[],"default_left":[1,1,0,1,0,0,0,0,0,0,0,0,0,0,0],"id":58,"left_children":[1,3,5,7,9,11,13,-1,-1,-1,-1,-1,-1,-1,-1],"loss_changes":[6.131098E5,1.3559481E5,8.827156E4,1.8085102E4,2.8392875E4,2.5757531E4,1.8716312E5,0E0,0E0,0E0,0E0,0E0,0E0,0E0,0E0],"parents":[2147483647,0,0,1,1,2,2,3,3,4,4,5,5,6,6],"right_children":[2,4,6,8,10,12,14,-1,-1,-1,-1,-1,-1,-1,-1],"split_conditions":[6.9E1,2.3857143E1,6E1,1.1E1,1.1166667E1,4.3E1,1.0975E1,7.7724555E-3,9.840588E-2,7.548796E-2,3.00114E-1,5.6568414E-1,1.4537965E-1,6.26693E-1,1.768589E0],"split_indices":[95,94,107,95,2,21,70,0,0,0,0,0,0,0,0],"split_type":[0,0,0,0,0,0,0,0,0,0,0,0,0,0,0],"sum_hessian":[3.949E3,3.807E3,1.42E2,3.52E3,2.87E2,6.4E1,7.8E1,3.285E3,2.35E2,7.8E1,2.09E2,4E1,2.4E1,5.9E1,1.9E1],"tree_param":{"num_deleted":"0","num_feature":"125","num_nodes":"15","size_leaf_vector":"1"}},{"base_weights":[5.4534893E0,2.347942E0,5.4537575E1,9.6550703E-1,1.607187E1,3.4509712E1,8.317677E1,3.0553567E-3,4.4322353E-2,1.09401E-1,2.2735076E-1,3.1733164E-1,1.0312984E0,7.701243E-1,2.4860048E0],"categories":[],"categories_nodes":[],"categories_segments":[],"categories_sizes":[],"default_left":[1,1,0,1,0,1,1,0,0,0,0,0,0,0,0],"id":59,"left_children":[1,3,5,7,9,11,13,-1,-1,-1,-1,-1,-1,-1,-1],"loss_changes":[6.0198206E5,7.048607E4,1.3192138E5,7.7250225E3,1.1377258E4,2.340114E4,7.874856E4,0E0,0E0,0E0,0E0,0E0,0E0,0E0,0E0],"parents":[2147483647,0,0,1,1,2,2,3,3,4,4,5,5,6,6],"right_children":[2,4,6,8,10,12,14,-1,-1,-1,-1,-1,-1,-1,-1],"split_conditions":[4.6333332E1,1.3285714E1,9.9E1,5E0,2.7E1,5E-1,3.47E2,3.0553567E-3,4.4322353E-2,1.09401E-1,2.2735076E-1,3.1733164E-1,1.0312984E0,7.701243E-1,2.4860048E0],"split_indices":[93,94,95,95,95,4,99,0,0,0,0,0,0,0,0],"split_type":[0,0,0,0,0,0,0,0,0,0,0,0,0,0,0],"sum_hessian":[3.949E3,3.715E3,2.34E2,3.376E3,3.39E2,1.39E2,9.5E1,2.837E3,5.39E2,1.93E2,1.46E2,1.35E2,4E0,9.3E1,2E0],"tree_param":{"num_deleted":"0","num_feature":"125","num_nodes":"15","size_leaf_vector":"1"}},{"base_weights":[5.4002175E0,2.7271132E0,6.137175E1,1.2919685E0,2.1480919E1,3.2496006E1,8.1223724E1,4.140543E-3,6.1739743E-2,1.287321E0,2.0597085E-1,-1.654907E-2,3.7178025E-1,3.97352E-1,1.0782969E0],"categories":[],"categories_nodes":[],"categories_segments":[],"categories_sizes":[],"default_left":[1,1,1,1,0,0,0,0,0,0,0,0,0,0,0],"id":60,"left_children":[1,3,5,7,9,11,13,-1,-1,-1,-1,-1,-1,-1,-1],"loss_changes":[5.9082275E5,1.0146655E5,1.00543875E5,1.5015528E4,2.2752758E4,1.2053664E4,1.1272269E5,0E0,0E0,0E0,0E0,0E0,0E0,0E0,0E0],"parents":[2147483647,0,0,1,1,2,2,3,3,4,4,5,5,6,6],"right_children":[2,4,6,8,10,12,14,-1,-1,-1,-1,-1,-1,-1,-1],"split_conditions":[5.7E1,2.2428572E1,4.6E1,6E0,1E0,5.108333E0,1.7041666E1,4.140543E-3,6.1739743E-2,1.287321E0,2.0597085E-1,-1.654907E-2,3.7178025E-1,3.97352E-1,1.0782969E0],"split_indices":[95,94,99,95,5,69,2,0,0,0,0,0,0,0,0],"split_type":[0,0,0,0,0,0,0,0,0,0,0,0,0,0,0],"sum_hessian":[3.949E3,3.77E3,1.79E2,3.503E3,2.67E2,7.4E1,1.05E2,2.97E3,5.33E2,1E0,2.66E2,9E0,6.5E1,4.2E1,6.3E1],"tree_param":{"num_deleted":"0","num_feature":"125","num_nodes":"15","size_leaf_vector":"1"}},{"base_weights":[5.3470736E0,2.299364E0,5.3517036E1,1.1139247E0,1.7732712E1,3.384328E1,8.165046E1,3.4987943E-3,4.7895003E-2,1.3365126E-1,2.4158002E-1,3.109757E-1,1.0175793E0,7.552948E-1,2.4622428E0],"categories":[],"categories_nodes":[],"categories_segments":[],"categories_sizes":[],"default_left":[1,1,0,1,1,1,1,0,0,0,0,0,0,0,0],"id":61,"left_children":[1,3,5,7,9,11,13,-1,-1,-1,-1,-1,-1,-1,-1],"loss_changes":[5.7976875E5,6.796557E4,1.2730681E5,9.692597E3,7.1138203E3,2.2941938E4,7.810869E4,0E0,0E0,0E0,0E0,0E0,0E0,0E0,0E0],"parents":[2147483647,0,0,1,1,2,2,3,3,4,4,5,5,6,6],"right_children":[2,4,6,8,10,12,14,-1,-1,-1,-1,-1,-1,-1,-1],"split_conditions":[4.6333332E1,1.6E1,9.9E1,4.428571E0,2.6142857E1,5E-1,3.47E2,3.4987943E-3,4.7895003E-2,1.3365126E-1,2.4158002E-1,3.109757E-1,1.0175793E0,7.552948E-1,2.4622428E0],"split_indices":[93,95,95,94,113,4,99,0,0,0,0,0,0,0,0],"split_type":[0,0,0,0,0,0,0,0,0,0,0,0,0,0,0],"sum_hessian":[3.949E3,3.715E3,2.34E2,3.451E3,2.64E2,1.39E2,9.5E1,2.858E3,5.93E2,1.59E2,1.05E2,1.35E2,4E0,9.3E1,2E0],"tree_param":{"num_deleted":"0","num_feature":"125","num_nodes":"15","size_leaf_vector":"1"}},{"base_weights":[5.294862E0,2.9681618E0,6.7216385E1,1.4084505E0,2.4072468E1,3.552371E1,8.662063E1,4.4909692E-3,6.557495E-2,1.2793295E0,2.318437E-1,2.3228982E-1,7.4404037E-1,4.6011475E-1,1.1656336E0],"categories":[],"categories_nodes":[],"categories_segments":[],"categories_sizes":[],"default_left":[1,1,0,1,0,0,0,0,0,0,0,0,0,0,0],"id":62,"left_children":[1,3,5,7,9,11,13,-1,-1,-1,-1,-1,-1,-1,-1],"loss_changes":[5.6888806E5,1.2531261E5,8.4864E4,1.7518363E4,2.120039E4,2.5040953E4,1.0164025E5,0E0,0E0,0E0,0E0,0E0,0E0,0E0,0E0],"parents":[2147483647,0,0,1,1,2,2,3,3,4,4,5,5,6,6],"right_children":[2,4,6,8,10,12,14,-1,-1,-1,-1,-1,-1,-1,-1],"split_conditions":[6.9E1,2.5666666E1,1.7041666E1,5.571429E0,1E0,8.5375E1,6.9333336E1,4.4909692E-3,6.557495E-2,1.2793295E0,2.318437E-1,2.3228982E-1,7.4404037E-1,4.6011475E-1,1.1656336E0],"split_indices":[95,93,2,94,5,19,106,0,0,0,0,0,0,0,0],"split_type":[0,0,0,0,0,0,0,0,0,0,0,0,0,0,0],"sum_hessian":[3.949E3,3.807E3,1.42E2,3.546E3,2.61E2,5.5E1,8.7E1,2.99E3,5.56E2,1E0,2.6E2,4.3E1,1.2E1,3.8E1,4.9E1],"tree_param":{"num_deleted":"0","num_feature":"125","num_nodes":"15","size_leaf_vector":"1"}},{"base_weights":[5.242972E0,2.2520804E0,5.251493E1,1.0891545E0,1.7392336E1,3.3206028E1,8.0126724E1,1.9542444E-3,4.1353486E-2,1.3102704E-1,2.3703173E-1,3.0492052E-1,1.0038488E0,1.616984E0,6.8761426E-1],"categories":[],"categories_nodes":[],"categories_segments":[],"categories_sizes":[],"default_left":[1,1,0,0,1,1,0,0,0,0,0,0,0,0,0],"id":63,"left_children":[1,3,5,7,9,11,13,-1,-1,-1,-1,-1,-1,-1,-1],"loss_changes":[5.583537E5,6.5408656E4,1.22630375E5,9.397177E3,6.8632812E3,2.2464078E4,7.788169E4,0E0,0E0,0E0,0E0,0E0,0E0,0E0,0E0],"parents":[2147483647,0,0,1,1,2,2,3,3,4,4,5,5,6,6],"right_children":[2,4,6,8,10,12,14,-1,-1,-1,-1,-1,-1,-1,-1],"split_conditions":[4.6333332E1,1.6E1,9.9E1,4E0,2.6142857E1,5E-1,4.3E1,1.9542444E-3,4.1353486E-2,1.3102704E-1,2.3703173E-1,3.0492052E-1,1.0038488E0,1.616984E0,6.8761426E-1],"split_indices":[93,95,95,95,113,4,1,0,0,0,0,0,0,0,0],"split_type":[0,0,0,0,0,0,0,0,0,0,0,0,0,0,0],"sum_hessian":[3.949E3,3.715E3,2.34E2,3.451E3,2.64E2,1.39E2,9.5E1,2.669E3,7.82E2,1.59E2,1.05E2,1.35E2,4E0,1E1,8.5E1],"tree_param":{"num_deleted":"0","num_feature":"125","num_nodes":"15","size_leaf_vector":"1"}},{"base_weights":[5.191561E0,2.6169903E0,5.909998E1,9.64038E-1,1.7717585E1,3.0962568E1,7.845098E1,1.5839367E-3,3.647607E-2,1.2714083E0,1.7079945E-1,-2.6969606E-2,3.5593367E-1,3.8076746E-1,1.0435162E0],"categories":[],"categories_nodes":[],"categories_segments":[],"categories_sizes":[],"default_left":[1,1,1,1,0,0,0,0,0,0,0,0,0,0,0],"id":64,"left_children":[1,3,5,7,9,11,13,-1,-1,-1,-1,-1,-1,-1,-1],"loss_changes":[5.4806994E5,9.410919E4,9.5578625E4,7.3502295E3,2.3783828E4,1.1786281E4,1.0687281E5,0E0,0E0,0E0,0E0,0E0,0E0,0E0,0E0],"parents":[2147483647,0,0,1,1,2,2,3,3,4,4,5,5,6,6],"right_children":[2,4,6,8,10,12,14,-1,-1,-1,-1,-1,-1,-1,-1],"split_conditions":[5.7E1,1.3333333E1,4.6E1,3.2857144E0,1E0,5.108333E0,1.7041666E1,1.5839367E-3,3.647607E-2,1.2714083E0,1.7079945E-1,-2.6969606E-2,3.5593367E-1,3.8076746E-1,1.0435162E0],"split_indices":[95,93,99,94,5,69,2,0,0,0,0,0,0,0,0],"split_type":[0,0,0,0,0,0,0,0,0,0,0,0,0,0,0],"sum_hessian":[3.949E3,3.77E3,1.79E2,3.399E3,3.71E2,7.4E1,1.05E2,2.615E3,7.84E2,1E0,3.7E2,9E0,6.5E1,4.2E1,6.3E1],"tree_param":{"num_deleted":"0","num_feature":"125","num_nodes":"15","size_leaf_vector":"1"}},{"base_weights":[5.1404643E0,2.2049556E0,5.1537098E1,8.7351936E-1,1.4926769E1,3.257899E1,7.86475E1,2.7619435E-3,4.0752914E-2,1.0143475E-1,2.1528345E-1,2.989532E-1,9.905905E-1,7.257664E-1,2.426516E0],"categories":[],"categories_nodes":[],"categories_segments":[],"categories_sizes":[],"default_left":[1,1,0,1,0,1,1,0,0,0,0,0,0,0,0],"id":65,"left_children":[1,3,5,7,9,11,13,-1,-1,-1,-1,-1,-1,-1,-1],"loss_changes":[5.378674E5,6.2929633E4,1.1821875E5,6.4344326E3,1.0896828E4,2.2016078E4,7.7971E4,0E0,0E0,0E0,0E0,0E0,0E0,0E0,0E0],"parents":[2147483647,0,0,1,1,2,2,3,3,4,4,5,5,6,6],"right_children":[2,4,6,8,10,12,14,-1,-1,-1,-1,-1,-1,-1,-1],"split_conditions":[4.6333332E1,1.2571428E1,9.9E1,5E0,2.7E1,5E-1,3.47E2,2.7619435E-3,4.0752914E-2,1.0143475E-1,2.1528345E-1,2.989532E-1,9.905905E-1,7.257664E-1,2.426516E0],"split_indices":[93,94,95,95,95,4,99,0,0,0,0,0,0,0,0],"split_type":[0,0,0,0,0,0,0,0,0,0,0,0,0,0,0],"sum_hessian":[3.949E3,3.715E3,2.34E2,3.364E3,3.51E2,1.39E2,9.5E1,2.836E3,5.28E2,2.05E2,1.46E2,1.35E2,4E0,9.3E1,2E0],"tree_param":{"num_deleted":"0","num_feature":"125","num_nodes":"15","size_leaf_vector":"1"}},{"base_weights":[5.0902753E0,2.8494406E0,6.472669E1,1.2674228E0,2.2180813E1,3.7478703E1,8.63266E1,7.0243315E-3,9.128814E-2,6.138122E-2,2.81103E-1,5.2650934E-1,1.10970914E-1,5.7285374E-1,1.6913394E0],"categories":[],"categories_nodes":[],"categories_segments":[],"categories_sizes":[],"default_left":[1,1,0,1,0,0,0,0,0,0,0,0,0,0,0],"id":66,"left_children":[1,3,5,7,9,11,13,-1,-1,-1,-1,-1,-1,-1,-1],"loss_changes":[5.276751E5,1.1643034E5,8.092781E4,1.5632479E4,2.7223422E4,2.543314E4,1.802925E5,0E0,0E0,0E0,0E0,0E0,0E0,0E0,0E0],"parents":[2147483647,0,0,1,1,2,2,3,3,4,4,5,5,6,6],"right_children":[2,4,6,8,10,12,14,-1,-1,-1,-1,-1,-1,-1,-1],"split_conditions":[6.9E1,2.3857143E1,6E1,1.1E1,1.1166667E1,4.3E1,1.0975E1,7.0243315E-3,9.128814E-2,6.138122E-2,2.81103E-1,5.2650934E-1,1.10970914E-1,5.7285374E-1,1.6913394E0],"split_indices":[95,94,107,95,2,21,70,0,0,0,0,0,0,0,0],"split_type":[0,0,0,0,0,0,0,0,0,0,0,0,0,0,0],"sum_hessian":[3.949E3,3.807E3,1.42E2,3.52E3,2.87E2,6.4E1,7.8E1,3.285E3,2.35E2,7.8E1,2.09E2,4E1,2.4E1,5.9E1,1.9E1],"tree_param":{"num_deleted":"0","num_feature":"125","num_nodes":"15","size_leaf_vector":"1"}},{"base_weights":[5.040219E0,2.1592374E0,5.0575054E1,1.0406177E0,1.6722694E1,3.1951565E1,7.720749E1,1.777656E-3,3.981581E-2,7.48844E-2,1.9447207E-1,2.9290792E-1,9.7934264E-1,7.119361E-1,2.3990636E0],"categories":[],"categories_nodes":[],"categories_segments":[],"categories_sizes":[],"default_left":[1,1,0,0,0,1,1,0,0,0,0,0,0,0,0],"id":67,"left_children":[1,3,5,7,9,11,13,-1,-1,-1,-1,-1,-1,-1,-1],"loss_changes":[5.180716E5,6.0519832E4,1.140905E5,8.759145E3,6.5214766E3,2.1710531E4,7.685144E4,0E0,0E0,0E0,0E0,0E0,0E0,0E0,0E0],"parents":[2147483647,0,0,1,1,2,2,3,3,4,4,5,5,6,6],"right_children":[2,4,6,8,10,12,14,-1,-1,-1,-1,-1,-1,-1,-1],"split_conditions":[4.6333332E1,1.6E1,9.9E1,4E0,1.3166666E-1,5E-1,3.47E2,1.777656E-3,3.981581E-2,7.48844E-2,1.9447207E-1,2.9290792E-1,9.7934264E-1,7.119361E-1,2.3990636E0],"split_indices":[93,95,95,95,68,4,99,0,0,0,0,0,0,0,0],"split_type":[0,0,0,0,0,0,0,0,0,0,0,0,0,0,0],"sum_hessian":[3.949E3,3.715E3,2.34E2,3.451E3,2.64E2,1.39E2,9.5E1,2.669E3,7.82E2,6.1E1,2.03E2,1.35E2,4E0,9.3E1,2E0],"tree_param":{"num_deleted":"0","num_feature":"125","num_nodes":"15","size_leaf_vector":"1"}},{"base_weights":[4.991005E0,2.5109718E0,5.691997E1,1.1808516E0,1.9892427E1,2.9484165E1,7.579512E1,3.6528334E-3,5.7161935E-2,1.2606864E0,1.9022596E-1,-3.7927154E-2,3.4079388E-1,3.6302474E-1,1.0114493E0],"categories":[],"categories_nodes":[],"categories_segments":[],"categories_sizes":[],"default_left":[1,1,1,1,0,0,0,0,0,0,0,0,0,0,0],"id":68,"left_children":[1,3,5,7,9,11,13,-1,-1,-1,-1,-1,-1,-1,-1],"loss_changes":[5.0856006E5,8.715985E4,9.097906E4,1.2958792E4,2.2353086E4,1.1597848E4,1.02448125E5,0E0,0E0,0E0,0E0,0E0,0E0,0E0,0E0],"parents":[2147483647,0,0,1,1,2,2,3,3,4,4,5,5,6,6],"right_children":[2,4,6,8,10,12,14,-1,-1,-1,-1,-1,-1,-1,-1],"split_conditions":[5.7E1,2.2428572E1,4.6E1,6E0,1E0,5.108333E0,1.7041666E1,3.6528334E-3,5.7161935E-2,1.2606864E0,1.9022596E-1,-3.7927154E-2,3.4079388E-1,3.6302474E-1,1.0114493E0],"split_indices":[95,94,99,95,5,69,2,0,0,0,0,0,0,0,0],"split_type":[0,0,0,0,0,0,0,0,0,0,0,0,0,0,0],"sum_hessian":[3.949E3,3.77E3,1.79E2,3.503E3,2.67E2,7.4E1,1.05E2,2.97E3,5.33E2,1E0,2.66E2,9E0,6.5E1,4.2E1,6.3E1],"tree_param":{"num_deleted":"0","num_feature":"125","num_nodes":"15","size_leaf_vector":"1"}},{"base_weights":[4.941902E0,2.1145744E0,4.9628746E1,8.052299E-1,1.4096812E1,3.1336006E1,7.578869E1,-2.1037422E-3,2.4632312E-2,9.6360415E-2,2.0602296E-1,2.8704712E-1,9.664E-1,1.5651631E0,6.45818E-1],"categories":[],"categories_nodes":[],"categories_segments":[],"categories_sizes":[],"default_left":[1,1,0,1,0,1,0,0,0,0,0,0,0,0,0],"id":69,"left_children":[1,3,5,7,9,11,13,-1,-1,-1,-1,-1,-1,-1,-1],"loss_changes":[4.9895522E5,5.828851E4,1.1008125E5,5.6431772E3,1.0422609E4,2.128275E4,7.674369E4,0E0,0E0,0E0,0E0,0E0,0E0,0E0,0E0],"parents":[2147483647,0,0,1,1,2,2,3,3,4,4,5,5,6,6],"right_children":[2,4,6,8,10,12,14,-1,-1,-1,-1,-1,-1,-1,-1],"split_conditions":[4.6333332E1,1.1857142E1,9.9E1,1.8571428E0,2.7E1,5E-1,4.3E1,-2.1037422E-3,2.4632312E-2,9.6360415E-2,2.0602296E-1,2.8704712E-1,9.664E-1,1.5651631E0,6.45818E-1],"split_indices":[93,94,95,94,95,4,1,0,0,0,0,0,0,0,0],"split_type":[0,0,0,0,0,0,0,0,0,0,0,0,0,0,0],"sum_hessian":[3.949E3,3.715E3,2.34E2,3.35E3,3.65E2,1.39E2,9.5E1,2.078E3,1.272E3,2.18E2,1.47E2,1.35E2,4E0,1E1,8.5E1],"tree_param":{"num_deleted":"0","num_feature":"125","num_nodes":"15","size_leaf_vector":"1"}},{"base_weights":[4.8934426E0,2.4603348E0,5.5839863E1,9.007009E-1,1.6708439E1,2.8791304E1,7.44512E1,1.3266462E-3,3.4590222E-2,1.2529477E0,1.6078031E-1,-4.1245546E-2,3.3342323E-1,3.551641E-1,9.944722E-1],"categories":[],"categories_nodes":[],"categories_segments":[],"categories_sizes":[],"default_left":[1,1,1,1,0,0,0,0,0,0,0,0,0,0,0],"id":70,"left_children":[1,3,5,7,9,11,13,-1,-1,-1,-1,-1,-1,-1,-1],"loss_changes":[4.8949725E5,8.3783445E4,8.847025E4,6.6801445E3,2.3450258E4,1.1372566E4,9.962875E4,0E0,0E0,0E0,0E0,0E0,0E0,0E0,0E0],"parents":[2147483647,0,0,1,1,2,2,3,3,4,4,5,5,6,6],"right_children":[2,4,6,8,10,12,14,-1,-1,-1,-1,-1,-1,-1,-1],"split_conditions":[5.7E1,1.3333333E1,4.6E1,3.2857144E0,1E0,5.108333E0,1.7041666E1,1.3266462E-3,3.4590222E-2,1.2529477E0,1.6078031E-1,-4.1245546E-2,3.3342323E-1,3.551641E-1,9.944722E-1],"split_indices":[95,93,99,94,5,69,2,0,0,0,0,0,0,0,0],"split_type":[0,0,0,0,0,0,0,0,0,0,0,0,0,0,0],"sum_hessian":[3.949E3,3.77E3,1.79E2,3.399E3,3.71E2,7.4E1,1.05E2,2.615E3,7.84E2,1E0,3.7E2,9E0,6.5E1,4.2E1,6.3E1],"tree_param":{"num_deleted":"0","num_feature":"125","num_nodes":"15","size_leaf_vector":"1"}},{"base_weights":[4.8452907E0,2.0703156E0,4.8704704E1,9.9298733E-1,1.609623E1,3.0745424E1,7.438798E1,1.6213215E-3,3.824904E-2,2.1371728E-1,1.1305211E-1,2.8143442E-1,9.537025E-1,6.8421584E-1,2.3653917E0],"categories":[],"categories_nodes":[],"categories_segments":[],"categories_sizes":[],"default_left":[1,1,0,0,0,1,1,0,0,0,0,0,0,0,0],"id":71,"left_children":[1,3,5,7,9,11,13,-1,-1,-1,-1,-1,-1,-1,-1],"loss_changes":[4.8064884E5,5.6134695E4,1.0610744E5,8.121633E3,6.456258E3,2.0857328E4,7.669169E4,0E0,0E0,0E0,0E0,0E0,0E0,0E0,0E0],"parents":[2147483647,0,0,1,1,2,2,3,3,4,4,5,5,6,6],"right_children":[2,4,6,8,10,12,14,-1,-1,-1,-1,-1,-1,-1,-1],"split_conditions":[4.6333332E1,1.6E1,9.9E1,4E0,5.9875E1,5E-1,3.47E2,1.6213215E-3,3.824904E-2,2.1371728E-1,1.1305211E-1,2.8143442E-1,9.537025E-1,6.8421584E-1,2.3653917E0],"split_indices":[93,95,95,95,80,4,99,0,0,0,0,0,0,0,0],"split_type":[0,0,0,0,0,0,0,0,0,0,0,0,0,0,0],"sum_hessian":[3.949E3,3.715E3,2.34E2,3.451E3,2.64E2,1.39E2,9.5E1,2.669E3,7.82E2,1.24E2,1.4E2,1.35E2,4E0,9.3E1,2E0],"tree_param":{"num_deleted":"0","num_feature":"125","num_nodes":"15","size_leaf_vector":"1"}},{"base_weights":[4.7980156E0,2.6794958E0,6.1179306E1,1.1839235E0,2.0954603E1,3.4810844E1,8.210045E1,6.5105357E-3,8.598443E-2,5.216288E-2,2.6775423E-1,4.9872172E-1,8.717835E-2,5.359287E-1,1.6351815E0],"categories":[],"categories_nodes":[],"categories_segments":[],"categories_sizes":[],"default_left":[1,1,0,1,0,0,0,0,0,0,0,0,0,0,0],"id":72,"left_children":[1,3,5,7,9,11,13,-1,-1,-1,-1,-1,-1,-1,-1],"loss_changes":[4.716433E5,1.0405448E5,7.602919E4,1.3905783E4,2.6243984E4,2.5109914E4,1.7459725E5,0E0,0E0,0E0,0E0,0E0,0E0,0E0,0E0],"parents":[2147483647,0,0,1,1,2,2,3,3,4,4,5,5,6,6],"right_children":[2,4,6,8,10,12,14,-1,-1,-1,-1,-1,-1,-1,-1],"split_conditions":[6.9E1,2.3857143E1,6E1,1.1E1,1.1166667E1,4.3E1,1.0975E1,6.5105357E-3,8.598443E-2,5.216288E-2,2.6775423E-1,4.9872172E-1,8.717835E-2,5.359287E-1,1.6351815E0],"split_indices":[95,94,107,95,2,21,70,0,0,0,0,0,0,0,0],"split_type":[0,0,0,0,0,0,0,0,0,0,0,0,0,0,0],"sum_hessian":[3.949E3,3.807E3,1.42E2,3.52E3,2.87E2,6.4E1,7.8E1,3.285E3,2.35E2,7.8E1,2.09E2,4E1,2.4E1,5.9E1,1.9E1],"tree_param":{"num_deleted":"0","num_feature":"125","num_nodes":"15","size_leaf_vector":"1"}},{"base_weights":[4.750838E0,2.0273952E0,4.779578E1,8.1741506E-1,1.4039382E1,3.0154274E1,7.302511E1,2.372501E-3,3.8649905E-2,1.1688604E-1,2.6008162E-1,2.75745E-1,9.4293267E-1,6.711483E-1,2.3387213E0],"categories":[],"categories_nodes":[],"categories_segments":[],"categories_sizes":[],"default_left":[1,1,0,1,0,1,1,0,0,0,0,0,0,0,0],"id":73,"left_children":[1,3,5,7,9,11,13,-1,-1,-1,-1,-1,-1,-1,-1],"loss_changes":[4.629633E5,5.3997844E4,1.023925E5,5.9699453E3,9.262227E3,2.0564883E4,7.556616E4,0E0,0E0,0E0,0E0,0E0,0E0,0E0,0E0],"parents":[2147483647,0,0,1,1,2,2,3,3,4,4,5,5,6,6],"right_children":[2,4,6,8,10,12,14,-1,-1,-1,-1,-1,-1,-1,-1],"split_conditions":[4.6333332E1,1.3285714E1,9.9E1,5E0,4.6E1,5E-1,3.47E2,2.372501E-3,3.8649905E-2,1.1688604E-1,2.6008162E-1,2.75745E-1,9.4293267E-1,6.711483E-1,2.3387213E0],"split_indices":[93,94,95,95,95,4,99,0,0,0,0,0,0,0,0],"split_type":[0,0,0,0,0,0,0,0,0,0,0,0,0,0,0],"sum_hessian":[3.949E3,3.715E3,2.34E2,3.376E3,3.39E2,1.39E2,9.5E1,2.837E3,5.39E2,2.85E2,5.4E1,1.35E2,4E0,9.3E1,2E0],"tree_param":{"num_deleted":"0","num_feature":"125","num_nodes":"15","size_leaf_vector":"1"}},{"base_weights":[4.7045054E0,2.6256866E0,6.0029247E1,1.1591359E0,2.054617E1,3.0355677E1,7.823028E1,6.36045E-3,8.437601E-2,4.9862206E-2,2.6301834E-1,1.8542993E-1,6.8002015E-1,5.964738E-1,1.4257619E0],"categories":[],"categories_nodes":[],"categories_segments":[],"categories_sizes":[],"default_left":[1,1,0,1,0,0,0,0,0,0,0,0,0,0,0],"id":74,"left_children":[1,3,5,7,9,11,13,-1,-1,-1,-1,-1,-1,-1,-1],"loss_changes":[4.5413238E5,1.0005537E5,7.485809E4,1.3400135E4,2.5661508E4,2.3642484E4,9.672025E4,0E0,0E0,0E0,0E0,0E0,0E0,0E0,0E0],"parents":[2147483647,0,0,1,1,2,2,3,3,4,4,5,5,6,6],"right_children":[2,4,6,8,10,12,14,-1,-1,-1,-1,-1,-1,-1,-1],"split_conditions":[6.9E1,2.3857143E1,1.7041666E1,1.1E1,1.1166667E1,8.5375E1,1.1691667E1,6.36045E-3,8.437601E-2,4.9862206E-2,2.6301834E-1,1.8542993E-1,6.8002015E-1,5.964738E-1,1.4257619E0],"split_indices":[95,94,2,95,2,19,69,0,0,0,0,0,0,0,0],"split_type":[0,0,0,0,0,0,0,0,0,0,0,0,0,0,0],"sum_hessian":[3.949E3,3.807E3,1.42E2,3.52E3,2.87E2,5.5E1,8.7E1,3.285E3,2.35E2,7.8E1,2.09E2,4.3E1,1.2E1,6.9E1,1.8E1],"tree_param":{"num_deleted":"0","num_feature":"125","num_nodes":"15","size_leaf_vector":"1"}},{"base_weights":[4.6582937E0,1.9851177E0,4.690878E1,9.481781E-1,1.5485232E1,2.9578236E1,7.1693855E1,1.4434566E-3,3.688005E-2,2.0694014E-1,1.0757693E-1,2.702189E-1,9.319512E-1,1.516244E0,6.063653E-1],"categories":[],"categories_nodes":[],"categories_segments":[],"categories_sizes":[],"default_left":[1,1,0,0,0,1,0,0,0,0,0,0,0,0,0],"id":75,"left_children":[1,3,5,7,9,11,13,-1,-1,-1,-1,-1,-1,-1,-1],"loss_changes":[4.460317E5,5.2004863E4,9.882106E4,7.6020195E3,6.3029336E3,2.0249414E4,7.565256E4,0E0,0E0,0E0,0E0,0E0,0E0,0E0,0E0],"parents":[2147483647,0,0,1,1,2,2,3,3,4,4,5,5,6,6],"right_children":[2,4,6,8,10,12,14,-1,-1,-1,-1,-1,-1,-1,-1],"split_conditions":[4.6333332E1,1.6E1,9.9E1,4E0,5.9875E1,5E-1,4.3E1,1.4434566E-3,3.688005E-2,2.0694014E-1,1.0757693E-1,2.702189E-1,9.319512E-1,1.516244E0,6.063653E-1],"split_indices":[93,95,95,95,80,4,1,0,0,0,0,0,0,0,0],"split_type":[0,0,0,0,0,0,0,0,0,0,0,0,0,0,0],"sum_hessian":[3.949E3,3.715E3,2.34E2,3.451E3,2.64E2,1.39E2,9.5E1,2.669E3,7.82E2,1.24E2,1.4E2,1.35E2,4E0,1E1,8.5E1],"tree_param":{"num_deleted":"0","num_feature":"125","num_nodes":"15","size_leaf_vector":"1"}},{"base_weights":[4.612642E0,2.3121889E0,5.2781506E1,1.1144947E0,1.8891623E1,2.663157E1,7.078587E1,4.0794984E-3,5.980185E-2,1.2398921E0,1.7986141E-1,-5.7256397E-2,3.113067E-1,3.3131438E-1,9.4978917E-1],"categories":[],"categories_nodes":[],"categories_segments":[],"categories_sizes":[],"default_left":[1,1,1,1,0,0,0,0,0,0,0,0,0,0,0],"id":76,"left_children":[1,3,5,7,9,11,13,-1,-1,-1,-1,-1,-1,-1,-1],"loss_changes":[4.3757825E5,7.486004E4,8.286125E4,1.2091842E4,2.1941547E4,1.1096609E4,9.3416625E4,0E0,0E0,0E0,0E0,0E0,0E0,0E0,0E0],"parents":[2147483647,0,0,1,1,2,2,3,3,4,4,5,5,6,6],"right_children":[2,4,6,8,10,12,14,-1,-1,-1,-1,-1,-1,-1,-1],"split_conditions":[5.7E1,2.3857143E1,4.6E1,7E0,1E0,5.108333E0,1.7041666E1,4.0794984E-3,5.980185E-2,1.2398921E0,1.7986141E-1,-5.7256397E-2,3.113067E-1,3.3131438E-1,9.4978917E-1],"split_indices":[95,94,99,95,5,69,2,0,0,0,0,0,0,0,0],"split_type":[0,0,0,0,0,0,0,0,0,0,0,0,0,0,0],"sum_hessian":[3.949E3,3.77E3,1.79E2,3.517E3,2.53E2,7.4E1,1.05E2,3.072E3,4.45E2,1E0,2.52E2,9E0,6.5E1,4.2E1,6.3E1],"tree_param":{"num_deleted":"0","num_feature":"125","num_nodes":"15","size_leaf_vector":"1"}},{"base_weights":[4.56728E0,1.9441822E0,4.602627E1,9.266331E-1,1.5191861E1,2.9007807E1,7.0365425E1,1.0126417E-3,3.5051737E-2,2.0342296E-1,1.0518127E-1,2.602442E-1,8.197439E-1,6.450294E-1,2.3060145E0],"categories":[],"categories_nodes":[],"categories_segments":[],"categories_sizes":[],"default_left":[1,1,0,1,0,0,1,0,0,0,0,0,0,0,0],"id":77,"left_children":[1,3,5,7,9,11,13,-1,-1,-1,-1,-1,-1,-1,-1],"loss_changes":[4.2947694E5,5.0078203E4,9.5299375E4,7.346356E3,6.165051E3,1.9989453E4,7.530616E4,0E0,0E0,0E0,0E0,0E0,0E0,0E0,0E0],"parents":[2147483647,0,0,1,1,2,2,3,3,4,4,5,5,6,6],"right_children":[2,4,6,8,10,12,14,-1,-1,-1,-1,-1,-1,-1,-1],"split_conditions":[4.6333332E1,1.6E1,9.9E1,3.2857144E0,5.9875E1,3.8066666E1,3.47E2,1.0126417E-3,3.5051737E-2,2.0342296E-1,1.0518127E-1,2.602442E-1,8.197439E-1,6.450294E-1,2.3060145E0],"split_indices":[93,95,95,94,80,59,99,0,0,0,0,0,0,0,0],"split_type":[0,0,0,0,0,0,0,0,0,0,0,0,0,0,0],"sum_hessian":[3.949E3,3.715E3,2.34E2,3.451E3,2.64E2,1.39E2,9.5E1,2.615E3,8.36E2,1.24E2,1.4E2,1.33E2,6E0,9.3E1,2E0],"tree_param":{"num_deleted":"0","num_feature":"125","num_nodes":"15","size_leaf_vector":"1"}},{"base_weights":[4.5227146E0,2.265209E0,5.1792336E1,7.692078E-1,1.5049337E1,2.600388E1,6.955028E1,-3.6611324E-5,2.8707683E-2,1.229594E0,1.4463374E-1,-6.023765E-2,3.0462554E-1,3.2400095E-1,9.342383E-1],"categories":[],"categories_nodes":[],"categories_segments":[],"categories_sizes":[],"default_left":[1,1,1,1,0,0,0,0,0,0,0,0,0,0,0],"id":78,"left_children":[1,3,5,7,9,11,13,-1,-1,-1,-1,-1,-1,-1,-1],"loss_changes":[4.2139288E5,7.210906E4,8.062241E4,5.485037E3,2.319796E4,1.08935625E4,9.098519E4,0E0,0E0,0E0,0E0,0E0,0E0,0E0,0E0],"parents":[2147483647,0,0,1,1,2,2,3,3,4,4,5,5,6,6],"right_children":[2,4,6,8,10,12,14,-1,-1,-1,-1,-1,-1,-1,-1],"split_conditions":[5.7E1,1.3285714E1,4.6E1,3E0,1E0,5.108333E0,1.7041666E1,-3.6611324E-5,2.8707683E-2,1.229594E0,1.4463374E-1,-6.023765E-2,3.0462554E-1,3.2400095E-1,9.342383E-1],"split_indices":[95,94,99,95,5,69,2,0,0,0,0,0,0,0,0],"split_type":[0,0,0,0,0,0,0,0,0,0,0,0,0,0,0],"sum_hessian":[3.949E3,3.77E3,1.79E2,3.376E3,3.94E2,7.4E1,1.05E2,2.469E3,9.07E2,1E0,3.93E2,9E0,6.5E1,4.2E1,6.3E1],"tree_param":{"num_deleted":"0","num_feature":"125","num_nodes":"15","size_leaf_vector":"1"}},{"base_weights":[4.4782233E0,1.9034455E0,4.5173523E1,9.0520704E-1,1.4899732E1,2.8463724E1,6.907142E1,1.3090882E-3,3.544378E-2,2.0000784E-1,1.027185E-1,2.5948402E-1,9.1187775E-1,6.3250345E-1,2.2844129E0],"categories":[],"categories_nodes":[],"categories_segments":[],"categories_sizes":[],"default_left":[1,1,0,0,0,1,1,0,0,0,0,0,0,0,0],"id":79,"left_children":[1,3,5,7,9,11,13,-1,-1,-1,-1,-1,-1,-1,-1],"loss_changes":[4.1380038E5,4.819564E4,9.187634E4,7.053716E3,6.0504297E3,1.972179E4,7.461059E4,0E0,0E0,0E0,0E0,0E0,0E0,0E0,0E0],"parents":[2147483647,0,0,1,1,2,2,3,3,4,4,5,5,6,6],"right_children":[2,4,6,8,10,12,14,-1,-1,-1,-1,-1,-1,-1,-1],